test for writing sensor data,,,,,,,,,,,,,,,,,,,,,,
Time, omega_x, omega_y, omega_z,cam1_x, cam1_y, cam1_z, cam2_x, cam2_y, cam2_z,g_x, g_y, g_z,true_omega_x, true_omega_y, true_omega_z,true_attitude_x, true_attitude_y, true_attitude_z,bias_err_proposed, attitude_err_proposed,bias_err_mahony, attitude_err_mahony
0.000000256,0.997958,-1.00204,-1.00204,-0.0449009,0.261904,0.964049,0.137956,0.262642,0.95498,0.0149314,0.999481,0.0285332,-0.002042,0.009787,-0.003504,-117.312,-0.893,88.298,1.73807,49.45,1.73807,49.4501
0.054906,0.99759,-1.00241,-1.00241,-0.0449009,0.261904,0.964049,0.137886,0.262943,0.954908,0.0138999,0.999464,0.0296395,-0.00241,0.002634,0.000328,-117.294,-0.895,88.296,1.54398,42.6385,1.52104,50.1196
0.0809095,1.00007,-0.999929,-0.999929,-0.0449009,0.261904,0.964049,0.137886,0.262943,0.954908,0.0201294,0.99942,0.0274863,0.000071,0.00836,-0.000918,-117.283,-0.895,88.295,1.48065,39.8754,1.4432,50.3764
0.137655,0.999206,-1.00079,-1.00079,-0.0449009,0.261904,0.964049,0.13789,0.263249,0.954823,0.0115605,0.999523,0.0286455,-0.000794,0.028452,-0.005925,-117.239,-0.893,88.291,1.39645,34.7719,1.37217,50.8515
0.201177,0.999674,-1.00033,-1.00033,0.143229,0.233191,0.961825,0.31753,0.227659,0.920514,0.0135709,0.999553,0.0266316,-0.000326,0.040722,0.005216,-117.11,-0.882,88.294,1.34455,32.0766,1.49028,51.4289
0.267252,0.998394,-1.00161,-1.00161,0.14285,0.233195,0.96188,0.31753,0.227659,0.920514,0.0137973,0.999438,0.0305585,-0.001606,-0.003836,0.000091,-116.971,-0.88,88.301,1.26794,30.2057,1.82752,52.1541
0.328258,1.00177,-0.998229,-0.998229,0.14285,0.233195,0.96188,0.317282,0.227382,0.920668,0.00489325,0.999548,0.0296653,0.001771,0.093402,0.010456,-116.851,-0.892,88.302,1.28143,28.9755,2.32106,52.6645
0.360127,1.00064,-0.999358,-0.999358,0.140261,0.233626,0.962157,0.314953,0.227884,0.921343,0.0172332,0.999524,0.0255948,0.000642,0.062819,-0.001333,-116.702,-0.895,88.305,1.23324,28.3976,2.60024,52.6174
0.415111,1.01082,-0.989177,-0.989177,0.137185,0.234476,0.962394,0.311754,0.22905,0.922142,0.0334009,0.999347,0.013814,0.010823,0.127071,0.010121,-116.414,-0.906,88.307,1.22144,27.5685,3.11064,51.8218
0.445182,0.99726,-1.00274,-1.00274,0.134525,0.23484,0.96268,0.309701,0.229512,0.922719,0.0146062,0.999551,0.0261481,-0.00274,0.086945,0.001198,-116.244,-0.906,88.311,1.188,27.1746,3.39017,50.7752
0.503678,1.00345,-0.996552,-0.996552,0.128584,0.236298,0.963135,0.303882,0.230902,0.924305,0.0111252,0.999434,0.0317427,0.003448,0.133945,0.0152,-115.912,-0.931,88.302,1.17713,26.5193,3.87255,47.5925
0.530739,1.00419,-0.995809,-0.995809,0.124595,0.237072,0.963469,0.299782,0.231542,0.925483,0.0192765,0.999302,0.0319908,0.004191,0.134378,0.008788,-115.714,-0.939,88.305,1.1518,26.2535,4.05368,45.709
0.588552,1.00121,-0.998793,-0.998793,0.120563,0.237855,0.963789,0.296249,0.232442,0.926395,0.00775082,0.99955,0.0289636,0.001207,0.161476,0.011112,-115.243,-0.954,88.296,1.1371,25.8271,4.3392,41.473
0.621708,1.00329,-0.996714,-0.996714,0.116616,0.238318,0.96416,0.292698,0.233336,0.927298,0.00132739,0.999728,0.0232804,0.003286,0.172503,0.009731,-114.918,-0.966,88.295,1.12045,25.7003,4.42713,39.3376
0.676582,1.0046,-0.995398,-0.995398,0.106938,0.239927,0.964883,0.282921,0.235324,0.929827,0.0208819,0.999273,0.031883,0.004602,0.177952,0.012366,-114.338,-0.987,88.291,1.08969,25.8887,4.4581,37.0202
0.736532,1.00224,-0.997765,-0.997765,0.100756,0.241099,0.965256,0.277589,0.236373,0.931167,0.0249808,0.999336,0.0265166,0.002235,0.177287,0.010618,-113.739,-1.007,88.283,1.05633,26.5562,4.33258,36.3442
0.768672,1.00117,-0.998833,-0.998833,0.0937272,0.242595,0.965589,0.270666,0.237512,0.932914,0.0179822,0.99934,0.031571,0.001167,0.16512,0.007538,-113.42,-1.015,88.279,1.02993,26.9664,4.20952,36.624
0.832392,1.00062,-0.999379,-0.999379,0.0860473,0.243051,0.966189,0.263742,0.238944,0.93453,0.028064,0.998975,0.0355137,0.000621,0.17907,0.007284,-112.816,-1.034,88.274,1.00997,27.8445,3.86685,37.8538
0.860338,1.00271,-0.99729,-0.99729,0.0714062,0.245674,0.966719,0.25002,0.242113,0.937481,0.01653,0.999455,0.0285704,0.00271,0.169377,0.008479,-112.541,-1.041,88.274,0.988171,28.0911,3.68538,38.5353
0.916292,1.00131,-0.998687,-0.998687,0.0575657,0.247487,0.96718,0.236808,0.244267,0.940349,0.0178324,0.999326,0.0320983,0.001313,0.171531,0.010964,-111.952,-1.055,88.269,0.970863,28.2995,3.27745,39.8425
0.945987,1.00282,-0.99718,-0.99718,0.0507938,0.248957,0.967182,0.229685,0.245692,0.941743,0.0177133,0.999316,0.0324573,0.00282,0.157538,0.009137,-111.722,-1.062,88.268,0.94487,28.277,3.04261,40.3262
0.999795,1.00245,-0.997554,-0.997554,0.0363652,0.251165,0.967261,0.216532,0.248088,0.944228,0.0117341,0.999537,0.0280597,0.002446,0.150218,0.00781,-111.243,-1.075,88.264,0.919636,27.9308,2.59382,40.9204
1.0292,1.00213,-0.997874,-0.997874,0.0292867,0.251754,0.967348,0.209262,0.249799,0.945415,0.0110661,0.999533,0.0284849,0.002126,0.143119,0.005393,-110.92,-1.085,88.263,0.902886,27.5906,2.34013,41.0195
1.08475,1.00393,-0.996071,-0.996071,0.0216941,0.253155,0.967182,0.202942,0.251118,0.946443,0.0218295,0.999156,0.0347843,0.003929,0.161817,0.010213,-110.503,-1.097,88.261,0.899933,27.1153,1.85295,40.6238
1.11512,1.00226,-0.997736,-0.997736,0.0163265,0.253772,0.967126,0.196907,0.251781,0.947541,0.0209996,0.999213,0.0336401,0.002264,0.146322,0.009535,-110.237,-1.108,88.261,0.878385,26.8024,1.58731,40.1236
1.17193,1.00225,-0.997751,-0.997751,0.00366783,0.256176,0.966623,0.184738,0.25466,0.949221,0.0193503,0.999356,0.0302029,0.002249,0.140635,0.01253,-109.773,-1.124,88.259,0.857109,26.2047,1.09623,38.7301
1.22682,1.00417,-0.99583,-0.99583,-0.00234496,0.256664,0.966498,0.178662,0.255013,0.950288,0.0107543,0.99964,0.0245813,0.00417,0.123048,0.005506,-109.345,-1.14,88.258,0.820314,25.6849,0.64646,36.935
1.25591,1.00201,-0.997993,-0.997993,-0.00893911,0.257122,0.966338,0.172825,0.256575,0.950947,0.0108152,0.999488,0.0300989,0.002007,0.132445,0.006968,-109.138,-1.145,88.256,0.82418,25.4797,0.436619,35.8604
1.31039,1.00247,-0.997533,-0.997533,-0.0149983,0.258332,0.96594,0.166975,0.257791,0.951663,0.0214924,0.999294,0.0308058,0.002467,0.142158,0.008231,-108.688,-1.157,88.253,0.817637,25.3592,0.276265,33.6487
1.33943,1.00155,-0.998447,-0.998447,-0.0263145,0.259924,0.96527,0.155957,0.259616,0.953036,0.0168825,0.999548,0.0248634,0.001553,0.13973,0.010114,-108.447,-1.162,88.252,0.809625,25.3308,0.392212,32.5344
1.39424,1.00168,-0.998325,-0.998325,-0.0317244,0.260507,0.964951,0.149753,0.26052,0.953784,0.020063,0.999364,0.0294804,0.001675,0.130029,0.005906,-108.014,-1.176,88.251,0.784389,25.4361,0.712124,30.8009
1.42326,1.00268,-0.99732,-0.99732,-0.0389271,0.261436,0.964436,0.144479,0.261706,0.954272,0.0186043,0.999318,0.0318931,0.00268,0.134228,0.007199,-107.807,-1.18,88.249,0.780003,25.5238,0.877351,30.1836
1.47954,1.00361,-0.996394,-0.996394,-0.0499876,0.263168,0.963454,0.132656,0.263784,0.955416,0.0234922,0.999235,0.0312548,0.003606,0.14236,0.010404,-107.354,-1.192,88.248,0.773164,25.7907,1.16045,29.8005
1.50999,1.00469,-0.995312,-0.995312,-0.0565169,0.263787,0.962924,0.12772,0.264601,0.955863,0.0212174,0.999358,0.0288679,0.004688,0.141298,0.006737,-107.109,-1.202,88.248,0.762093,25.9291,1.2909,30.0705
1.56477,1.00238,-0.997622,-0.997622,-0.0611314,0.264189,0.962532,0.122425,0.26547,0.956315,0.0219836,0.999385,0.0273006,0.002378,0.133309,0.006951,-106.685,-1.215,88.246,0.744825,26.1066,1.47242,31.2789
1.59181,1.00175,-0.99825,-0.99825,-0.0661976,0.265425,0.961856,0.116423,0.266613,0.956746,0.0210236,0.999335,0.0298004,0.00175,0.138151,0.006343,-106.466,-1.219,88.244,0.743765,26.1399,1.5402,32.1436
1.64614,1.00195,-0.998048,-0.998048,-0.0782385,0.266753,0.960584,0.10484,0.268291,0.957616,0.0206531,0.999322,0.0304684,0.001952,0.134468,0.006738,-106.032,-1.231,88.241,0.72771,25.9913,1.62714,34.1197
1.67344,1.00271,-0.997293,-0.997293,-0.0840271,0.267603,0.959858,0.0991083,0.269727,0.957823,0.0207339,0.999312,0.0307434,0.002707,0.13088,0.009309,-105.843,-1.237,88.241,0.718135,25.8387,1.64737,35.1389
1.73615,1.00228,-0.997724,-0.997724,-0.0900571,0.268068,0.959181,0.093473,0.270231,0.958247,0.0111588,0.999478,0.0303027,0.002276,0.137034,0.011825,-105.349,-1.259,88.239,0.712005,25.1676,1.64225,37.2798
1.76667,1.00236,-0.997636,-0.997636,-0.0953758,0.268539,0.958536,0.0881293,0.27099,0.958539,0.022305,0.999344,0.0285178,0.002364,0.14707,0.008794,-105.105,-1.266,88.238,0.713857,24.8364,1.62025,38.2068
1.82235,1.00308,-0.996919,-0.996919,-0.106631,0.27005,0.956924,0.0763716,0.273211,0.958918,0.0192206,0.999266,0.0331249,0.003081,0.138328,0.010024,-104.633,-1.288,88.239,0.69342,23.984,1.53736,39.5072
1.84941,1.00179,-0.998208,-0.998208,-0.112327,0.270841,0.956048,0.0713185,0.274267,0.959005,0.0290428,0.999216,0.0268953,0.001792,0.11996,0.009194,-104.431,-1.297,88.239,0.67193,23.6236,1.48495,40.0369
1.90374,1.00071,-0.999288,-0.999288,-0.124259,0.272051,0.954226,0.0595512,0.275771,0.959377,0.0197823,0.999362,0.0297246,0.000712,0.122326,0.008886,-104.066,-1.316,88.238,0.66424,22.7299,1.35674,40.7567
1.93091,1.00386,-0.996143,-0.996143,-0.129831,0.272743,0.953287,0.0538485,0.276839,0.959406,0.0230701,0.999159,0.0338906,0.003857,0.127649,0.007929,-103.896,-1.323,88.238,0.659331,22.3141,1.28549,40.9892
1.99682,1.00391,-0.996093,-0.996093,-0.135017,0.273479,0.952355,0.0484048,0.277544,0.959493,0.017855,0.999472,0.0271396,0.003907,0.111285,0.006926,-103.485,-1.341,88.238,0.630858,21.2921,1.09693,41.097
2.02712,1.00319,-0.99681,-0.99681,-0.139883,0.27384,0.951549,0.0433657,0.278573,0.959436,0.0251838,0.999196,0.0311994,0.00319,0.106809,0.007765,-103.313,-1.35,88.238,0.622151,20.936,1.00652,40.9981
2.08941,1.00328,-0.996723,-0.996723,-0.150636,0.274903,0.949598,0.0329547,0.279983,0.959439,0.0270734,0.999163,0.0306492,0.003277,0.113213,0.008394,-102.965,-1.363,88.237,0.616284,20.2876,0.823402,40.4201
2.11822,1.00384,-0.996156,-0.996156,-0.155603,0.274948,0.948784,0.0281718,0.280646,0.959398,0.0162075,0.999461,0.0285415,0.003844,0.100919,0.002407,-102.808,-1.369,88.239,0.596749,19.9518,0.75237,39.9274
2.17265,1.00367,-0.99633,-0.99633,-0.159414,0.276163,0.947798,0.0244888,0.281009,0.959393,0.0256781,0.999093,0.0339647,0.00367,0.123805,0.009093,-102.494,-1.383,88.237,0.610903,19.5502,0.610207,38.7755
2.20059,1.00317,-0.996835,-0.996835,-0.163539,0.276205,0.947083,0.0194306,0.282286,0.959134,0.0212262,0.999264,0.0319414,0.003165,0.11985,0.007731,-102.316,-1.391,88.237,0.602522,19.3698,0.560655,38.0249
2.25571,1.00224,-0.997757,-0.997757,-0.173342,0.27716,0.945058,0.0109537,0.283309,0.958966,0.0282227,0.999248,0.0265866,0.002243,0.108704,0.007632,-102.001,-1.409,88.234,0.583477,19.1472,0.5083,36.2726
2.28304,1.00439,-0.995611,-0.995611,-0.177305,0.277636,0.944183,0.0055465,0.283962,0.95882,0.0210828,0.999384,0.0280421,0.004389,0.101419,0.00584,-101.871,-1.414,88.236,0.568586,18.9871,0.508788,35.2103
2.33872,1.0017,-0.998305,-0.998305,-0.187244,0.278632,0.941968,-0.00423089,0.28522,0.958453,0.023326,0.999234,0.0314083,0.001695,0.092977,0.006361,-101.611,-1.424,88.234,0.554949,18.6508,0.533789,32.7304
2.36589,1.00302,-0.996979,-0.996979,-0.191636,0.279617,0.940792,-0.00890934,0.286451,0.958053,0.023269,0.999238,0.0313314,0.003021,0.095189,0.006981,-101.499,-1.428,88.234,0.550893,18.4896,0.555118,31.378
2.42295,1.00055,-0.999447,-0.999447,-0.196768,0.279562,0.939749,-0.012673,0.28707,0.957826,0.0334996,0.999064,0.0273716,0.000553,0.079567,0.006847,-101.28,-1.438,88.234,0.529907,18.3517,0.624771,28.4073
2.44896,1.00267,-0.997335,-0.997335,-0.199513,0.280032,0.939029,-0.0170237,0.287382,0.957665,0.0201251,0.999106,0.0371855,0.002665,0.074712,0.002487,-101.186,-1.442,88.233,0.516892,18.1806,0.65826,26.9165
2.50323,1.00041,-0.999589,-0.999589,-0.203301,0.280416,0.938102,-0.0203959,0.287997,0.957414,0.0236789,0.999107,0.035008,0.000411,0.039463,0.00042,-101.081,-1.449,88.233,0.478759,17.7939,0.741759,23.6402
2.53522,1.00247,-0.997527,-0.997527,-0.207301,0.280424,0.937224,-0.0244547,0.288258,0.957241,0.027979,0.999176,0.0294085,0.002473,0.026805,0.000584,-101.053,-1.45,88.235,0.45969,17.5966,0.779345,21.6925
2.58954,0.999823,-1.00018,-1.00018,-0.212983,0.281031,0.935767,-0.0305103,0.289461,0.956704,0.0283438,0.99917,0.0292614,-0.000177,-0.018995,-0.003934,-101.106,-1.45,88.238,0.412203,17.1579,0.848207,18.3525
2.61641,1.00107,-0.998931,-0.998931,-0.215105,0.281165,0.935241,-0.0322309,0.289164,0.956737,0.0235563,0.999052,0.0366091,0.001069,-0.018265,-0.002776,-101.174,-1.449,88.238,0.407882,16.8681,0.858847,16.7128
2.67201,0.993033,-1.00697,-1.00697,-0.216087,0.281439,0.934933,-0.0335553,0.289457,0.956603,0.0329785,0.998984,0.0307254,-0.006967,-0.047053,-0.005349,-101.312,-1.448,88.241,0.384031,16.4733,0.885208,13.6576
2.6996,1.00002,-0.999977,-0.999977,-0.21645,0.281396,0.934861,-0.0338772,0.289436,0.956598,0.0172489,0.999314,0.0327627,0.000023,-0.063566,-0.00497,-101.447,-1.44,88.244,0.357225,16.1033,0.903828,12.1904
2.76379,0.999346,-1.00065,-1.00065,-0.214848,0.281451,0.935214,-0.0322309,0.289164,0.956737,0.0313142,0.999107,0.0283658,-0.000654,-0.033281,-0.005714,-101.643,-1.432,88.246,0.374343,15.7224,0.856118,9.71997
2.79411,0.994537,-1.00546,-1.00546,-0.213515,0.281234,0.935585,-0.0308839,0.289173,0.956779,0.0324895,0.999469,-0.00249919,-0.005463,-0.060483,0.006244,-101.733,-1.43,88.249,0.359364,15.6152,0.861793,8.95747
2.84838,0.999186,-1.00081,-1.00081,-0.210791,0.281149,0.936228,-0.0281564,0.288591,0.957038,0.0293333,0.999282,0.024,-0.000814,-0.029504,0.002331,-101.92,-1.424,88.247,0.370329,15.3696,0.800755,8.3243
2.87115,1.00119,-0.998807,-0.998807,-0.208923,0.280632,0.936801,-0.0264632,0.287973,0.957273,0.0212606,0.999148,0.0353663,0.001193,-0.049842,-0.007233,-101.989,-1.419,88.25,0.342657,15.2334,0.804075,8.31914
2.92589,1.00605,-0.993946,-0.993946,-0.206841,0.280185,0.937397,-0.0228054,0.28798,0.957365,0.0222716,0.999451,0.0245296,0.006054,-0.055298,0.003464,-102.24,-1.417,88.259,0.330637,14.9581,0.771766,8.76295
2.95619,1.00543,-0.994573,-0.994573,-0.20431,0.280337,0.937907,-0.0210804,0.287408,0.957576,0.018576,0.99953,0.0243937,0.005427,-0.068264,-0.010065,-102.388,-1.406,88.258,0.310389,14.8017,0.757692,9.19096
3.02066,0.997687,-1.00231,-1.00231,-0.198935,0.279725,0.939244,-0.0167299,0.287101,0.957754,0.0248076,0.999248,0.02981,-0.002313,-0.057093,-0.00505,-102.63,-1.399,88.265,0.326063,14.7509,0.685334,10.3744
3.04996,0.999313,-1.00069,-1.00069,-0.196465,0.279285,0.939895,-0.0133316,0.286168,0.958087,0.0216334,0.999117,0.0360217,-0.000687,-0.03151,-0.000509,-102.733,-1.402,88.267,0.345561,14.7564,0.637747,10.951
3.10695,0.999989,-1.00001,-1.00001,-0.193923,0.279438,0.940377,-0.0109648,0.28619,0.95811,0.0221441,0.999238,0.0321446,-0.000011,-0.065435,-0.000796,-102.954,-1.399,88.275,0.308945,14.8585,0.624839,12.062
3.1301,0.999506,-1.00049,-1.00049,-0.191933,0.279533,0.940756,-0.0089145,0.285871,0.958227,0.0204061,0.999386,0.0284664,-0.000494,-0.06927,-0.001686,-103.063,-1.399,88.276,0.303565,14.9203,0.610308,12.4876
3.187,0.997091,-1.00291,-1.00291,-0.188543,0.278889,0.941633,-0.00525749,0.28524,0.958442,0.0272158,0.999207,0.0290574,-0.002909,-0.077041,-0.004355,-103.353,-1.392,88.28,0.292775,15.293,0.57464,13.5245
3.21471,1.00241,-0.99759,-0.99759,-0.185619,0.278681,0.942275,-0.00255759,0.285232,0.958455,0.0259975,0.999266,0.0281469,0.00241,-0.079802,-0.006489,-103.5,-1.388,88.283,0.279416,15.5187,0.566581,14.0457
3.26904,0.997608,-1.00239,-1.00239,-0.183147,0.278499,0.942813,0.000167294,0.284909,0.958555,0.0288835,0.999144,0.0296005,-0.002392,-0.101939,-0.00308,-103.843,-1.379,88.286,0.262534,16.1131,0.548938,15.0875
3.29758,1.00138,-0.998621,-0.998621,-0.179924,0.277759,0.943651,0.00351581,0.284597,0.958641,0.0198476,0.999335,0.0305898,0.001379,-0.102333,-0.008606,-104.035,-1.374,88.288,0.25207,16.4004,0.541536,15.6731
3.35152,0.998889,-1.00111,-1.00111,-0.172934,0.277837,0.944934,0.0102873,0.283653,0.958872,0.0224136,0.999403,0.0263028,-0.001111,-0.115803,-0.007059,-104.443,-1.356,88.29,0.2398,17.1088,0.52379,16.9156
3.38013,0.998262,-1.00174,-1.00174,-0.169047,0.27751,0.945733,0.0143188,0.282698,0.959102,0.0231394,0.999192,0.0328661,-0.001738,-0.114156,-0.012102,-104.649,-1.348,88.293,0.237419,17.4911,0.511356,17.6705
3.43499,0.99835,-1.00165,-1.00165,-0.164237,0.276366,0.946915,0.0187649,0.282633,0.959045,0.0184082,0.999363,0.0305781,-0.00165,-0.128566,-0.009235,-105.098,-1.33,88.296,0.221826,18.1907,0.49808,19.2729
3.45991,0.99784,-1.00216,-1.00216,-0.159728,0.276076,0.947771,0.0238046,0.281053,0.959397,0.0280179,0.999069,0.0328065,-0.00216,-0.130386,-0.008867,-105.304,-1.322,88.297,0.21893,18.5568,0.48825,20.0926
3.51454,0.99684,-1.00316,-1.00316,-0.150038,0.275209,0.949604,0.0336187,0.280011,0.959408,0.0189231,0.999344,0.0308907,-0.00316,-0.165659,-0.010266,-105.829,-1.312,88.303,0.185167,19.2064,0.490877,21.978
3.54216,0.996573,-1.00343,-1.00343,-0.144307,0.274969,0.950562,0.0390278,0.278689,0.959588,0.0213564,0.999461,0.0249329,-0.003427,-0.154947,-0.0094,-106.106,-1.304,88.304,0.193157,19.4664,0.468625,22.9436
3.59638,0.999614,-1.00039,-1.00039,-0.138539,0.274155,0.951654,0.0454048,0.278257,0.959433,0.021337,0.999162,0.034915,-0.000386,-0.140616,-0.012842,-106.605,-1.277,88.308,0.196575,19.8093,0.438237,24.7014
3.62586,0.997433,-1.00257,-1.00257,-0.13234,0.273479,0.95273,0.0511647,0.277231,0.95944,0.0211732,0.999333,0.0297652,-0.002567,-0.129786,-0.01329,-106.802,-1.264,88.307,0.20737,19.9608,0.413223,25.512
3.68265,0.998093,-1.00191,-1.00191,-0.125511,0.272854,0.953833,0.057911,0.27585,0.959455,0.0189632,0.99924,0.0340523,-0.001907,-0.10726,-0.014305,-107.182,-1.226,88.308,0.22405,20.1453,0.370172,26.8671
3.71184,0.99594,-1.00406,-1.00406,-0.119238,0.271771,0.954946,0.0645938,0.275391,0.95916,0.0265884,0.999169,0.0309,-0.00406,-0.089955,-0.011626,-107.354,-1.205,88.304,0.242527,20.3133,0.340249,27.4819
3.77825,0.997282,-1.00272,-1.00272,-0.10759,0.26995,0.956844,0.075728,0.273568,0.958867,0.0222878,0.999271,0.030978,-0.002718,-0.087434,-0.018726,-107.695,-1.149,88.306,0.238573,20.7114,0.309543,28.628
3.80648,0.998903,-1.0011,-1.0011,-0.103348,0.269806,0.957353,0.0806954,0.2728,0.95868,0.0139895,0.999676,0.0212433,-0.001097,-0.081156,-0.019057,-107.833,-1.117,88.298,0.241421,20.7928,0.291497,28.9705
3.86065,0.997396,-1.0026,-1.0026,-0.0997448,0.269288,0.95788,0.084805,0.271766,0.958619,0.0174086,0.999561,0.0239624,-0.002604,-0.086291,-0.01642,-108.072,-1.065,88.293,0.236582,21.0125,0.254169,29.4923
3.88796,0.995808,-1.00419,-1.00419,-0.0949938,0.268758,0.958512,0.0884183,0.271314,0.958421,0.0170626,0.999336,0.0321839,-0.004192,-0.060076,-0.01298,-108.245,-1.036,88.289,0.263402,21.0673,0.223531,29.6316
3.95571,0.99838,-1.00162,-1.00162,-0.0873443,0.267754,0.95952,0.0954528,0.269865,0.958155,0.0123499,0.99942,0.0317422,-0.00162,-0.030771,-0.018685,-108.384,-0.988,88.281,0.284169,21.3859,0.186045,29.9523
3.98514,0.99963,-1.00037,-1.00037,-0.0846695,0.266835,0.960016,0.0991331,0.269446,0.9579,0.0209573,0.999234,0.0330636,-0.00037,-0.022941,-0.015253,-108.429,-0.962,88.279,0.289633,21.6093,0.170283,30.0568
4.03908,0.997372,-1.00263,-1.00263,-0.0780575,0.266155,0.960764,0.104796,0.268304,0.957617,0.0116236,0.999423,0.0319138,-0.002628,-0.019331,-0.02321,-108.5,-0.904,88.273,0.291399,21.8838,0.15309,30.0469
4.06618,0.999782,-1.00022,-1.00022,-0.077652,0.26563,0.960943,0.106785,0.268235,0.957417,0.0135012,0.999499,0.0286389,-0.000218,-0.009047,-0.018737,-108.52,-0.875,88.27,0.297976,22.0335,0.148027,29.9959
4.12183,0.996945,-1.00305,-1.00305,-0.0742967,0.265265,0.961309,0.108833,0.267555,0.957376,0.0100003,0.999413,0.0327559,-0.003055,-0.004432,-0.015488,-108.541,-0.813,88.264,0.302888,22.2494,0.144696,29.7349
4.1493,0.998195,-1.0018,-1.0018,-0.074033,0.26523,0.961339,0.109816,0.267196,0.957365,0.0132515,0.999569,0.0261971,-0.001805,0.004256,-0.010727,-108.542,-0.792,88.261,0.309113,22.3722,0.154727,29.5598
4.20479,0.997041,-1.00296,-1.00296,-0.0729157,0.264914,0.961511,0.109816,0.267196,0.957365,0.0158596,0.999358,0.0321259,-0.002959,0.017856,-0.016831,-108.494,-0.743,88.255,0.318743,22.634,0.188073,29.1489
4.2346,0.999171,-1.00083,-1.00083,-0.0729157,0.264914,0.961511,0.110491,0.267175,0.957293,0.01169,0.9996,0.0257386,-0.000829,0.011459,-0.012053,-108.471,-0.718,88.252,0.308675,22.7218,0.192211,28.8458
4.28907,0.9972,-1.0028,-1.0028,-0.0732194,0.264292,0.961659,0.109495,0.267192,0.957402,0.0102194,0.999351,0.0345414,-0.0028,0.008792,-0.022103,-108.446,-0.657,88.246,0.301896,22.7768,0.21731,28.1503
4.32326,0.998745,-1.00126,-1.00126,-0.074227,0.264593,0.961499,0.109176,0.267528,0.957345,0.00845756,0.999419,0.0330151,-0.001255,0.017261,-0.021174,-108.423,-0.617,88.241,0.305598,22.7761,0.242146,27.645
4.37835,0.998182,-1.00182,-1.00182,-0.0745682,0.264264,0.961563,0.108136,0.267556,0.957455,0.0112019,0.999309,0.0354387,-0.001818,0.01834,-0.010336,-108.372,-0.571,88.238,0.30502,22.787,0.277985,26.776
4.41332,0.999034,-1.00097,-1.00097,-0.0754041,0.263944,0.961586,0.108171,0.26724,0.957539,0.00928721,0.999548,0.028576,-0.000966,0.01435,-0.017708,-108.342,-0.543,88.235,0.295391,22.7684,0.290994,26.1642
4.46746,0.999647,-1.00035,-1.00035,-0.0767526,0.263915,0.961487,0.10681,0.267604,0.95759,0.00815605,0.999523,0.0297696,-0.000353,0.00586,-0.014047,-108.322,-0.499,88.229,0.282637,22.671,0.314913,25.129
4.49474,0.998018,-1.00198,-1.00198,-0.0782556,0.263881,0.961376,0.106156,0.267935,0.957571,0.00663113,0.999465,0.0320335,-0.001982,0.008346,-0.019645,-108.312,-0.472,88.228,0.283213,22.5985,0.332305,24.5793
4.55464,0.99805,-1.00195,-1.00195,-0.0786175,0.264023,0.961307,0.105485,0.267652,0.957724,0.00829574,0.999586,0.0275501,-0.00195,-0.000601,-0.021666,-108.29,-0.402,88.221,0.268888,22.454,0.355554,23.3525
4.57944,0.997855,-1.00215,-1.00215,-0.0790789,0.264104,0.961247,0.104463,0.268298,0.957655,0.00408173,0.999514,0.0309191,-0.002145,0.002581,-0.027376,-108.289,-0.365,88.219,0.268519,22.3516,0.36882,22.8187
4.63447,1.00054,-0.999463,-0.999463,-0.0790126,0.263508,0.961416,0.104463,0.268298,0.957655,0.00255291,0.999515,0.0310434,0.000537,0.003994,-0.0522,-108.257,-0.246,88.211,0.256285,22.1098,0.382548,21.6417
4.66275,0.996817,-1.00318,-1.00318,-0.0797126,0.263891,0.961253,0.103848,0.268007,0.957804,0.00101847,0.999323,0.0367668,-0.003183,-0.002923,-0.052733,-108.264,-0.163,88.208,0.251244,21.9593,0.393991,21.026
4.71682,0.999435,-1.00057,-1.00057,-0.0797126,0.263891,0.961253,0.103478,0.268318,0.957756,0.000919508,0.999608,0.0279939,-0.000565,0.003302,-0.066719,-108.268,0.025,88.203,0.246878,21.7046,0.413153,19.8974
4.74706,0.998167,-1.00183,-1.00183,-0.0800421,0.263551,0.961319,0.103136,0.268345,0.957786,-0.000613888,0.999513,0.031206,-0.001833,-0.008328,-0.083386,-108.278,0.198,88.2,0.231898,21.5566,0.409492,19.2941
4.8035,1.00151,-0.998493,-0.998493,-0.08116,0.263292,0.961296,0.102487,0.268669,0.957765,-0.0091796,0.999353,0.0347805,0.001507,-0.007791,-0.08753,-108.311,0.422,88.197,0.222737,21.1629,0.424865,18.1857
4.83297,0.998159,-1.00184,-1.00184,-0.081482,0.263187,0.961298,0.102157,0.268699,0.957792,-0.0121471,0.999327,0.0346039,-0.001841,-0.006887,-0.095151,-108.331,0.578,88.197,0.223609,20.9501,0.437105,17.644
4.88783,1.00035,-0.999653,-0.999653,-0.0814149,0.262262,0.961556,0.101801,0.26901,0.957742,-0.0191126,0.999372,0.0298442,0.000347,0.001061,-0.106405,-108.343,0.901,88.193,0.222313,20.4843,0.454376,16.6716
4.91486,0.998855,-1.00115,-1.00115,-0.0815071,0.261929,0.961639,0.101801,0.26901,0.957742,-0.0149078,0.999435,0.0301219,-0.001145,-0.008331,-0.100349,-108.356,1.063,88.192,0.212718,20.3097,0.457449,16.2804
4.97399,0.999729,-1.00027,-1.00027,-0.0811754,0.261786,0.961706,0.101126,0.26903,0.957808,-0.0272285,0.999264,0.0270237,-0.000271,-0.016027,-0.096396,-108.413,1.398,88.192,0.198982,19.7861,0.465878,15.4739
4.9994,0.999948,-1.00005,-1.00005,-0.0828243,0.260814,0.96183,0.101118,0.26965,0.957635,-0.0277458,0.999052,0.0335601,-0.000052,0.001169,-0.09054,-108.428,1.533,88.192,0.214515,19.5651,0.489312,15.1884
5.05684,1,-0.999996,-0.999996,-0.0821288,0.260366,0.962011,0.101118,0.26965,0.957635,-0.0301344,0.999134,0.0287043,0.000004,-0.007872,-0.090268,-108.46,1.831,88.191,0.201328,19.0833,0.492241,14.6888
5.11121,0.999244,-1.00076,-1.00076,-0.081494,0.260141,0.962125,0.101128,0.269954,0.957548,-0.0343757,0.998941,0.0305903,-0.000756,-0.013336,-0.086118,-108.486,2.091,88.191,0.194377,18.6191,0.498403,14.4074
5.13802,0.998502,-1.0015,-1.0015,-0.0814688,0.259759,0.962231,0.101751,0.270247,0.957399,-0.0385908,0.998856,0.0282521,-0.001498,-0.012804,-0.084747,-108.514,2.236,88.188,0.194471,18.3935,0.503819,14.3443
5.19266,1.00144,-0.998561,-0.998561,-0.0814943,0.258497,0.962568,0.101429,0.270242,0.957435,-0.04174,0.998699,0.0292895,0.001439,-0.001144,-0.088487,-108.532,2.505,88.188,0.197361,17.908,0.514301,14.3408
5.21528,0.998576,-1.00142,-1.00142,-0.0814943,0.258497,0.962568,0.101063,0.270553,0.957386,-0.0444886,0.998487,0.0323181,-0.001424,-0.009206,-0.086311,-108.541,2.615,88.187,0.192614,17.7044,0.513242,14.3969
5.28059,1.00148,-0.998517,-0.998517,-0.0815839,0.258163,0.96265,0.101384,0.27148,0.957089,-0.054841,0.998065,0.0293098,0.001483,0.002008,-0.088607,-108.57,2.949,88.183,0.195048,17.024,0.521792,14.6647
5.31454,0.998471,-1.00153,-1.00153,-0.081239,0.257622,0.962825,0.101062,0.271474,0.957125,-0.054627,0.997989,0.0321635,-0.001529,-0.011201,-0.08541,-108.585,3.151,88.183,0.185848,16.6984,0.515339,14.9152
5.37555,1.00137,-0.998629,-0.998629,-0.0814434,0.256859,0.963011,0.10072,0.271501,0.957153,-0.0616674,0.997723,0.0273055,0.001371,-0.004344,-0.083022,-108.623,3.525,88.182,0.186063,16.093,0.517418,15.4896
5.41031,1.00056,-0.999444,-0.999444,-0.0818797,0.256935,0.962954,0.10072,0.271501,0.957153,-0.0650976,0.997414,0.0304538,0.000556,-0.006923,-0.080168,-108.631,3.595,88.183,0.184208,15.7976,0.515467,15.9231
5.46888,1.00018,-0.99982,-0.99982,-0.0819762,0.256357,0.9631,0.100378,0.272111,0.957016,-0.0680591,0.997076,0.0347449,0.00018,0.001084,-0.086113,-108.662,3.884,88.179,0.186935,15.3006,0.516013,16.7305
5.49595,1.0013,-0.998703,-0.998703,-0.0815472,0.255984,0.963235,0.100378,0.272111,0.957016,-0.0685579,0.997159,0.0312092,0.001297,0.000528,-0.085121,-108.663,4.006,88.178,0.183928,15.1099,0.511328,17.1454
5.56212,0.999235,-1.00076,-1.00076,-0.0815977,0.255098,0.963466,0.100325,0.273049,0.956755,-0.0753032,0.99672,0.0296308,-0.000765,-0.003937,-0.088905,-108.7,4.334,88.174,0.17763,14.6561,0.49911,18.2174
5.59705,1.00018,-0.999816,-0.999816,-0.0815724,0.254718,0.963569,0.100325,0.273049,0.956755,-0.078288,0.996384,0.0330118,0.000184,0.000472,-0.092842,-108.708,4.516,88.172,0.177336,14.4471,0.494543,18.81
5.6518,1.00109,-0.998914,-0.998914,-0.0819003,0.25404,0.96372,0.100334,0.273352,0.956667,-0.0812646,0.996206,0.0311378,0.001086,0.00428,-0.091813,-108.716,4.891,88.17,0.177361,14.1694,0.48651,19.756
5.68526,0.999554,-1.00045,-1.00045,-0.0819003,0.25404,0.96372,0.100325,0.273049,0.956755,-0.0839123,0.995935,0.0327288,-0.000446,-0.002178,-0.094307,-108.72,4.97,88.17,0.170803,14.0297,0.47413,20.3419
5.74334,0.999623,-1.00038,-1.00038,-0.0829977,0.253206,0.963845,0.0999712,0.273655,0.956618,-0.0955472,0.994772,0.0360343,-0.000377,-0.007251,-0.095945,-108.736,5.27,88.163,0.162925,13.7594,0.454652,21.3306
5.77478,0.999679,-1.00032,-1.00032,-0.0822867,0.252808,0.964011,0.0996502,0.273988,0.956556,-0.0963279,0.994744,0.0347229,-0.000321,0.003065,-0.098269,-108.737,5.45,88.16,0.170338,13.6463,0.455105,21.8562
5.8301,0.999393,-1.00061,-1.00061,-0.0826481,0.252505,0.964059,0.0989423,0.274324,0.956534,-0.10021,0.994451,0.03201,-0.000607,-0.003971,-0.09506,-108.734,5.754,88.157,0.162538,13.4734,0.433815,22.7495
5.85675,0.997686,-1.00231,-1.00231,-0.0826149,0.252129,0.964161,0.0989195,0.274614,0.956453,-0.0866179,0.99585,0.0279182,-0.002314,-0.005123,-0.091797,-108.733,5.899,88.155,0.163278,13.4554,0.427486,23.1836
5.91188,0.999353,-1.00065,-1.00065,-0.0828921,0.251214,0.964376,0.0985791,0.275553,0.956218,-0.11209,0.992811,0.0419828,-0.000647,-0.000311,-0.091607,-108.741,6.183,88.15,0.163605,13.3042,0.412022,24.0061
5.9425,1.00157,-0.998434,-0.998434,-0.0830012,0.250894,0.96445,0.098575,0.275222,0.956314,-0.11048,0.993197,0.0367926,0.001566,0.002872,-0.091674,-108.729,6.339,88.149,0.162409,13.2351,0.401588,24.4333
5.99863,0.998922,-1.00108,-1.00108,-0.0830866,0.250556,0.96453,0.0982807,0.275259,0.956333,-0.118187,0.9924,0.0342629,-0.001078,-0.009656,-0.093901,-108.726,6.63,88.145,0.150914,13.1178,0.371917,25.1768
6.02654,0.99959,-1.00041,-1.00041,-0.0826551,0.25021,0.964657,0.0982807,0.275259,0.956333,-0.120984,0.992031,0.035164,-0.00041,-0.002946,-0.093427,-108.728,6.789,88.142,0.155285,13.0703,0.366944,25.5247
6.08164,0.999155,-1.00084,-1.00084,-0.0838698,0.249566,0.964719,0.0978943,0.276187,0.956105,-0.123585,0.991738,0.0343914,-0.000845,-0.011299,-0.09205,-108.732,7.078,88.138,0.146266,12.9877,0.338239,26.1682
6.1055,0.997746,-1.00225,-1.00225,-0.083124,0.24905,0.964917,0.0978943,0.276187,0.956105,-0.124072,0.991863,0.0285377,-0.002254,-0.008488,-0.09503,-108.742,7.198,88.133,0.148436,12.9617,0.331852,26.4323
6.16166,0.999416,-1.00058,-1.00058,-0.0830792,0.248741,0.965,0.0975955,0.275893,0.956221,-0.130027,0.990982,0.032379,-0.000584,-0.004864,-0.090611,-108.723,7.502,88.13,0.148891,12.8826,0.310832,26.9965
6.1885,0.998919,-1.00108,-1.00108,-0.0831371,0.248022,0.96518,0.097582,0.276484,0.956052,-0.13149,0.99095,0.026996,-0.001081,-0.013346,-0.087678,-108.728,7.628,88.128,0.141727,12.8551,0.292734,27.2487
6.24488,0.999053,-1.00095,-1.00095,-0.0837287,0.247779,0.965192,0.097552,0.27713,0.955868,-0.138242,0.989897,0.0315163,-0.000947,-0.013288,-0.080813,-108.736,7.91,88.12,0.142413,12.8041,0.270004,27.733
6.27622,0.99912,-1.00088,-1.00088,-0.0830783,0.247087,0.965425,0.097552,0.27713,0.955868,-0.139128,0.989937,0.025844,-0.00088,-0.010479,-0.077169,-108.746,8.046,88.115,0.145176,12.7843,0.259544,27.9794
6.3304,0.999302,-1.0007,-1.0007,-0.0831618,0.246747,0.965505,0.0975288,0.277418,0.955786,-0.145339,0.988735,0.0357742,-0.000698,-0.006253,-0.081013,-108.731,8.298,88.11,0.145013,12.762,0.236864,28.364
6.3568,0.998742,-1.00126,-1.00126,-0.0831618,0.246747,0.965505,0.0971621,0.277726,0.955734,-0.145838,0.989092,0.0207022,-0.001258,-0.012853,-0.077371,-108.731,8.421,88.106,0.140431,12.7566,0.220323,28.5346
6.41326,0.996994,-1.00301,-1.00301,-0.0827775,0.246163,0.965687,0.0971621,0.277726,0.955734,-0.148968,0.988267,0.0337072,-0.003006,-0.009475,-0.080225,-108.731,8.672,88.099,0.142223,12.7686,0.197727,28.8686
6.43951,1.00038,-0.999618,-0.999618,-0.08251,0.245882,0.965782,0.097197,0.277733,0.955728,-0.153039,0.987809,0.0285033,0.000382,-0.008082,-0.075632,-108.731,8.796,88.094,0.139966,12.7806,0.183677,29.0037
6.49384,0.997557,-1.00244,-1.00244,-0.0824391,0.245193,0.965963,0.0968438,0.27805,0.955672,-0.155084,0.987346,0.0331228,-0.002443,-0.010823,-0.079582,-108.732,9.048,88.087,0.137416,12.8269,0.156946,29.2568
6.56255,0.998688,-1.00131,-1.00131,-0.0825218,0.244852,0.966042,0.096809,0.278331,0.955594,-0.158823,0.986937,0.0270338,-0.001312,-0.014996,-0.073241,-108.73,9.336,88.077,0.132287,12.911,0.120371,29.5066
6.58974,0.999963,-1.00004,-1.00004,-0.0823874,0.244538,0.966133,0.096819,0.278666,0.955495,-0.167923,0.985243,0.0331346,-0.000037,-0.004787,-0.070514,-108.736,9.452,88.072,0.139978,12.9756,0.115808,29.5892
6.65447,0.999391,-1.00061,-1.00061,-0.0835838,0.243675,0.966249,0.0968232,0.278997,0.955398,-0.170621,0.98462,0.0375755,-0.000609,-0.004587,-0.072816,-108.718,9.715,88.062,0.137753,13.1468,0.0842868,29.7299
6.68488,0.997234,-1.00277,-1.00277,-0.0824386,0.243628,0.966359,0.0971703,0.279302,0.955274,-0.166996,0.985316,0.0355658,-0.002766,-0.008545,-0.073587,-108.718,9.839,88.056,0.135479,13.2159,0.0682297,29.7773
6.73925,1.00032,-0.999675,-0.999675,-0.0821623,0.242986,0.966544,0.0971301,0.279578,0.955197,-0.176584,0.983653,0.0352761,0.000325,-0.005647,-0.076408,-108.698,10.073,88.048,0.131083,13.3799,0.0395974,29.8139
6.77001,0.998089,-1.00191,-1.00191,-0.0821623,0.242986,0.966544,0.0971301,0.279578,0.955197,-0.17504,0.983947,0.0347829,-0.001911,-0.008973,-0.078651,-108.7,10.204,88.043,0.128982,13.4708,0.0238776,29.8215
6.82583,0.998768,-1.00123,-1.00123,-0.0818112,0.242297,0.966747,0.0964796,0.2796,0.955257,-0.182393,0.982579,0.0356634,-0.001232,0.0018,-0.082322,-108.69,10.457,88.03,0.135098,13.6745,0.0124588,29.7968
6.85474,0.997933,-1.00207,-1.00207,-0.0821866,0.241705,0.966863,0.0964222,0.280497,0.955,-0.18272,0.982492,0.036381,-0.002067,0.00031,-0.082413,-108.673,10.595,88.027,0.133799,13.7623,0.0146343,29.7522
6.912,0.999276,-1.00072,-1.00072,-0.0821866,0.241705,0.966863,0.0964222,0.280497,0.955,-0.192215,0.98089,0.0301294,-0.000724,-0.008184,-0.085531,-108.662,10.879,88.017,0.121274,14.0246,0.0476423,29.6517
6.93498,0.997676,-1.00232,-1.00232,-0.0818354,0.241016,0.967065,0.0964222,0.280497,0.955,-0.186416,0.982027,0.0295201,-0.002324,-0.007674,-0.081845,-108.659,10.988,88.013,0.124214,14.0975,0.0537354,29.5923
6.9893,0.997306,-1.00269,-1.00269,-0.0828771,0.241055,0.966966,0.09544,0.280848,0.954995,-0.197503,0.97956,0.0381342,-0.002694,-0.006053,-0.089504,-108.648,11.256,88.004,0.122168,14.3629,0.0795602,29.4306
7.02222,0.996613,-1.00339,-1.00339,-0.0827076,0.240439,0.967134,0.0950724,0.281155,0.954941,-0.196049,0.979736,0.0410051,-0.003387,-0.003074,-0.088141,-108.634,11.42,87.997,0.125284,14.4925,0.0897643,29.3013
7.07635,0.997665,-1.00233,-1.00233,-0.0825125,0.239793,0.967311,0.0950724,0.281155,0.954941,-0.20382,0.978419,0.0339531,-0.002335,-0.013108,-0.08218,-108.632,11.669,87.989,0.114632,14.7589,0.120375,29.0718
7.1041,0.997499,-1.0025,-1.0025,-0.0821663,0.239111,0.967509,0.0950757,0.281485,0.954844,-0.204905,0.978399,0.0273685,-0.002501,-0.006774,-0.074833,-108.629,11.792,87.983,0.122474,14.8825,0.123222,28.9359
7.16838,0.997711,-1.00229,-1.00229,-0.0825494,0.239081,0.967484,0.0947545,0.281478,0.954878,-0.207039,0.977765,0.0333143,-0.002289,-0.0156,-0.079937,-108.606,12.114,87.971,0.110108,15.1451,0.159709,28.5597
7.1999,1.00084,-0.999162,-0.999162,-0.0823339,0.238556,0.967632,0.0947196,0.281789,0.95479,-0.215705,0.975992,0.0301864,0.000838,-0.007817,-0.075415,-108.606,12.235,87.966,0.114015,15.3156,0.167174,28.3653
7.25456,0.997959,-1.00204,-1.00204,-0.0819066,0.238192,0.967758,0.0950532,0.282091,0.954667,-0.21797,0.975291,0.0360045,-0.002041,-0.012874,-0.07041,-108.6,12.477,87.955,0.113736,15.6215,0.186805,28.0033
7.28663,0.997073,-1.00293,-1.00293,-0.0819066,0.238192,0.967758,0.094699,0.282375,0.954618,-0.216735,0.975716,0.0316798,-0.002927,-0.007016,-0.067683,-108.59,12.585,87.95,0.120274,15.7582,0.190884,27.7707
7.34107,0.997204,-1.0028,-1.0028,-0.0826655,0.237211,0.967935,0.0950413,0.282675,0.954496,-0.219765,0.975027,0.0320235,-0.002796,-0.027628,-0.061106,-108.541,12.797,87.951,0.103796,15.9755,0.227298,27.3389
7.37382,0.998416,-1.00158,-1.00158,-0.0815229,0.237202,0.968034,0.0950072,0.282986,0.954407,-0.22775,0.972911,0.0396753,-0.001584,0.006628,-0.068511,-108.558,12.955,87.934,0.127977,16.174,0.209603,27.086
7.43629,1.00143,-0.998575,-0.998575,-0.0816908,0.236645,0.968156,0.0946873,0.283316,0.954341,-0.229241,0.972742,0.0349378,0.001425,-0.008083,-0.066729,-108.517,13.156,87.932,0.109666,16.492,0.245627,26.5614
7.46349,0.999717,-1.00028,-1.00028,-0.0816908,0.236645,0.968156,0.0946873,0.283316,0.954341,-0.229076,0.972807,0.0342286,-0.000283,-0.01206,-0.062329,-108.518,13.255,87.926,0.10951,16.6056,0.253576,26.3198
7.51978,1.00037,-0.999631,-0.999631,-0.081263,0.236281,0.968281,0.0947228,0.283322,0.954336,-0.235163,0.971223,0.0377283,0.000369,-0.004178,-0.054695,-108.498,13.447,87.92,0.117583,16.8994,0.259664,25.8203
7.5489,0.999015,-1.00099,-1.00099,-0.081263,0.236281,0.968281,0.0943311,0.283915,0.954198,-0.230589,0.972221,0.0401954,-0.000985,-0.006044,-0.058213,-108.49,13.533,87.913,0.115007,16.9966,0.268177,25.5455
7.60499,0.999825,-1.00017,-1.00017,-0.0815891,0.235658,0.968405,0.0943311,0.283915,0.954198,-0.238888,0.970341,0.0370266,-0.000175,0.000636,-0.054699,-108.464,13.718,87.904,0.119746,17.2599,0.274865,25.0257
7.63224,1.0002,-0.999804,-0.999804,-0.0809008,0.235016,0.968619,0.0943311,0.283915,0.954198,-0.238587,0.970259,0.0409035,0.000196,0.000375,-0.055428,-108.446,13.81,87.901,0.117852,17.3739,0.28167,24.7657
7.68927,1.00018,-0.999824,-0.999824,-0.0809665,0.234674,0.968696,0.0943342,0.284244,0.9541,-0.243494,0.969282,0.0346974,0.000176,-0.005699,-0.053022,-108.429,13.98,87.89,0.111858,17.6303,0.297621,24.2199
7.71445,0.998456,-1.00154,-1.00154,-0.0813627,0.234647,0.96867,0.0943342,0.284244,0.9541,-0.24012,0.970084,0.0357625,-0.001544,-0.008112,-0.049347,-108.423,14.053,87.885,0.11287,17.7023,0.300973,23.9653
7.76906,0.998676,-1.00132,-1.00132,-0.0813627,0.234647,0.96867,0.0939669,0.284549,0.954045,-0.249161,0.967613,0.0405422,-0.001324,-0.000368,-0.054582,-108.403,14.214,87.875,0.115513,17.9792,0.30436,23.4449
7.79506,0.997686,-1.00231,-1.00231,-0.0812354,0.234332,0.968757,0.0936449,0.284542,0.954079,-0.248838,0.968056,0.0307725,-0.002314,0.02222,-0.053161,-108.377,14.3,87.874,0.137109,18.0956,0.28554,23.2059
7.84958,0.996978,-1.00302,-1.00302,-0.0809826,0.234052,0.968846,0.0936449,0.284542,0.954079,-0.248267,0.968078,0.0344759,-0.003022,-0.018953,-0.050242,-108.363,14.456,87.862,0.100797,18.2751,0.328314,22.6662
7.87703,0.999855,-1.00014,-1.00014,-0.0809826,0.234052,0.968846,0.0936449,0.284542,0.954079,-0.252261,0.967035,0.0347523,-0.000145,0.004457,-0.051201,-108.351,14.536,87.857,0.116232,18.3799,0.313494,22.3961
7.93286,0.997912,-1.00209,-1.00209,-0.080974,0.23341,0.969001,0.0936449,0.284542,0.954079,-0.251644,0.967351,0.0301113,-0.002088,-0.008941,-0.053281,-108.312,14.703,87.85,0.104145,18.5547,0.328919,21.8488
7.96423,0.99965,-1.00035,-1.00035,-0.0803204,0.232756,0.969213,0.0939751,0.284515,0.954054,-0.255995,0.966282,0.0276696,-0.00035,-0.008817,-0.052993,-108.3,14.804,87.845,0.101309,18.6628,0.332997,21.538
8.02215,0.997588,-1.00241,-1.00241,-0.0810058,0.23276,0.969155,0.0932692,0.285765,0.95375,-0.25862,0.965161,0.0397563,-0.002412,-0.006091,-0.045256,-108.276,14.963,87.836,0.108091,18.9093,0.327332,20.9834
8.05199,0.997278,-1.00272,-1.00272,-0.0810058,0.23276,0.969155,0.0932692,0.285765,0.95375,-0.256079,0.966143,0.0314968,-0.002722,-0.007246,-0.040338,-108.26,15.036,87.834,0.108787,18.9794,0.326997,20.6902
8.11773,1.0015,-0.998504,-0.998504,-0.0805896,0.232414,0.969272,0.0932692,0.285765,0.95375,-0.262807,0.964273,0.0333107,0.001496,-0.008252,-0.032352,-108.212,15.175,87.832,0.104483,19.2225,0.330469,20.0799
8.14957,1.00273,-0.99727,-0.99727,-0.0806504,0.232068,0.96935,0.0929688,0.285469,0.953868,-0.266373,0.963315,0.0326963,0.00273,-0.014996,-0.021299,-108.216,15.225,87.828,0.103075,19.3479,0.33397,19.7925
8.20559,0.998836,-1.00116,-1.00116,-0.0806171,0.231765,0.969426,0.0929721,0.285797,0.953769,-0.262026,0.96431,0.0380608,-0.001164,0.002276,-0.009571,-108.188,15.277,87.827,0.126448,19.4931,0.306846,19.2914
8.23517,1.00152,-0.998482,-0.998482,-0.0806171,0.231765,0.969426,0.0929721,0.285797,0.953769,-0.262256,0.964501,0.0309679,0.001518,-0.002933,-0.002958,-108.164,15.289,87.829,0.121554,19.5414,0.311357,19.0298
8.28897,1.005,-0.995004,-0.995004,-0.0801546,0.231508,0.969525,0.0936047,0.286097,0.953618,-0.262256,0.964336,0.0357389,0.004996,-0.003101,0.004511,-108.135,15.281,87.825,0.118757,19.6095,0.309303,18.5458
8.31546,1.00701,-0.99299,-0.99299,-0.0801546,0.231508,0.969525,0.0935685,0.286374,0.953538,-0.265428,0.963221,0.0418615,0.00701,-0.007574,0.009008,-108.123,15.271,87.828,0.114621,19.6598,0.312134,18.3111
8.37167,1.00177,-0.998232,-0.998232,-0.0800647,0.231846,0.969452,0.0939343,0.286069,0.953594,-0.25677,0.965646,0.0399669,0.001768,-0.007428,0.016953,-108.111,15.216,87.834,0.123221,19.5954,0.297,17.7719
8.40082,1.00365,-0.996353,-0.996353,-0.0803865,0.230734,0.969691,0.0936019,0.285769,0.953716,-0.26407,0.963783,0.0372852,0.003647,0.003791,0.018086,-108.09,15.191,87.841,0.128103,19.6168,0.284528,17.5234
8.45528,1.00416,-0.995838,-0.995838,-0.0789763,0.232159,0.969466,0.0945611,0.286356,0.953445,-0.258441,0.965575,0.0295449,0.004162,-0.009505,0.01428,-108.062,15.136,87.853,0.111787,19.5396,0.290841,17.0278
8.51512,1.01256,-0.987441,-0.987441,-0.078587,0.232181,0.969493,0.0952557,0.285697,0.953574,-0.260274,0.96502,0.0315265,0.012559,-0.000094,0.024654,-108.038,15.084,87.871,0.11083,19.4532,0.279469,16.4561
8.54799,1.00698,-0.993019,-0.993019,-0.0783204,0.232091,0.969536,0.0955626,0.286305,0.953361,-0.25977,0.964745,0.0422598,0.006981,0.001109,0.017271,-108.019,15.051,87.884,0.113364,19.4312,0.267795,16.1551
8.60587,1.0079,-0.992097,-0.992097,-0.0779297,0.232121,0.96956,0.0958842,0.286311,0.953327,-0.260837,0.96477,0.0343905,0.007903,-0.009088,0.016502,-108.031,14.999,87.901,0.101282,19.3626,0.267514,15.6332
8.63675,1.0141,-0.985904,-0.985904,-0.0769244,0.23284,0.969468,0.0968851,0.286259,0.953241,-0.256339,0.965964,0.0346955,0.014096,-0.014843,0.015989,-108.025,14.971,87.916,0.0865357,19.2726,0.274501,15.3289
8.69527,1.01435,-0.985645,-0.985645,-0.0762384,0.232835,0.969523,0.0975485,0.286571,0.95308,-0.257227,0.965803,0.0325241,0.014355,-0.026041,0.030654,-108.093,14.879,87.939,0.084768,19.0788,0.267687,14.7379
8.74994,1.01648,-0.983518,-0.983518,-0.0759431,0.233473,0.969393,0.0975265,0.286858,0.952996,-0.263067,0.964306,0.0301696,0.016482,-0.033957,0.044371,-108.122,14.767,87.968,0.0865002,19.0367,0.26107,14.2888
8.77876,1.00991,-0.99009,-0.99009,-0.0741804,0.234182,0.969358,0.100171,0.287092,0.952651,-0.264882,0.96361,0.0359564,0.00991,-0.019984,0.054723,-108.143,14.682,87.981,0.110899,19.0599,0.230439,14.0881
8.83315,1.01065,-0.989352,-0.989352,-0.0725293,0.234178,0.969485,0.101784,0.287325,0.95241,-0.252284,0.967021,0.0349771,0.010648,-0.013179,0.067472,-108.148,14.519,88.009,0.119923,18.8944,0.207937,13.6291
8.86397,1.00698,-0.993016,-0.993016,-0.0693878,0.23554,0.969384,0.104433,0.287561,0.952052,-0.248989,0.968049,0.0297514,0.006984,-0.002374,0.065228,-108.134,14.395,88.02,0.127869,18.788,0.185017,13.3834
8.91853,1.00523,-0.994769,-0.994769,-0.0687718,0.236519,0.96919,0.105751,0.287511,0.951921,-0.246117,0.968733,0.0313648,0.005231,-0.010757,0.074792,-108.109,14.198,88.036,0.12747,18.5704,0.173726,12.9249
8.94608,1.00226,-0.997736,-0.997736,-0.0670411,0.236853,0.96923,0.107693,0.287724,0.951639,-0.243367,0.969481,0.029654,0.002264,0.003151,0.104495,-108.102,14.022,88.041,0.160659,18.4502,0.147814,12.6898
9.00041,1.00332,-0.996677,-0.996677,-0.0652775,0.237555,0.969178,0.10868,0.287702,0.951534,-0.240026,0.970148,0.0346408,0.003323,0.013301,0.082107,-108.023,13.76,88.059,0.145892,18.211,0.122393,12.2108
9.0277,1.00228,-0.997716,-0.997716,-0.0652573,0.237826,0.969113,0.109995,0.287651,0.951398,-0.24059,0.970223,0.0279803,0.002284,-0.008246,0.095485,-108.004,13.621,88.065,0.139852,18.078,0.132738,11.9539
9.08394,1.00443,-0.995571,-0.995571,-0.0650211,0.237465,0.969218,0.109994,0.287324,0.951497,-0.230255,0.972357,0.0387841,0.004429,0.007768,0.100957,-107.967,13.305,88.077,0.146461,17.6448,0.101026,11.2823
9.11536,1.00236,-0.997635,-0.997635,-0.0649708,0.238815,0.968889,0.11036,0.287018,0.951547,-0.227488,0.973308,0.0303454,0.002365,-0.011833,0.107803,-107.96,13.107,88.082,0.138101,17.3646,0.107784,10.8724
9.17883,1.0072,-0.992798,-0.992798,-0.0638535,0.239113,0.96889,0.110679,0.286697,0.951607,-0.218853,0.975272,0.030797,0.007202,0.01018,0.115852,-107.961,12.733,88.089,0.146142,16.6919,0.0698383,9.93315
9.20998,1.00347,-0.996532,-0.996532,-0.0642332,0.239825,0.968689,0.111733,0.286043,0.95168,-0.219989,0.974952,0.0327535,0.003468,-0.000937,0.11956,-107.935,12.494,88.102,0.143755,16.3925,0.0679059,9.45219
9.26801,1.00297,-0.997028,-0.997028,-0.0631231,0.24012,0.968689,0.112374,0.285424,0.951791,-0.211938,0.976692,0.0339959,0.002972,0.008847,0.140009,-107.916,12.072,88.113,0.160844,15.8098,0.0501904,8.53438
9.29565,1.00457,-0.995428,-0.995428,-0.063282,0.239474,0.968838,0.113358,0.28537,0.95169,-0.204367,0.978422,0.0304093,0.004572,0.004849,0.13446,-107.895,11.875,88.122,0.149469,15.5179,0.0417033,8.08535
9.3517,1.00186,-0.998145,-0.998145,-0.0614649,0.241132,0.968544,0.114711,0.28504,0.951627,-0.196954,0.979881,0.0322993,0.001855,0.006936,0.149368,-107.874,11.42,88.135,0.159681,14.9601,0.039391,7.20212
9.38124,1.00254,-0.997461,-0.997461,-0.0607011,0.241393,0.968527,0.115356,0.284688,0.951654,-0.1969,0.979914,0.0316101,0.002539,0.006566,0.150492,-107.855,11.183,88.141,0.157095,14.7439,0.0376993,6.81808
9.43567,1.00325,-0.996753,-0.996753,-0.0603713,0.24207,0.968379,0.1167,0.284057,0.951679,-0.186491,0.98202,0.0292896,0.003247,-0.000009,0.151079,-107.839,10.711,88.153,0.147251,14.3936,0.0350947,6.24902
9.45863,1.00175,-0.99825,-0.99825,-0.0597922,0.243068,0.968165,0.117406,0.283106,0.951875,-0.184617,0.982446,0.026768,0.00175,0.003001,0.15328,-107.832,10.516,88.158,0.151384,14.2985,0.0421405,6.10014
9.51576,1.00161,-0.998392,-0.998392,-0.0593789,0.243349,0.96812,0.117405,0.282779,0.951973,-0.177744,0.983505,0.0335309,0.001608,-0.001551,0.154317,-107.796,10.02,88.169,0.144702,14.1488,0.0491366,5.94184
9.54461,1.00079,-0.999206,-0.999206,-0.0593742,0.244003,0.967955,0.119076,0.282115,0.951962,-0.171975,0.984753,0.0261989,0.000794,0.000608,0.156191,-107.795,9.756,88.172,0.146695,14.1107,0.0586124,5.9753
9.60678,1.00286,-0.997143,-0.997143,-0.0587595,0.244659,0.967827,0.119759,0.281483,0.952064,-0.158466,0.986757,0.0346356,0.002857,0.001645,0.156125,-107.738,9.164,88.191,0.139155,14.0756,0.0692788,6.23947
9.6412,1.00145,-0.998554,-0.998554,-0.0579394,0.244977,0.967796,0.119783,0.280867,0.952243,-0.155442,0.987319,0.0322307,0.001446,-0.005675,0.157509,-107.74,8.916,88.194,0.133891,14.0484,0.0731616,6.42892
9.70423,1.00187,-0.998135,-0.998135,-0.0583804,0.245896,0.967536,0.12046,0.28026,0.952336,-0.143256,0.989173,0.0318461,0.001865,0.006786,0.148692,-107.711,8.37,88.203,0.134335,14.0453,0.0956083,6.94886
9.73624,1.003,-0.997004,-0.997004,-0.0579234,0.246257,0.967472,0.12046,0.279931,0.952433,-0.14208,0.989352,0.031562,0.002996,0.00495,0.142206,-107.695,8.105,88.208,0.12682,14.0596,0.0985346,7.25963
9.79855,1.00218,-0.997821,-0.997821,-0.0572352,0.2469,0.967349,0.121504,0.27898,0.952579,-0.132099,0.99059,0.0358044,0.002179,-0.008618,0.13253,-107.672,7.606,88.221,0.108806,14.1201,0.0984565,7.98649
9.82956,1.00136,-0.998645,-0.998645,-0.0576767,0.247819,0.967088,0.121861,0.278336,0.952722,-0.134025,0.990361,0.0349587,0.001355,-0.011377,0.133488,-107.7,7.354,88.22,0.10641,14.1562,0.102598,8.3762
9.88415,1.00243,-0.997565,-0.997565,-0.0574008,0.248808,0.966851,0.121852,0.278041,0.952809,-0.121699,0.992224,0.0261004,0.002435,0.01048,0.128693,-107.686,6.961,88.227,0.121814,14.3065,0.132789,9.1788
9.9141,0.999049,-1.00095,-1.00095,-0.0576258,0.249145,0.96675,0.122243,0.277444,0.952933,-0.118232,0.992454,0.0324959,-0.000951,0.008387,0.128979,-107.67,6.742,88.231,0.122805,14.4248,0.139362,9.66113
9.96856,1.00362,-0.996378,-0.996378,-0.0558578,0.250032,0.966625,0.124558,0.276419,0.952931,-0.112689,0.993171,0.0302136,0.003622,0.013047,0.132966,-107.633,6.333,88.239,0.120627,14.7271,0.147944,10.6085
9.9979,1.00099,-0.999011,-0.999011,-0.0562857,0.250379,0.96651,0.12423,0.276451,0.952965,-0.108799,0.993373,0.0370486,0.000989,-0.001214,0.12764,-107.63,6.109,88.241,0.107515,14.9025,0.140173,11.1242
10.0534,1.00106,-0.998941,-0.998941,-0.055828,0.250736,0.966444,0.124266,0.275807,0.953147,-0.10174,0.994363,0.0298696,0.001059,0.000343,0.132566,-107.651,5.698,88.244,0.108136,15.2707,0.149808,12.0861
