test for writing sensor data,,,,,,,,,,,,,,,,,,,,
Time, omega_x, omega_y, omega_z,cam1_x, cam1_y, cam1_z, cam2_x, cam2_y, cam2_z,g_x, g_y, g_z,true_omega_x, true_omega_y, true_omega_z,true_attitude_x, true_attitude_y, true_attitude_z,bias_err, attitude_err
0.000000224,0.013303,0.0586875,0.00711109,-0.00122127,0.150731,0.988574,0.162911,0.0615776,0.984717,0.376644,0.913315,0.154902,0.031946,0.038542,0.045491,-37.891,-47.329,-63.225,0.047186,38.9644
0.0600447,0.0114919,0.0564679,0.00644294,-0.00222807,0.151027,0.988527,0.162911,0.0615776,0.984717,0.377013,0.912918,0.15634,0.032466,0.03942,0.047624,-37.931,-47.129,-63.066,0.543649,31.2986
0.123056,0.0124391,0.0594531,0.00349928,-0.00222807,0.151027,0.988527,0.162911,0.0615776,0.984717,0.378836,0.912209,0.156069,0.03082,0.038521,0.046168,-37.973,-46.905,-62.89,0.944453,25.5366
0.179423,0.0123253,0.0572029,0.00374301,-0.00222807,0.151027,0.988527,0.162911,0.0615776,0.984717,0.377813,0.912451,0.157132,0.029076,0.038111,0.046985,-38.003,-46.719,-62.744,1.18724,22.0472
0.206136,0.012216,0.0549148,0.003977,-0.00222807,0.151027,0.988527,0.162911,0.0615776,0.984717,0.377782,0.913297,0.152216,0.030654,0.040011,0.047652,-38.021,-46.614,-62.662,1.26815,20.8427
0.260285,0.0119831,0.052974,0.00394582,-0.00222807,0.151027,0.988527,0.163229,0.0612111,0.984688,0.376667,0.913564,0.15337,0.03114,0.038178,0.047258,-38.051,-46.43,-62.519,1.3754,19.1667
0.286334,0.0115038,0.0511109,0.00391589,-0.00222807,0.151027,0.988527,0.163229,0.0612111,0.984688,0.373927,0.913704,0.159135,0.032705,0.037119,0.042479,-38.066,-46.342,-62.449,1.40336,18.6751
0.348789,0.0109158,0.0493222,0.00401506,-0.00222807,0.151027,0.988527,0.163229,0.0612111,0.984688,0.377064,0.913419,0.153259,0.031348,0.03918,0.04746,-38.098,-46.12,-62.278,1.40458,18.0062
0.381534,0.0104791,0.0474772,0.00372655,-0.00222807,0.151027,0.988527,0.162911,0.0615776,0.984717,0.379296,0.912564,0.152845,0.032234,0.038887,0.047222,-38.124,-45.955,-62.15,1.3796,17.8714
0.437479,0.01006,0.0455782,0.00332169,-0.00222807,0.151027,0.988527,0.163229,0.0612111,0.984688,0.376206,0.913132,0.157034,0.031947,0.037224,0.043497,-38.145,-45.803,-62.033,1.3042,17.9521
0.465665,0.00978547,0.0436271,0.00306092,-0.00222807,0.151027,0.988527,0.163229,0.0612111,0.984688,0.375539,0.913485,0.156577,0.030492,0.039357,0.046777,-38.162,-45.707,-61.959,1.24924,18.0901
0.519724,0.00926615,0.0416262,0.00255478,-0.00222807,0.151027,0.988527,0.163229,0.0612111,0.984688,0.377069,0.912494,0.158663,0.032272,0.038914,0.045782,-38.189,-45.514,-61.81,1.13501,18.4352
0.550307,0.0085118,0.0395775,0.00194098,-0.00222807,0.151027,0.988527,0.162911,0.0615776,0.984717,0.376016,0.913647,0.15447,0.030111,0.038348,0.046392,-38.203,-45.409,-61.732,1.05983,18.6773
0.60607,0.00791552,0.0376107,-0.028961,-0.00222807,0.151027,0.988527,0.163229,0.0612111,0.984688,0.378058,0.912601,0.155665,0.029777,0.039827,0.046186,-38.23,-45.214,-61.583,0.914061,19.2355
0.634767,0.0073826,0.0364116,-0.985428,-0.00222807,0.151027,0.988527,0.162911,0.0615776,0.984717,0.378257,0.912707,0.154556,0.030984,0.039391,0.048599,-38.245,-45.11,-61.507,1.19188,21.6653
0.700147,-1,0.465416,0.015405,-0.00222807,0.151027,0.988527,0.162911,0.0615776,0.984717,0.375146,0.913551,0.157128,0.032605,0.037638,0.043145,-38.283,-44.886,-61.338,1.706,21.6096
0.733388,1,0.0622585,-0.0119074,-0.00222807,0.151027,0.988527,0.162911,0.0615776,0.984717,0.370601,0.915116,0.1588,0.03183,0.037415,0.042403,-38.302,-44.774,-61.253,0.84701,22.6329
0.787979,-1,1,1,-0.00222807,0.151027,0.988527,0.162911,0.0615776,0.984717,0.376758,0.912359,0.16017,0.030802,0.038783,0.046049,-38.332,-44.584,-61.114,2.12512,19.6509
0.815237,-1,-1,1,-0.00222807,0.151027,0.988527,0.163229,0.0612111,0.984688,0.376201,0.913236,0.156435,0.033191,0.038842,0.043126,-38.349,-44.489,-61.041,1.73423,15.0135
0.87292,0.00844845,0.0336137,0.00154891,-0.00222807,0.151027,0.988527,0.163229,0.0612111,0.984688,0.378079,0.91329,0.151517,0.028478,0.035142,0.046959,-38.374,-44.287,-60.893,0.303328,15.6113
0.901214,0.00823841,0.0320134,0.00161486,-0.00222807,0.151027,0.988527,0.162911,0.0615776,0.984717,0.374807,0.91333,0.159214,0.033207,0.041329,0.043262,-38.391,-44.195,-60.823,0.289061,16.3753
0.96575,0.00778097,0.030477,0.00193397,-0.00222807,0.151027,0.988527,0.162911,0.0615776,0.984717,0.378088,0.912345,0.157086,0.029026,0.041183,0.04399,-38.421,-43.967,-60.658,0.320267,17.8406
0.997434,0.00734183,0.0287464,0.00211241,-0.00222807,0.151027,0.988527,0.162911,0.0615776,0.984717,0.378819,0.91188,0.15802,0.031685,0.038588,0.050019,-38.435,-43.851,-60.572,0.340212,18.4382
1.0564,0.00679236,0.0272128,0.00228372,-0.00222807,0.151027,0.988527,0.163229,0.0612111,0.984688,0.374045,0.913627,0.159297,0.032601,0.039062,0.043617,-38.463,-43.653,-60.425,0.378378,19.4786
1.08687,0.00613696,0.0257406,0.00244818,-0.00222807,0.151027,0.988527,0.162911,0.0615776,0.984717,0.376306,0.912089,0.162749,0.032385,0.04017,0.045733,-38.475,-43.545,-60.348,0.391079,19.9004
1.14973,0.00550777,0.0245831,0.00260605,-0.00222807,0.151027,0.988527,0.163229,0.0612111,0.984688,0.376478,0.912435,0.160399,0.030042,0.038532,0.048056,-38.502,-43.315,-60.179,0.408209,20.5613
1.17982,0.00477585,0.0238555,0.00262971,-0.00222807,0.151027,0.988527,0.163229,0.0612111,0.984688,0.375779,0.913409,0.156439,0.030735,0.038877,0.046531,-38.513,-43.209,-60.103,0.408319,20.8115
1.23448,0.00407321,0.0231571,0.00265243,-0.00222807,0.151027,0.988527,0.162911,0.0615776,0.984717,0.377252,0.912195,0.159941,0.032248,0.041175,0.046921,-38.534,-43.015,-59.963,0.397047,21.13
1.26603,0.00339868,0.0224866,0.00254633,-0.00222807,0.151027,0.988527,0.163229,0.0612111,0.984688,0.376373,0.913582,0.153985,0.031924,0.03873,0.046146,-38.541,-42.908,-59.886,0.387974,21.2748
1.32304,0.00287902,0.0219709,0.00270028,-0.00222807,0.151027,0.988527,0.162911,0.0615776,0.984717,0.376196,0.913472,0.155066,0.030402,0.040332,0.046601,-38.558,-42.705,-59.742,0.364132,21.463
1.35573,0.00238016,0.0212199,0.00297598,-0.00222807,0.151027,0.988527,0.162911,0.0615776,0.984717,0.375959,0.912767,0.159724,0.03068,0.040053,0.047476,-38.57,-42.589,-59.659,0.344339,21.5442
1.41013,0.00190124,0.0206269,0.00336854,-0.00122127,0.150731,0.988574,0.163229,0.0612111,0.984688,0.375822,0.912111,0.163744,0.034071,0.039414,0.045498,-38.583,-42.39,-59.52,0.303676,21.6434
1.43795,0.00176801,0.0211599,1,-0.00198187,0.150687,0.98858,0.163229,0.0612111,0.984688,0.371755,0.914923,0.157206,0.031196,0.039292,0.047697,-38.589,-42.292,-59.451,1.06051,19.0221
1.49386,0.0310789,0.462955,0.015759,-0.00222807,0.151027,0.988527,0.163229,0.0612111,0.984688,0.374596,0.912911,0.162087,0.030875,0.038229,0.046398,-38.601,-42.095,-59.314,0.567376,20.2985
1.52191,-0.00063015,0.0500711,-0.0116866,-0.00222807,0.151027,0.988527,0.162911,0.0615776,0.984717,0.376834,0.912808,0.157405,0.03046,0.040558,0.047557,-38.609,-41.977,-59.23,0.239392,20.6659
1.58259,0.00296709,0.0226254,-0.00156101,-0.00222807,0.151027,0.988527,0.163229,0.0612111,0.984688,0.374744,0.913073,0.160824,0.032773,0.040809,0.044916,-38.616,-41.765,-59.084,0.193946,21.2063
1.61269,0.00272051,0.0214646,-0.00111486,-0.00222807,0.151027,0.988527,0.162911,0.0615776,0.984717,0.376062,0.912913,0.158643,0.033192,0.040699,0.046451,-38.622,-41.657,-59.009,0.17474,21.438
1.66989,0.00248379,0.0202223,-0.000942368,-0.00222807,0.151027,0.988527,0.163229,0.0612111,0.984688,0.374714,0.913013,0.161234,0.034076,0.04062,0.044381,-38.629,-41.447,-58.865,0.139889,21.8659
1.69789,0.00238443,0.0187739,-0.000904673,-0.00222807,0.151027,0.988527,0.162911,0.0615776,0.984717,0.37462,0.91343,0.159075,0.030992,0.039647,0.045803,-38.632,-41.347,-58.798,0.127813,22.0536
1.75417,0.00331227,0.0214763,0.00578242,-0.00122127,0.150731,0.988574,0.162911,0.0615776,0.984717,0.373443,0.913134,0.163484,0.032772,0.038828,0.0441,-38.638,-41.147,-58.662,0.10231,22.3776
1.78355,0.00292398,0.0206173,0.00619063,-0.00222807,0.151027,0.988527,0.162911,0.0615776,0.984717,0.376751,0.912768,0.157838,0.030715,0.039011,0.048122,-38.644,-41.039,-58.588,0.0919555,22.4853
1.83922,0.00907421,0.0168508,0.000954827,-0.00222807,0.151027,0.988527,0.162911,0.0615776,0.984717,0.375203,0.913352,0.158147,0.033295,0.040618,0.048347,-38.649,-40.838,-58.451,0.0738573,22.6862
1.8662,0.00819964,0.0157931,0.00117244,-0.00222807,0.151027,0.988527,0.163229,0.0612111,0.984688,0.3754,0.913146,0.15887,0.032002,0.039082,0.045262,-38.651,-40.739,-58.385,0.0678006,22.7538
1.92185,0.00313928,0.00953367,-0.0013046,-0.00222807,0.151027,0.988527,0.162911,0.0615776,0.984717,0.37443,0.913728,0.157811,0.032136,0.038724,0.045385,-38.653,-40.536,-58.251,0.053047,22.8513
1.96087,0.00288581,0.00889651,-0.000612903,-0.00222807,0.151027,0.988527,0.163229,0.0612111,0.984688,0.373986,0.912799,0.164111,0.032454,0.04077,0.044757,-38.658,-40.393,-58.155,0.0495341,22.879
2.01539,0.00149135,0.0128893,0.0049114,-0.00222807,0.151027,0.988527,0.162911,0.0615776,0.984717,0.374929,0.912818,0.161836,0.032482,0.040007,0.045472,-38.663,-40.194,-58.024,0.0565265,22.8186
2.04177,0.00194331,0.0123737,0.00394753,-0.00222807,0.151027,0.988527,0.163229,0.0612111,0.984688,0.377073,0.912051,0.161179,0.034315,0.038539,0.044437,-38.666,-40.086,-57.95,0.0594668,22.7424
2.10021,0.00263299,0.0140531,0.0021269,-0.00222807,0.151027,0.988527,0.162911,0.0615776,0.984717,0.375869,0.913,0.1586,0.033218,0.038234,0.045515,-38.668,-39.887,-57.818,0.062163,22.5914
2.1306,0.00278347,0.0136189,0.00140232,-0.00222807,0.151027,0.988527,0.162911,0.0615776,0.984717,0.373504,0.913667,0.160335,0.032116,0.039836,0.045241,-38.668,-39.779,-57.747,0.0607889,22.5314
2.18526,-0.00142073,0.0163996,-0.00172342,-0.00222807,0.151027,0.988527,0.162911,0.0615776,0.984717,0.374464,0.913605,0.158439,0.034484,0.037567,0.043416,-38.672,-39.581,-57.615,0.0689801,22.4089
2.21501,-0.00174761,0.0151041,-0.00063127,-0.00222807,0.151027,0.988527,0.163229,0.0612111,0.984688,0.372281,0.913633,0.163346,0.031237,0.039051,0.046628,-38.672,-39.471,-57.545,0.0657684,22.3561
2.27087,0.00458949,0.00900016,0.00310314,-0.00222807,0.151027,0.988527,0.162911,0.0615776,0.984717,0.376293,0.912597,0.159909,0.030752,0.039386,0.047732,-38.67,-39.236,-57.393,0.0543447,22.1301
2.30709,0.00427801,0.00812855,0.00297901,-0.00222807,0.151027,0.988527,0.163229,0.0612111,0.984688,0.373875,0.913191,0.162173,0.029836,0.037035,0.044844,-38.666,-39.136,-57.328,0.0533011,22.0462
2.36163,0.00628123,0.0115126,4.60085E-05,-0.00222807,0.151027,0.988527,0.162911,0.0615776,0.984717,0.370642,0.914877,0.160075,0.032769,0.037147,0.043017,-38.664,-38.948,-57.211,0.053048,22.0467
2.3922,0.00590208,0.0114358,0.00017207,-0.00222807,0.151027,0.988527,0.162911,0.0615776,0.984717,0.371345,0.913545,0.16595,0.032807,0.038121,0.042071,-38.662,-38.831,-57.136,0.0520935,22.0491
2.44949,0.00144523,0.00803659,-0.000474322,-0.00222807,0.151027,0.988527,0.163229,0.0612111,0.984688,0.374079,0.91335,0.160801,0.02986,0.036512,0.046699,-38.653,-38.624,-57.01,0.050074,22.0162
2.48101,0.00164322,0.00784303,-0.00160647,-0.00222807,0.151027,0.988527,0.162911,0.0615776,0.984717,0.369981,0.914593,0.1632,0.031956,0.038663,0.043012,-38.655,-38.518,-56.942,0.0488368,22.0753
2.53523,0.0019612,0.00752931,-0.00230962,-0.00222807,0.151027,0.988527,0.162911,0.0615776,0.984717,0.374166,0.9124,0.16591,0.032166,0.038376,0.045231,-38.652,-38.32,-56.819,0.0478969,22.124
2.59388,0.00226646,0.00646072,-0.000682412,-0.00222807,0.151027,0.988527,0.162911,0.0615776,0.984717,0.375169,0.911636,0.167831,0.032744,0.039836,0.046767,-38.646,-38.111,-56.686,0.0462709,22.1693
2.62228,0.0024316,0.0064581,-0.000399312,-0.00222807,0.151027,0.988527,0.163229,0.0612111,0.984688,0.373484,0.913256,0.162709,0.030964,0.037769,0.047965,-38.642,-38.001,-56.617,0.0435288,22.2328
2.68373,0.00195063,0.00658348,-0.000511241,-0.00222807,0.151027,0.988527,0.162911,0.0615776,0.984717,0.373897,0.913574,0.15995,0.03271,0.037423,0.043077,-38.637,-37.784,-56.478,0.0389905,22.3781
2.71288,0.0012331,0.00695965,-0.000746595,-0.00222807,0.151027,0.988527,0.163229,0.0612111,0.984688,0.374041,0.91289,0.163477,0.031978,0.037931,0.045362,-38.635,-37.676,-56.411,0.0391452,22.454
2.76772,0.00335811,0.00629756,0.00631788,-0.00222807,0.151027,0.988527,0.163229,0.0612111,0.984688,0.371126,0.914162,0.163013,0.032916,0.039267,0.044033,-38.631,-37.476,-56.286,0.0332851,22.6254
2.79988,0.00386329,0.00642936,0.00619306,-0.00222807,0.151027,0.988527,0.163229,0.0612111,0.984688,0.372536,0.912903,0.166809,0.031366,0.038867,0.043193,-38.629,-37.358,-56.214,0.0312571,22.7041
2.85469,-3.97675E-07,0.00655589,-0.00172878,-0.00222807,0.151027,0.988527,0.162911,0.0615776,0.984717,0.370068,0.914049,0.166023,0.032203,0.037944,0.042737,-38.619,-37.16,-56.092,0.0396536,22.915
2.8852,0.000255423,0.00629366,-0.00165963,-0.00222807,0.151027,0.988527,0.162911,0.0615776,0.984717,0.370472,0.913797,0.166508,0.031485,0.03741,0.044453,-38.613,-37.052,-56.025,0.0405885,23.0135
2.94006,0.00178003,0.00194905,-0.00108163,-0.00222807,0.151027,0.988527,0.162911,0.0615776,0.984717,0.370434,0.914207,0.16433,0.031925,0.037591,0.044181,-38.598,-36.848,-55.9,0.0416816,23.151
2.96984,0.00196463,0.00174318,-0.00154998,-0.00222807,0.151027,0.988527,0.162911,0.0615776,0.984717,0.370463,0.913938,0.165752,0.029512,0.038223,0.043452,-38.588,-36.728,-55.828,0.0411967,23.2059
3.02428,0.00342087,0.00538261,0.00439551,-0.00222807,0.151027,0.988527,0.162911,0.0615776,0.984717,0.371986,0.913364,0.165509,0.030097,0.039361,0.042303,-38.577,-36.546,-55.717,0.0355841,23.2046
3.0519,0.00341194,0.00529521,0.0044755,-0.00222807,0.151027,0.988527,0.162911,0.0615776,0.984717,0.371237,0.913562,0.166093,0.03245,0.03812,0.048238,-38.572,-36.444,-55.655,0.0411676,23.1917
3.1066,0.00114701,0.00436259,-0.169524,-0.00222807,0.151027,0.988527,0.162911,0.0615776,0.984717,0.37279,0.912988,0.165775,0.031491,0.03937,0.046459,-38.557,-36.243,-55.533,0.204343,23.9817
3.13513,-1,0.45615,0.00967152,-0.00222807,0.151027,0.988527,0.162911,0.0615776,0.984717,0.372344,0.912656,0.16858,0.033523,0.04111,0.046563,-38.557,-36.136,-55.465,1.10689,23.7827
3.18969,-0.00218377,0.00436259,-0.00245253,-0.00222807,0.151027,0.988527,0.163229,0.0612111,0.984688,0.372945,0.912951,0.165628,0.031362,0.041513,0.045839,-38.542,-35.943,-55.348,0.0488819,23.4857
3.21535,-0.00235223,0.00380438,-0.00184282,-0.00222807,0.151027,0.988527,0.163229,0.0612111,0.984688,0.369923,0.913958,0.166844,0.032438,0.036593,0.045334,-38.536,-35.844,-55.287,0.0481145,23.3761
3.27146,0.00196263,0.00531493,-0.00355973,-0.00222807,0.151027,0.988527,0.162911,0.0615776,0.984717,0.373517,0.913315,0.162297,0.031663,0.038458,0.046369,-38.526,-35.645,-55.166,0.061074,23.0983
3.30298,0.00226783,0.00523024,-0.00303364,-0.00222807,0.151027,0.988527,0.162911,0.0615776,0.984717,0.370787,0.91347,0.167601,0.031927,0.038717,0.046295,-38.518,-35.527,-55.093,0.0654818,22.9766
3.37151,0.00294453,-0.0030368,0.00488973,-0.00222807,0.151027,0.988527,0.162911,0.0615776,0.984717,0.369962,0.914615,0.163119,0.034053,0.037952,0.046751,-38.509,-35.284,-54.944,0.0760052,22.7166
3.40243,0.00244304,-0.00278742,0.00469414,-0.00222807,0.151027,0.988527,0.162911,0.0615776,0.984717,0.369703,0.914028,0.16695,0.034069,0.039821,0.044149,-38.503,-35.167,-54.873,0.0776595,22.6246
3.46926,0.000043083,0.00896316,-0.00380725,-0.00222807,0.151027,0.988527,0.163229,0.0612111,0.984688,0.370093,0.913902,0.166776,0.032599,0.036971,0.041958,-38.483,-34.928,-54.73,0.0677375,22.5707
3.49717,0.00004136,0.00822092,-0.00403867,-0.00222807,0.151027,0.988527,0.163229,0.0612111,0.984688,0.370487,0.914433,0.162949,0.031464,0.038494,0.046994,-38.473,-34.827,-54.67,0.0721479,22.5711
3.55262,-0.00175092,0.000601675,0.00341329,-0.00222807,0.151027,0.988527,0.162911,0.0615776,0.984717,0.371031,0.913048,0.169348,0.033003,0.039097,0.043477,-38.463,-34.622,-54.547,0.0691149,22.5319
3.58509,-0.00116928,0.000833411,0.00340466,-0.00222807,0.151027,0.988527,0.163229,0.0612111,0.984688,0.371676,0.912564,0.170538,0.030923,0.039337,0.043455,-38.455,-34.504,-54.477,0.0673547,22.5291
3.63936,0.00348197,0.00297441,0.00710553,-0.00222807,0.151027,0.988527,0.162911,0.0615776,0.984717,0.368455,0.913679,0.171557,0.03175,0.038451,0.044382,-38.441,-34.315,-54.364,0.0600324,22.6304
3.66789,0.00385429,0.00336704,0.00694921,-0.00222807,0.151027,0.988527,0.162911,0.0615776,0.984717,0.370979,0.913903,0.164789,0.030931,0.038689,0.046425,-38.431,-34.206,-54.3,0.0594726,22.6885
3.72704,0.00152579,0.00489509,-0.00074707,-0.00222807,0.151027,0.988527,0.162911,0.0615776,0.984717,0.370273,0.913279,0.16976,0.032671,0.038273,0.046064,-38.417,-33.99,-54.17,0.0567513,22.8859
3.7541,0.00095315,0.00457138,-0.000461383,-0.00222807,0.151027,0.988527,0.162911,0.0615776,0.984717,0.37223,0.913356,0.165003,0.030552,0.037436,0.045832,-38.408,-33.899,-54.117,0.0551668,22.9604
3.8101,-0.000619801,0.00720237,0.00531266,-0.00222807,0.151027,0.988527,0.163229,0.0612111,0.984688,0.371266,0.91272,0.170598,0.033043,0.038808,0.045214,-38.384,-33.685,-53.991,0.048298,23.1329
3.83894,-8.34009E-05,0.00653057,0.00458855,-0.00122127,0.150731,0.988574,0.162911,0.0615776,0.984717,0.369768,0.91428,0.165423,0.030795,0.037827,0.047811,-38.369,-33.581,-53.931,0.0497655,23.2397
3.90424,-0.000463771,0.00371131,0.00171906,-0.00222807,0.151027,0.988527,0.163229,0.0612111,0.984688,0.368979,0.914728,0.164706,0.03135,0.038948,0.046631,-38.341,-33.329,-53.785,0.0546086,23.5123
3.93342,-0.00044522,0.00356285,0.0017782,-0.00222807,0.151027,0.988527,0.162911,0.0615776,0.984717,0.368454,0.913713,0.171379,0.032839,0.037376,0.042482,-38.328,-33.228,-53.725,0.051824,23.6159
4.00071,0.00123532,0.00124601,0.00720686,-0.00222807,0.151027,0.988527,0.162911,0.0615776,0.984717,0.369233,0.913564,0.170494,0.032329,0.039002,0.044369,-38.301,-32.979,-53.581,0.0532058,23.7541
4.03017,0.0013138,0.00106826,0.00691859,-0.00222807,0.151027,0.988527,0.162911,0.0615776,0.984717,0.37095,0.913337,0.167964,0.029645,0.038608,0.045145,-38.282,-32.866,-53.518,0.053159,23.772
4.09679,-0.000657278,0.00256036,-0.00218339,-0.00222807,0.151027,0.988527,0.162911,0.0615776,0.984717,0.370516,0.91351,0.16798,0.031431,0.038794,0.04809,-38.25,-32.625,-53.38,0.064046,23.8207
4.1267,-0.000886791,0.00194633,-0.00158445,-0.00222807,0.151027,0.988527,0.162911,0.0615776,0.984717,0.370161,0.913854,0.166889,0.032443,0.039102,0.043204,-38.232,-32.468,-53.289,0.0620289,23.8034
4.18453,-8.39075E-05,0.0034033,0.00615305,-0.00122127,0.150731,0.988574,0.163229,0.0612111,0.984688,0.370965,0.912696,0.17138,0.031463,0.039152,0.047317,-38.211,-32.301,-53.195,0.0597366,23.7004
4.21342,0.000175253,0.00326717,0.00705804,-0.00222807,0.151027,0.988527,0.162911,0.0615776,0.984717,0.372234,0.913292,0.165346,0.032229,0.039459,0.047595,-38.196,-32.189,-53.13,0.0600737,23.6034
4.26939,0.0041332,0.00735725,0.00242705,-0.00222807,0.151027,0.988527,0.162911,0.0615776,0.984717,0.371438,0.912892,0.1693,0.031049,0.039925,0.047912,-38.168,-31.983,-53.014,0.0596574,23.4476
4.3014,0.00332837,0.00667926,0.00271368,-0.00222807,0.151027,0.988527,0.163229,0.0612111,0.984688,0.370624,0.912769,0.171727,0.031034,0.03802,0.047308,-38.153,-31.862,-52.945,0.0597811,23.3508
4.35872,0.00166041,0.00027279,0.00298884,-0.00222807,0.151027,0.988527,0.162911,0.0615776,0.984717,0.370842,0.91315,0.169215,0.029386,0.036987,0.040508,-38.128,-31.647,-52.819,0.05834,23.1457
4.3875,0.00146609,0.000645585,0.00286928,-0.00222807,0.151027,0.988527,0.163229,0.0612111,0.984688,0.369981,0.913717,0.168034,0.034666,0.044376,0.046703,-38.135,-31.53,-52.731,0.0693461,23.0492
4.44782,0.00038423,0.000875566,-5.93322E-05,-0.00222807,0.151027,0.988527,0.162911,0.0615776,0.984717,0.367189,0.914449,0.170163,0.034626,0.042123,0.041379,-38.091,-31.32,-52.635,0.0683772,22.958
4.47412,0.000368861,0.000712641,0.000198845,-0.00222807,0.151027,0.988527,0.163229,0.0612111,0.984688,0.370217,0.913264,0.169964,0.032469,0.042248,0.048945,-38.083,-31.223,-52.576,0.0721449,22.888
4.53257,0.000226204,-0.0016181,-0.00275085,-0.00222807,0.151027,0.988527,0.163229,0.0612111,0.984688,0.367547,0.914008,0.171754,0.03604,0.041787,0.04336,-38.05,-30.999,-52.451,0.0743332,22.8051
4.55713,-0.000294452,-0.00155338,-0.00276872,-0.00222807,0.151027,0.988527,0.162911,0.0615776,0.984717,0.371012,0.912968,0.169821,0.035127,0.042918,0.049173,-38.042,-30.91,-52.398,0.0783344,22.754
4.61157,-1,-1,1,-0.00222807,0.151027,0.988527,0.162911,0.0615776,0.984717,0.369178,0.913354,0.171732,0.029576,0.038102,0.046721,-38.013,-30.701,-52.281,1.72388,15.3752
4.63844,0.0386091,1,1,-0.00222807,0.151027,0.988527,0.162911,0.0615776,0.984717,0.370145,0.913298,0.16994,0.033226,0.03978,0.044713,-38.001,-30.6,-52.223,1.34576,13.9441
4.69336,0.000371705,0.000578322,-0.00316842,-0.00222807,0.151027,0.988527,0.162911,0.0615776,0.984717,0.367444,0.914169,0.171113,0.030568,0.040994,0.04639,-37.976,-30.396,-52.111,0.124115,15.7124
4.71936,0.000740543,4.35803E-05,-0.00329748,-0.00222807,0.151027,0.988527,0.162911,0.0615776,0.984717,0.368866,0.913622,0.170978,0.030376,0.038089,0.04477,-37.962,-30.305,-52.062,0.138159,16.6646
4.77495,-0.00350984,0.00349519,0.00271791,-0.00222807,0.151027,0.988527,0.162911,0.0615776,0.984717,0.366891,0.914471,0.170685,0.032643,0.038578,0.04602,-37.938,-30.095,-51.945,0.159582,18.5885
4.80326,-0.00375316,0.00335538,0.0031208,-0.00222807,0.151027,0.988527,0.162911,0.0615776,0.984717,0.368769,0.912972,0.174616,0.031339,0.039732,0.044107,-37.929,-29.995,-51.89,0.167545,19.4639
4.85825,0.00100144,0.00296536,-0.00199221,-0.00222807,0.151027,0.988527,0.163229,0.0612111,0.984688,0.368401,0.914113,0.169348,0.030205,0.039667,0.045684,-37.9,-29.772,-51.767,0.189555,21.0342
4.88726,0.00108929,0.00284675,-0.00165672,-0.00222807,0.151027,0.988527,0.162911,0.0615776,0.984717,0.367673,0.913614,0.173569,0.027242,0.040358,0.044117,-37.887,-29.68,-51.718,0.192809,21.7677
4.94208,-0.00291925,0.00260498,0.00454885,-0.00222807,0.151027,0.988527,0.163229,0.0612111,0.984688,0.364709,0.915196,0.171472,0.030623,0.038126,0.044046,-37.861,-29.488,-51.616,0.188017,23.0074
4.97036,-0.00280248,0.00262868,0.0047506,-0.00222807,0.151027,0.988527,0.162911,0.0615776,0.984717,0.369769,0.912609,0.1744,0.028268,0.040857,0.045921,-37.845,-29.377,-51.558,0.188584,23.4935
5.02559,-1,1,0.509963,-0.00222807,0.151027,0.988527,0.162911,0.0615776,0.984717,0.367341,0.913242,0.176209,0.028534,0.039989,0.043472,-37.821,-29.178,-51.452,1.39067,22.8105
5.05745,0.01132,0.529025,1,-0.00222807,0.151027,0.988527,0.162911,0.0615776,0.984717,0.371207,0.912317,0.172869,0.027453,0.039116,0.045229,-37.801,-29.057,-51.389,0.973433,21.0109
5.11174,0.00239354,0.00222899,-0.00124481,-0.00222807,0.151027,0.988527,0.163229,0.0612111,0.984688,0.368584,0.912362,0.178159,0.031316,0.039454,0.045856,-37.779,-28.866,-51.282,0.232887,21.9753
5.13902,0.0024257,0.00226773,-0.000939211,-0.00222807,0.151027,0.988527,0.163229,0.0612111,0.984688,0.368348,0.913734,0.171492,0.03033,0.037633,0.046953,-37.765,-28.766,-51.228,0.242358,22.5595
5.19524,0.0039914,-0.00127633,-0.000773741,-0.00222807,0.151027,0.988527,0.162911,0.0615776,0.984717,0.371166,0.911742,0.175961,0.029942,0.038599,0.044098,-37.734,-28.554,-51.114,0.250317,23.4716
5.22555,0.00421545,-0.00122528,-0.000486987,-0.00222807,0.151027,0.988527,0.163229,0.0612111,0.984688,0.367714,0.913698,0.173042,0.028224,0.039467,0.047352,-37.716,-28.443,-51.054,0.255502,23.8931
5.28091,-0.00145296,-0.00104837,-0.00328135,-0.00222807,0.151027,0.988527,0.162911,0.0615776,0.984717,0.368687,0.912925,0.175039,0.028307,0.039423,0.044921,-37.69,-28.242,-50.949,0.247912,24.4781
5.31028,-0.00152274,-0.000750629,-0.0030222,-0.00222807,0.151027,0.988527,0.162911,0.0615776,0.984717,0.368243,0.913715,0.171819,0.028969,0.039224,0.047446,-37.67,-28.13,-50.89,0.244588,24.704
5.36974,-0.00171763,0.00260485,0.00259848,-0.00222807,0.151027,0.988527,0.162911,0.0615776,0.984717,0.364957,0.914596,0.174126,0.028152,0.039093,0.042147,-37.628,-27.905,-50.771,0.222932,25.0651
5.3982,-0.00203263,0.00237275,0.00223874,-0.00222807,0.151027,0.988527,0.163229,0.0612111,0.984688,0.366952,0.913031,0.178102,0.027349,0.040936,0.040483,-37.607,-27.777,-50.709,0.21415,25.144
5.45679,0.000990417,0.00278945,-0.00232738,-0.00222807,0.151027,0.988527,0.162911,0.0615776,0.984717,0.366863,0.91333,0.176747,0.030086,0.038305,0.040856,-37.578,-27.596,-50.615,0.196598,25.266
5.48437,0.000822898,0.00229417,-0.00236219,-0.00198187,0.150687,0.98858,0.162911,0.0615776,0.984717,0.366089,0.914049,0.17462,0.02473,0.039115,0.046636,-37.557,-27.494,-50.565,0.194703,25.2895
5.54017,0.000278374,-0.000867249,-0.000221271,-0.00122127,0.150731,0.988574,0.163229,0.0612111,0.984688,0.364207,0.914356,0.176936,0.031045,0.038852,0.04263,-37.525,-27.282,-50.455,0.169148,25.3038
5.56564,0.000778847,-0.00108836,0.000171286,-0.00222807,0.151027,0.988527,0.162911,0.0615776,0.984717,0.368705,0.912478,0.177313,0.026869,0.040799,0.046069,-37.504,-27.178,-50.403,0.165554,25.2486
5.62079,0.0339534,1,1,-0.00222807,0.151027,0.988527,0.162911,0.0615776,0.984717,0.370365,0.912005,0.176286,0.028839,0.042395,0.047679,-37.473,-26.982,-50.304,1.26908,22.0544
5.65224,-0.448344,0.0220939,-0.0336694,-0.00222807,0.151027,0.988527,0.163229,0.0612111,0.984688,0.366656,0.914395,0.171596,0.029996,0.041161,0.045023,-37.455,-26.87,-50.244,0.437684,22.0197
5.70611,-2.05403E-05,0.00197595,0.00523407,-0.00222807,0.151027,0.988527,0.163229,0.0612111,0.984688,0.367868,0.913036,0.176177,0.029655,0.03995,0.045437,-37.42,-26.661,-50.138,0.155483,22.5138
5.73312,0.000108183,0.00228062,0.004641,-0.00222807,0.151027,0.988527,0.162911,0.0615776,0.984717,0.363643,0.915348,0.17292,0.032185,0.039191,0.043314,-37.405,-26.559,-50.085,0.154859,22.8091
5.78739,-1,1,0.0067727,-0.00222807,0.151027,0.988527,0.163229,0.0612111,0.984688,0.365347,0.914387,0.174407,0.028801,0.039496,0.044069,-37.368,-26.356,-49.984,1.30068,24.3962
5.81529,0.0432751,1,1,-0.00222807,0.151027,0.988527,0.162911,0.0615776,0.984717,0.366733,0.9132,0.177686,0.028099,0.040676,0.046896,-37.34,-26.214,-49.914,1.24435,23.3037
5.87188,0.000507877,-0.00158308,-0.00188733,-0.00222807,0.151027,0.988527,0.163229,0.0612111,0.984688,0.366813,0.913349,0.176754,0.029632,0.037412,0.044404,-37.313,-26.05,-49.832,0.217155,23.4479
5.90036,0.000743366,-0.00139186,-0.00117232,-0.00222807,0.151027,0.988527,0.163229,0.0612111,0.984688,0.36419,0.913655,0.180556,0.030667,0.039155,0.041713,-37.293,-25.939,-49.775,0.226985,23.6899
5.95457,-0.00222811,-0.00146409,-0.00278816,-0.00222807,0.151027,0.988527,0.163229,0.0612111,0.984688,0.364235,0.914224,0.177561,0.031083,0.039307,0.042101,-37.254,-25.743,-49.676,0.241092,24.1096
5.98424,-0.0025227,-0.00191713,-0.00242083,-0.00222807,0.151027,0.988527,0.162911,0.0615776,0.984717,0.364319,0.913973,0.178676,0.028992,0.03955,0.043776,-37.233,-25.632,-49.622,0.247234,24.312
6.03859,-0.003445,0.000461791,-0.000533366,-0.00222807,0.151027,0.988527,0.163229,0.0612111,0.984688,0.366224,0.912953,0.179993,0.032164,0.039877,0.040757,-37.193,-25.43,-49.52,0.242792,24.582
6.06599,-0.00356301,0.000315417,0.000127479,-0.00222807,0.151027,0.988527,0.162911,0.0615776,0.984717,0.364713,0.913058,0.182509,0.028997,0.040583,0.046106,-37.173,-25.326,-49.469,0.244945,24.7064
6.12024,-1,1,0.0115854,-0.00222807,0.151027,0.988527,0.163229,0.0612111,0.984688,0.364105,0.913534,0.181336,0.029411,0.037873,0.042991,-37.138,-25.128,-49.367,1.19616,25.9184
6.15301,0.0437341,-1,1,-0.00222807,0.151027,0.988527,0.162911,0.0615776,0.984717,0.363624,0.914327,0.178283,0.02719,0.040904,0.042869,-37.113,-25.007,-49.307,1.51202,21.5298
6.20778,0.000833623,0.00138127,0.0031918,-0.00222807,0.151027,0.988527,0.163229,0.0612111,0.984688,0.361575,0.915365,0.177115,0.027938,0.036733,0.041566,-37.074,-24.798,-49.203,0.273623,21.8467
6.24138,0.000800278,0.00119811,0.00357573,-0.00222807,0.151027,0.988527,0.162911,0.0615776,0.984717,0.36655,0.912086,0.183683,0.028908,0.039208,0.041419,-37.051,-24.688,-49.149,0.275126,22.3663
6.29719,-0.00460362,-0.000768341,-0.00066016,-0.00222807,0.151027,0.988527,0.163229,0.0612111,0.984688,0.3626,0.914783,0.178028,0.030579,0.037403,0.044107,-37.008,-24.476,-49.045,0.271734,23.2396
6.32752,-0.00377996,-9.80981E-05,-0.000889557,-0.00222807,0.151027,0.988527,0.162911,0.0615776,0.984717,0.365577,0.912358,0.184271,0.028709,0.03959,0.04198,-36.986,-24.365,-48.989,0.267595,23.6218
6.38276,-0.00196604,0.000289531,0.00311099,-0.00222807,0.151027,0.988527,0.162911,0.0615776,0.984717,0.36448,0.913245,0.182036,0.029933,0.038602,0.044349,-36.944,-24.162,-48.889,0.253153,24.2268
6.40764,-0.0021432,0.000277949,0.00311445,-0.00222807,0.151027,0.988527,0.162911,0.0615776,0.984717,0.364056,0.912903,0.184586,0.028456,0.039293,0.046923,-36.923,-24.07,-48.843,0.248521,24.4652
6.47267,-0.00180167,-0.00139589,-0.00110299,-0.00222807,0.151027,0.988527,0.162911,0.0615776,0.984717,0.365265,0.913878,0.177222,0.033277,0.045084,0.044081,-36.876,-23.831,-48.718,0.234741,24.992
6.50344,-0.0013459,-0.00108426,-0.000803069,-0.00122127,0.150731,0.988574,0.163229,0.0612111,0.984688,0.359338,0.915152,0.182683,0.026708,0.034629,0.041347,-36.855,-23.721,-48.66,0.218922,25.2621
6.5601,-0.00103626,-0.00104089,-0.000898848,-0.00222807,0.151027,0.988527,0.162911,0.0615776,0.984717,0.365202,0.912494,0.184342,0.02675,0.040647,0.045538,-36.808,-23.518,-48.567,0.20762,25.5539
6.62204,0.0384002,1,1,-0.00222807,0.151027,0.988527,0.162911,0.0615776,0.984717,0.361916,0.913388,0.186383,0.028459,0.037775,0.040791,-36.764,-23.298,-48.461,1.22687,22.3948
6.64987,-0.470676,0.0316008,-0.0336737,-0.00122127,0.150731,0.988574,0.163229,0.0612111,0.984688,0.363487,0.912951,0.185467,0.027082,0.039136,0.044047,-36.74,-23.189,-48.409,0.483216,22.5545
6.70506,-0.00543289,0.00482129,-0.000632386,-0.00222807,0.151027,0.988527,0.162911,0.0615776,0.984717,0.361912,0.913508,0.185805,0.029341,0.039785,0.041764,-36.697,-22.989,-48.313,0.200088,23.4464
6.73046,-0.00444816,0.00475634,-0.000223384,-0.00222807,0.151027,0.988527,0.163229,0.0612111,0.984688,0.363831,0.913262,0.183246,0.027237,0.037577,0.044458,-36.673,-22.897,-48.268,0.20231,23.8029
6.78726,0.000206335,-0.00208482,0.00234359,-0.00222807,0.151027,0.988527,0.163229,0.0612111,0.984688,0.363072,0.913311,0.184505,0.027841,0.038314,0.042523,-36.629,-22.691,-48.167,0.204485,24.4706
6.81382,-0.000313526,-0.00212933,0.00199404,-0.00222807,0.151027,0.988527,0.162911,0.0615776,0.984717,0.362278,0.913252,0.186347,0.0292,0.037393,0.041853,-36.61,-22.602,-48.122,0.202743,24.7395
6.8688,-0.00377754,-0.000530552,0.00186081,-0.00222807,0.151027,0.988527,0.162911,0.0615776,0.984717,0.364267,0.912921,0.18408,0.027318,0.037134,0.045483,-36.571,-22.406,-48.027,0.20146,25.1518
6.89475,0.0445854,-0.426071,1,-0.00222807,0.151027,0.988527,0.162911,0.0615776,0.984717,0.363127,0.912671,0.187539,0.029645,0.037774,0.041519,-36.551,-22.316,-47.983,1.00321,22.3691
6.95153,-0.00337784,-0.0019961,-0.00773184,-0.00222807,0.151027,0.988527,0.162911,0.0615776,0.984717,0.359432,0.914797,0.184269,0.029993,0.038837,0.042458,-36.505,-22.108,-47.88,0.211307,22.8861
6.97898,-0.00362644,-0.00178835,-0.00729466,-0.00222807,0.151027,0.988527,0.162911,0.0615776,0.984717,0.36564,0.912768,0.182103,0.028552,0.037871,0.042543,-36.48,-22.008,-47.831,0.210577,23.3188
7.03918,-0.00373718,-0.00158891,-0.00649127,-0.00222807,0.151027,0.988527,0.163229,0.0612111,0.984688,0.365052,0.912477,0.184722,0.024418,0.039817,0.04625,-36.429,-21.782,-47.724,0.212377,24.0876
7.09509,-0.00128546,-0.00331599,0.00438425,-0.00222807,0.151027,0.988527,0.162911,0.0615776,0.984717,0.362007,0.913198,0.187139,0.027354,0.037183,0.043274,-36.383,-21.586,-47.63,0.197892,24.6268
7.12329,-0.00123404,-0.00331125,0.00433678,-0.00198187,0.150687,0.98858,0.162911,0.0615776,0.984717,0.358659,0.914974,0.184894,0.026831,0.038513,0.044084,-36.358,-21.486,-47.582,0.198321,24.8768
7.17813,-0.00105678,-0.0031788,0.00441911,-0.00122127,0.150731,0.988574,0.163229,0.0612111,0.984688,0.361922,0.913524,0.185703,0.024606,0.03762,0.045881,-36.311,-21.29,-47.49,0.195401,25.1791
7.23637,0.00218304,0.00193653,-0.00125744,-0.00222807,0.151027,0.988527,0.162911,0.0615776,0.984717,0.3594,0.913525,0.190535,0.02764,0.036845,0.039444,-36.263,-21.086,-47.397,0.188276,25.4615
7.26877,0.00196782,0.00211487,-0.00171875,-0.00222807,0.151027,0.988527,0.162911,0.0615776,0.984717,0.360959,0.91357,0.187346,0.026372,0.038126,0.041473,-36.232,-20.97,-47.346,0.18767,25.5449
7.32295,-0.000285228,0.00164657,0.00129175,-0.00222807,0.151027,0.988527,0.162911,0.0615776,0.984717,0.357855,0.914519,0.188663,0.027422,0.035829,0.039936,-36.184,-20.776,-47.255,0.179523,25.6516
7.35169,-0.000145918,0.00196442,0.000984274,-0.00222807,0.151027,0.988527,0.162911,0.0615776,0.984717,0.363047,0.912283,0.189572,0.02693,0.037651,0.044371,-36.156,-20.677,-47.208,0.180617,25.615
7.41562,-0.00103539,0.00188584,0.00554937,-0.00222807,0.151027,0.988527,0.162911,0.0615776,0.984717,0.36183,0.913817,0.184438,0.0268,0.036536,0.04428,-36.099,-20.447,-47.101,0.16894,25.4847
7.44408,-0.00163349,0.0015546,0.00571111,-0.00222807,0.151027,0.988527,0.162911,0.0615776,0.984717,0.358276,0.913925,0.190733,0.027111,0.03586,0.040196,-36.077,-20.35,-47.055,0.163133,25.4544
7.50134,-0.00207976,0.000597104,0.00445945,-0.00222807,0.151027,0.988527,0.162911,0.0615776,0.984717,0.360141,0.913591,0.188811,0.026353,0.038229,0.044584,-36.027,-20.146,-46.961,0.163195,25.3427
7.5284,-0.00174076,0.000701122,0.00440897,-0.00222807,0.151027,0.988527,0.163229,0.0612111,0.984688,0.359199,0.912755,0.194562,0.027276,0.036645,0.039018,-36,-20.049,-46.918,0.156089,25.2911
7.58305,-0.00256645,0.00335902,-0.0026741,-0.00222807,0.151027,0.988527,0.162911,0.0615776,0.984717,0.359052,0.914099,0.188426,0.026129,0.035638,0.04101,-35.949,-19.862,-46.836,0.155828,25.2497
7.61524,-0.00259169,0.00348046,-0.00269503,-0.00222807,0.151027,0.988527,0.162911,0.0615776,0.984717,0.357116,0.914128,0.191932,0.028157,0.036361,0.04079,-35.92,-19.748,-46.782,0.154139,25.2506
7.67315,-0.000825297,-0.00292595,0.00495898,-0.00222807,0.151027,0.988527,0.163229,0.0612111,0.984688,0.361138,0.913221,0.188696,0.020952,0.036148,0.043079,-35.864,-19.548,-46.695,0.143535,25.1163
7.70248,-0.000664383,-0.00280892,0.00488853,-0.00222807,0.151027,0.988527,0.162911,0.0615776,0.984717,0.358131,0.913941,0.190928,0.02752,0.033558,0.040434,-35.836,-19.445,-46.65,0.140775,25.0888
7.75981,-0.00191683,0.000245184,0.00354187,-0.00222807,0.151027,0.988527,0.162911,0.0615776,0.984717,0.358022,0.913493,0.193261,0.025907,0.038147,0.04295,-35.785,-19.253,-46.561,0.139914,25.0621
7.79111,-0.00171225,0.00049118,0.00288859,-0.00222807,0.151027,0.988527,0.163229,0.0612111,0.984688,0.357761,0.914164,0.190553,0.025538,0.03875,0.043439,-35.753,-19.129,-46.503,0.138297,25.0736
7.84923,0.0023212,0.000215728,0.000982414,-0.00122127,0.150731,0.988574,0.163229,0.0612111,0.984688,0.359913,0.911581,0.198703,0.022965,0.036702,0.04136,-35.702,-18.929,-46.413,0.130316,25.0288
7.87899,0.00235625,0.000207098,0.000815216,-0.00222807,0.151027,0.988527,0.163229,0.0612111,0.984688,0.359804,0.912735,0.193536,0.023695,0.036806,0.045028,-35.673,-18.832,-46.369,0.131089,25.0119
7.93332,0.00392473,-0.00274293,-0.000624315,-0.00222807,0.151027,0.988527,0.162911,0.0615776,0.984717,0.35868,0.912668,0.195923,0.025138,0.036406,0.042731,-35.618,-18.633,-46.28,0.128678,25.022
7.96064,0.00363984,-0.00327272,-0.000855146,-0.00222807,0.151027,0.988527,0.162911,0.0615776,0.984717,0.356672,0.914279,0.192038,0.027191,0.035941,0.042918,-35.593,-18.544,-46.239,0.128391,25.0451
8.01459,0.000936204,0.00248587,0.00634157,-0.00222807,0.151027,0.988527,0.163229,0.0612111,0.984688,0.355492,0.914677,0.192332,0.025548,0.035448,0.042561,-35.547,-18.363,-46.156,0.117288,25.0827
8.04375,0.000898755,0.00315385,0.00596001,-0.00222807,0.151027,0.988527,0.162911,0.0615776,0.984717,0.358602,0.912684,0.195991,0.026087,0.035196,0.040025,-35.518,-18.258,-46.108,0.114081,25.063
8.09809,-0.00514859,0.00149287,-0.00399895,-0.00222807,0.151027,0.988527,0.162911,0.0615776,0.984717,0.354496,0.914953,0.192859,0.023425,0.035264,0.044577,-35.469,-18.071,-46.022,0.122988,25.1423
8.13012,-0.00481474,0.00181686,-0.00422269,-0.00122127,0.150731,0.988574,0.163229,0.0612111,0.984688,0.35543,0.913831,0.196427,0.023266,0.035007,0.038114,-35.43,-17.963,-45.982,0.116985,25.1828
8.18495,-0.00513376,0.0022558,0.0013181,-0.00222807,0.151027,0.988527,0.162911,0.0615776,0.984717,0.358455,0.913416,0.192825,0.022358,0.03486,0.043997,-35.381,-17.775,-45.898,0.11337,25.1153
8.21265,-0.00467261,0.00178186,0.00100957,-0.00222807,0.151027,0.988527,0.162911,0.0615776,0.984717,0.356016,0.913161,0.198469,0.023447,0.035395,0.036999,-35.35,-17.682,-45.858,0.109133,25.1037
8.26904,-0.0044857,0.00171058,0.000201775,-0.00222807,0.151027,0.988527,0.163229,0.0612111,0.984688,0.353797,0.913712,0.199897,0.026331,0.035891,0.041346,-35.296,-17.493,-45.773,0.111837,25.1158
8.29644,-0.00366676,0.00164216,-0.000573708,-0.00222807,0.151027,0.988527,0.163229,0.0612111,0.984688,0.357858,0.912588,0.19779,0.026097,0.035685,0.040649,-35.269,-17.399,-45.731,0.110023,25.0764
8.35151,0.000700672,0.00272759,-0.000422858,-0.00222807,0.151027,0.988527,0.163229,0.0612111,0.984688,0.353023,0.913994,0.199975,0.024687,0.035801,0.038659,-35.219,-17.216,-45.649,0.103732,25.0971
8.38054,0.000928449,0.00261849,-2.22372E-05,-0.00222807,0.151027,0.988527,0.162911,0.0615776,0.984717,0.355401,0.912062,0.204532,0.025441,0.035621,0.042568,-35.188,-17.112,-45.602,0.105149,25.0784
8.43643,-0.00205043,-0.000172194,-0.00488162,-0.00222807,0.151027,0.988527,0.162911,0.0615776,0.984717,0.353301,0.914029,0.199322,0.02596,0.035497,0.040702,-35.138,-16.915,-45.525,0.108391,25.1158
8.46243,-0.00158471,-0.000165306,-0.00468636,-0.00123098,0.15075,0.988571,0.163229,0.0612111,0.984688,0.354791,0.913167,0.200623,0.022824,0.0367,0.042863,-35.107,-16.818,-45.484,0.108021,25.1203
8.52288,0.00129252,0.00265515,0.0024078,-0.00222807,0.151027,0.988527,0.162911,0.0615776,0.984717,0.351096,0.914795,0.199705,0.028523,0.037267,0.038344,-35.052,-16.608,-45.389,0.098702,25.1876
8.55201,0.00111292,0.00280475,0.00179988,-0.00198187,0.150687,0.98858,0.162911,0.0615776,0.984717,0.355248,0.912836,0.201317,0.023138,0.03928,0.041773,-35.022,-16.509,-45.346,0.0992428,25.183
8.60624,-0.00212915,0.00128564,0.00530914,-0.00222807,0.151027,0.988527,0.162911,0.0615776,0.984717,0.354813,0.912127,0.205262,0.027492,0.037899,0.0387,-34.971,-16.311,-45.255,0.0970146,25.1541
8.63663,-0.00191608,0.000978406,0.00535258,-0.00222807,0.151027,0.988527,0.162911,0.0615776,0.984717,0.357079,0.911877,0.202423,0.02623,0.03855,0.044883,-34.944,-16.206,-45.208,0.0994301,25.1237
8.69044,-0.00107202,0.00157878,0.00258044,-0.00222807,0.151027,0.988527,0.163229,0.0612111,0.984688,0.353577,0.912572,0.205418,0.029143,0.038231,0.040826,-34.893,-16.011,-45.116,0.0977138,25.1825
8.71995,-0.00013383,0.00189933,0.00170981,-0.00222807,0.151027,0.988527,0.163229,0.0612111,0.984688,0.354879,0.912635,0.202876,0.026038,0.037131,0.044053,-34.863,-15.902,-45.064,0.0965785,25.222
8.77627,-0.0081863,0.00297448,0.00176932,-0.00122127,0.150731,0.988574,0.162911,0.0615776,0.984717,0.354844,0.91383,0.197488,0.029502,0.037194,0.040222,-34.803,-15.689,-44.961,0.0969036,25.3184
8.80529,-0.00811465,0.00323921,0.00157064,-0.00222807,0.151027,0.988527,0.162911,0.0615776,0.984717,0.35506,0.912457,0.203359,0.025191,0.03723,0.043407,-34.777,-15.6,-44.919,0.0957457,25.3581
8.86412,-0.00280189,0.00374915,0.00381005,-0.00222807,0.151027,0.988527,0.162911,0.0615776,0.984717,0.35355,0.913355,0.201955,0.028485,0.038271,0.039327,-34.718,-15.396,-44.82,0.0896281,25.4901
8.88858,-0.00294562,0.00321548,0.00276234,-0.00222807,0.151027,0.988527,0.163229,0.0612111,0.984688,0.354299,0.91212,0.20618,0.022517,0.038359,0.043436,-34.693,-15.306,-44.78,0.0901764,25.5382
8.9451,-0.00819968,0.00385427,0.000605413,-0.00222807,0.151027,0.988527,0.163229,0.0612111,0.984688,0.354189,0.911867,0.20748,0.027809,0.038364,0.043865,-34.64,-15.103,-44.685,0.0951254,25.641
8.97556,-0.00799959,0.00344429,0.000709098,-0.00222807,0.151027,0.988527,0.163229,0.0612111,0.984688,0.355593,0.911884,0.204992,0.026129,0.038994,0.044637,-34.603,-14.985,-44.63,0.094404,25.6763
9.02976,-0.00435416,-0.000786342,0.000169126,-0.00222807,0.151027,0.988527,0.163229,0.0612111,0.984688,0.354608,0.912901,0.202151,0.026262,0.039189,0.045795,-34.555,-14.802,-44.542,0.0951065,25.7279
9.05423,-0.00430789,-0.00088279,-0.000221344,-0.00222807,0.151027,0.988527,0.162911,0.0615776,0.984717,0.352919,0.913064,0.204359,0.031485,0.037833,0.041026,-34.529,-14.712,-44.497,0.0933199,25.7613
9.11126,0.0500505,-1,-1,-0.00122127,0.150731,0.988574,0.162911,0.0615776,0.984717,0.352109,0.913621,0.203266,0.028973,0.039045,0.044591,-34.474,-14.506,-44.398,1.49143,29.1882
9.13859,-0.488071,0.0374878,-0.0361938,-0.00222807,0.151027,0.988527,0.162911,0.0615776,0.984717,0.352519,0.912949,0.205559,0.029386,0.037632,0.039924,-34.444,-14.406,-44.349,0.541283,28.9031
9.1935,-0.00444112,0.00218153,0.000844506,-0.00222807,0.151027,0.988527,0.163229,0.0612111,0.984688,0.352651,0.913664,0.202128,0.028171,0.040515,0.045357,-34.383,-14.189,-44.244,0.0776218,28.1336
9.22962,-0.00387977,0.00235007,0.000171215,-0.00222807,0.151027,0.988527,0.162911,0.0615776,0.984717,0.351832,0.913212,0.205567,0.030067,0.039039,0.041892,-34.352,-14.081,-44.191,0.0726403,27.6952
9.28538,-0.000527032,-0.00132519,0.00297821,-0.00222807,0.151027,0.988527,0.162911,0.0615776,0.984717,0.353203,0.912382,0.206898,0.027658,0.039001,0.045226,-34.293,-13.873,-44.093,0.0665064,26.9927
9.31271,-0.000889657,-0.00101638,0.0037544,-0.00198187,0.150687,0.98858,0.163229,0.0612111,0.984688,0.350622,0.914013,0.204069,0.030461,0.038153,0.041334,-34.267,-13.776,-44.045,0.0647979,26.6988
9.3698,-0.00187729,0.00247763,-0.00138396,-0.00122127,0.150731,0.988574,0.162911,0.0615776,0.984717,0.352684,0.913628,0.202234,0.028458,0.038875,0.044216,-34.216,-13.577,-43.951,0.0602598,26.1279
9.39682,-0.00141849,0.00212272,-0.00184021,-0.00222807,0.151027,0.988527,0.162911,0.0615776,0.984717,0.348389,0.913792,0.208829,0.030145,0.039161,0.040693,-34.189,-13.478,-43.904,0.0594529,25.9173
9.45938,-0.00174546,0.00472376,-0.00125499,-0.00222807,0.151027,0.988527,0.162911,0.0615776,0.984717,0.352785,0.912169,0.208543,0.025876,0.038572,0.045331,-34.122,-13.25,-43.797,0.0531972,25.3697
9.49052,-0.00167564,0.00504641,-0.00210011,-0.00222807,0.151027,0.988527,0.162911,0.0615776,0.984717,0.34955,0.913522,0.20807,0.025675,0.038449,0.045239,-34.089,-13.133,-43.743,0.0516591,25.1633
9.54609,-0.000201691,0.00190281,-0.00060918,-0.00222807,0.151027,0.988527,0.162911,0.0615776,0.984717,0.352941,0.911892,0.209491,0.024694,0.040101,0.044215,-34.031,-12.935,-43.651,0.0493823,24.7614
9.57227,-0.000449426,0.00144299,-0.00122432,-0.00122127,0.150731,0.988574,0.163229,0.0612111,0.984688,0.35203,0.912601,0.207929,0.025757,0.039826,0.041576,-33.995,-12.815,-43.597,0.0488748,24.5801
9.62852,-0.000559352,0.00445492,0.00125479,-0.00222807,0.151027,0.988527,0.162911,0.0615776,0.984717,0.351539,0.912018,0.211291,0.026027,0.039446,0.045715,-33.942,-12.637,-43.514,0.0462831,24.3103
9.66209,-0.00066488,0.00363722,0.00235571,-0.00222807,0.151027,0.988527,0.162911,0.0615776,0.984717,0.351589,0.913088,0.206534,0.026339,0.039304,0.045126,-33.912,-12.521,-43.459,0.0448141,24.1716
9.72624,-0.0014057,0.001829,0.00200568,-0.00222807,0.151027,0.988527,0.163229,0.0612111,0.984688,0.349734,0.913888,0.206141,0.029564,0.038594,0.042702,-33.841,-12.287,-43.35,0.044929,24.0123
9.7536,-0.00134947,0.00188374,0.00192545,-0.00222807,0.151027,0.988527,0.162911,0.0615776,0.984717,0.350677,0.912231,0.211801,0.029445,0.039693,0.04119,-33.815,-12.189,-43.305,0.0444302,23.9559
9.8103,0.00330898,0.000401472,0.00453438,-0.00222807,0.151027,0.988527,0.163229,0.0612111,0.984688,0.348488,0.913223,0.211137,0.027418,0.038825,0.043238,-33.758,-11.982,-43.207,0.0389927,23.9119
9.83697,0.00304872,1.70711E-06,0.00460881,-0.00222807,0.151027,0.988527,0.163229,0.0612111,0.984688,0.349824,0.912407,0.212452,0.026552,0.038486,0.042172,-33.731,-11.891,-43.166,0.0380529,23.8953
9.89511,0.00198287,0.00146725,0.51222,-0.00222807,0.151027,0.988527,0.162911,0.0615776,0.984717,0.348531,0.913536,0.209713,0.028112,0.038448,0.041464,-33.665,-11.675,-43.062,0.483774,21.2225
9.92287,-1,1,0.0111371,-0.00122127,0.150731,0.988574,0.163229,0.0612111,0.984688,0.348979,0.912911,0.211679,0.022099,0.038887,0.04203,-33.639,-11.577,-43.02,1.41047,21.987
9.97893,0.00118348,0.000801095,-0.00112014,-0.00222807,0.151027,0.988527,0.163229,0.0612111,0.984688,0.348671,0.912812,0.212612,0.026642,0.037271,0.039619,-33.582,-11.382,-42.932,0.0524879,22.6516
10.0089,0.00113614,0.000513247,-0.000691624,-0.00222807,0.151027,0.988527,0.162911,0.0615776,0.984717,0.347187,0.912746,0.215305,0.02433,0.037231,0.041162,-33.549,-11.275,-42.886,0.0623111,22.9374
