test for writing sensor data,,,,,,,,,,,,,,,,,,,,
Time, omega_x, omega_y, omega_z,cam1_x, cam1_y, cam1_z, cam2_x, cam2_y, cam2_z,g_x, g_y, g_z,true_omega_x, true_omega_y, true_omega_z,true_attitude_x, true_attitude_y, true_attitude_z,bias_err, attitude_err
0.000000192,0.999158,-1.00084,-1.00084,0.00484392,0.0861875,0.996267,0.171523,0.00312204,0.985175,0.532213,0.84366,0.0706206,-0.000842,0.00015,0.000666,-48.506,-32.032,85.158,1.73349,37.8278
0.0574399,0.999878,-1.00012,-1.00012,0.00484392,0.0861875,0.996267,0.171523,0.00312204,0.985175,0.530397,0.844653,0.0723872,-0.000122,-0.001603,0.001229,-48.505,-32.033,85.158,1.31777,28.491
0.119341,0.999502,-1.0005,-1.0005,0.00479354,0.0866045,0.996231,0.17154,0.00276688,0.985173,0.529459,0.845313,0.071543,-0.000498,0.001774,0.000452,-48.505,-32.033,85.156,1.04865,21.0612
0.154687,1.00102,-0.998976,-0.998976,0.00479354,0.0866045,0.996231,0.17154,0.00276688,0.985173,0.528187,0.846243,0.0699416,0.001024,-0.000808,0.00063,-48.509,-32.032,85.156,0.95557,17.8872
0.209846,1.00065,-0.999355,-0.999355,0.00484392,0.0861875,0.996267,0.171523,0.00312204,0.985175,0.52784,0.846138,0.0737281,0.000645,-0.001175,0.000285,-48.511,-32.032,85.157,0.874526,14.3235
0.226243,0.999686,-1.00031,-1.00031,0.00479354,0.0866045,0.996231,0.171523,0.00312204,0.985175,0.528674,0.845838,0.07115,-0.000314,0.000143,-0.000466,-48.51,-32.031,85.156,0.859772,13.56
0.28014,0.999729,-1.00027,-1.00027,0.00479354,0.0866045,0.996231,0.17154,0.00276688,0.985173,0.530603,0.844811,0.06896,-0.000271,-0.001959,-0.000166,-48.51,-32.03,85.156,0.82266,11.8447
0.304598,1.00019,-0.999814,-0.999814,0.00479354,0.0866045,0.996231,0.171523,0.00312204,0.985175,0.53001,0.844476,0.0771333,0.000186,0.00085,-0.00038,-48.509,-32.031,85.156,0.808181,11.4255
0.361906,0.999852,-1.00015,-1.00015,0.00475721,0.0863009,0.996258,0.17154,0.00276688,0.985173,0.529854,0.844985,0.0724945,-0.000148,-0.000107,-0.000061,-48.509,-32.031,85.155,0.775619,11.0574
0.386552,0.999523,-1.00048,-1.00048,0.00475721,0.0863009,0.996258,0.17154,0.00276688,0.985173,0.531056,0.84429,0.0717892,-0.000477,-0.001832,0.000265,-48.51,-32.031,85.154,0.760423,11.0668
0.441151,0.999005,-1.001,-1.001,0.00479354,0.0866045,0.996231,0.17154,0.00276688,0.985173,0.531132,0.844266,0.0715064,-0.000995,-0.000114,-0.001243,-48.507,-32.031,85.151,0.720449,11.2827
0.47578,0.999348,-1.00065,-1.00065,0.00479354,0.0866045,0.996231,0.171523,0.00312204,0.985175,0.52939,0.845308,0.0721106,-0.000652,0.000356,-0.00063,-48.505,-32.031,85.15,0.694208,11.5073
0.530187,0.998135,-1.00187,-1.00187,0.00484392,0.0861875,0.996267,0.171523,0.00312204,0.985175,0.528726,0.84586,0.0704968,-0.001865,0.001624,-0.000786,-48.509,-32.031,85.15,0.651952,11.8748
0.559218,1.00029,-0.999712,-0.999712,0.00479354,0.0866045,0.996231,0.17154,0.00276688,0.985173,0.530739,0.844348,0.0734305,0.000288,0.00068,-0.000027,-48.509,-32.031,85.152,0.626753,12.0158
0.617749,0.998289,-1.00171,-1.00171,0.00484392,0.0861875,0.996267,0.171523,0.00312204,0.985175,0.527278,0.846547,0.0730486,-0.001711,0.00101,-0.00047,-48.504,-32.031,85.15,0.58296,12.3027
0.647704,0.999174,-1.00083,-1.00083,0.00484392,0.0861875,0.996267,0.171523,0.00312204,0.985175,0.530332,0.844717,0.0721187,-0.000826,0.001464,-0.001255,-48.504,-32.031,85.151,0.558396,12.3524
0.702495,1.00093,-0.999066,-0.999066,0.00479354,0.0866045,0.996231,0.17154,0.00276688,0.985173,0.529092,0.845464,0.0724742,0.000934,0.00111,0.000678,-48.503,-32.031,85.152,0.519336,12.3635
0.729295,1.00097,-0.999033,-0.999033,0.00479354,0.0866045,0.996231,0.171523,0.00312204,0.985175,0.531298,0.844228,0.0707175,0.000967,0.001347,-0.001051,-48.503,-32.032,85.153,0.499579,12.2949
0.786208,0.99905,-1.00095,-1.00095,0.00479354,0.0866045,0.996231,0.17154,0.00276688,0.985173,0.528452,0.845911,0.0719315,-0.00095,0.000634,-0.000781,-48.504,-32.03,85.15,0.467609,12.1386
0.817389,0.998069,-1.00193,-1.00193,0.00484392,0.0861875,0.996267,0.17154,0.00276688,0.985173,0.531975,0.843692,0.0720212,-0.001931,-0.000023,-0.00023,-48.504,-32.03,85.149,0.451038,11.9559
0.880579,0.999932,-1.00007,-1.00007,0.00479354,0.0866045,0.996231,0.17154,0.00276688,0.985173,0.528818,0.846027,0.0677395,-0.000068,-0.002536,0.000406,-48.503,-32.031,85.146,0.416122,11.5605
0.911577,1.0002,-0.999802,-0.999802,0.00479354,0.0866045,0.996231,0.171523,0.00312204,0.985175,0.529806,0.845222,0.0700359,0.000198,-0.001748,0.000451,-48.503,-32.032,85.147,0.401051,11.3156
0.966263,1.00103,-0.99897,-0.99897,0.00479354,0.0866045,0.996231,0.17154,0.00276688,0.985173,0.530732,0.844407,0.0727955,0.00103,-0.000823,-0.000181,-48.504,-32.03,85.147,0.373601,10.808
0.994208,0.998118,-1.00188,-1.00188,0.00479354,0.0866045,0.996231,0.171523,0.00312204,0.985175,0.528129,0.846211,0.0707643,-0.001882,-0.000516,-0.001272,-48.503,-32.029,85.145,0.364561,10.5648
1.04856,1.0012,-0.998799,-0.998799,0.00451635,0.0866494,0.996229,0.17154,0.00276688,0.985173,0.530268,0.844895,0.0704845,0.001201,-0.001545,-0.000423,-48.503,-32.03,85.145,0.336615,9.99703
1.08075,0.999654,-1.00035,-1.00035,0.00480718,0.0858729,0.996294,0.17154,0.00276688,0.985173,0.52911,0.845391,0.0731922,-0.000346,0.000867,-0.000249,-48.504,-32.029,85.145,0.326427,9.66716
1.13829,1.00059,-0.99941,-0.99941,0.00484392,0.0861875,0.996267,0.171523,0.00312204,0.985175,0.530374,0.844779,0.0710705,0.00059,-0.001594,0.000828,-48.51,-32.029,85.146,0.300086,9.0262
1.1698,0.999994,-1.00001,-1.00001,0.00479354,0.0866045,0.996231,0.171523,0.00312204,0.985175,0.529333,0.845484,0.0704485,-0.000006,-0.002718,0.001077,-48.508,-32.029,85.144,0.287618,8.69009
1.22509,0.99955,-1.00045,-1.00045,0.00484392,0.0861875,0.996267,0.171523,0.00312204,0.985175,0.529755,0.845339,0.0690052,-0.00045,-0.000062,0.000999,-48.503,-32.029,85.142,0.26892,8.10289
1.28456,0.998662,-1.00134,-1.00134,0.00484392,0.0861875,0.996267,0.171523,0.00312204,0.985175,0.530467,0.844352,0.0753284,-0.001338,0.000297,0.000228,-48.502,-32.029,85.143,0.246693,7.48928
1.31223,0.999378,-1.00062,-1.00062,0.00484392,0.0861875,0.996267,0.17154,0.00276688,0.985173,0.528529,0.845708,0.0737221,-0.000622,-0.000419,-0.001326,-48.503,-32.028,85.142,0.234438,7.23612
1.37005,0.999386,-1.00061,-1.00061,0.00479354,0.0866045,0.996231,0.171523,0.00312204,0.985175,0.52863,0.845848,0.0713563,-0.000614,-0.002138,0.000344,-48.506,-32.029,85.141,0.215058,6.73379
1.42904,0.998434,-1.00157,-1.00157,0.00484392,0.0861875,0.996267,0.17154,0.00276688,0.985173,0.531532,0.844258,0.0685749,-0.001566,0.000558,-0.000436,-48.51,-32.029,85.14,0.201336,6.21472
1.49723,0.999742,-1.00026,-1.00026,0.00479354,0.0866045,0.996231,0.17154,0.00276688,0.985173,0.531034,0.844302,0.0718056,-0.000258,-0.001606,0.001347,-48.512,-32.029,85.141,0.180318,5.70711
1.52431,0.999949,-1.00005,-1.00005,0.00479354,0.0866045,0.996231,0.17154,0.00276688,0.985173,0.529821,0.844878,0.0739689,-0.000051,0.000382,0.000664,-48.509,-32.028,85.14,0.175103,5.54672
1.5788,1.00014,-0.999856,-0.999856,0.00479354,0.0866045,0.996231,0.17154,0.00276688,0.985173,0.530318,0.844449,0.0752933,0.000144,-0.000918,0.001168,-48.507,-32.028,85.138,0.161721,5.2546
1.61007,0.998366,-1.00163,-1.00163,0.00479354,0.0866045,0.996231,0.171523,0.00312204,0.985175,0.528802,0.845777,0.0709157,-0.001634,-0.000083,-0.000721,-48.506,-32.028,85.137,0.158388,5.12737
1.66578,1.00103,-0.99897,-0.99897,0.00484392,0.0861875,0.996267,0.17154,0.00276688,0.985173,0.532037,0.843678,0.0717284,0.00103,-0.00203,0.001423,-48.508,-32.028,85.137,0.144591,4.87893
1.69691,1.0002,-0.999801,-0.999801,0.00479354,0.0866045,0.996231,0.171523,0.00312204,0.985175,0.530436,0.844474,0.0741733,0.000199,0.000892,0.000053,-48.509,-32.029,85.137,0.143131,4.77575
1.75301,0.999701,-1.0003,-1.0003,0.00479354,0.0866045,0.996231,0.171523,0.00312204,0.985175,0.52909,0.845441,0.0727525,-0.000299,-0.002179,0.000303,-48.508,-32.028,85.135,0.133119,4.64508
1.78356,0.999252,-1.00075,-1.00075,0.00479354,0.0866045,0.996231,0.17154,0.00276688,0.985173,0.528689,0.845699,0.0726693,-0.000748,-0.001024,0.000444,-48.508,-32.027,85.135,0.130795,4.59131
1.84078,1.00011,-0.999893,-0.999893,0.00479354,0.0866045,0.996231,0.17154,0.00276688,0.985173,0.530055,0.84498,0.0710626,0.000107,-0.001094,0.001624,-48.505,-32.028,85.133,0.123336,4.48768
1.87149,0.999966,-1.00003,-1.00003,0.00484392,0.0861875,0.996267,0.17154,0.00276688,0.985173,0.529166,0.84526,0.0742851,-0.000034,0.000665,0.00088,-48.504,-32.028,85.132,0.121403,4.44648
1.92915,0.998291,-1.00171,-1.00171,0.00479354,0.0866045,0.996231,0.171523,0.00312204,0.985175,0.53064,0.844639,0.0707519,-0.001709,0.000549,-0.000633,-48.499,-32.027,85.13,0.11664,4.37491
1.96198,1.00066,-0.999339,-0.999339,0.00479354,0.0866045,0.996231,0.17154,0.00276688,0.985173,0.532244,0.843546,0.0717367,0.000661,-0.000043,0.001018,-48.5,-32.027,85.129,0.110694,4.32142
2.01649,0.999623,-1.00038,-1.00038,0.00484392,0.0861875,0.996267,0.17154,0.00276688,0.985173,0.529357,0.845113,0.0746018,-0.000377,0.00112,0.00009,-48.501,-32.028,85.125,0.107118,4.2677
2.04691,0.99783,-1.00217,-1.00217,0.00479354,0.0866045,0.996231,0.171523,0.00312204,0.985175,0.533036,0.843065,0.0715136,-0.00217,-0.000895,-0.000053,-48.502,-32.027,85.124,0.104356,4.22942
2.10257,0.99862,-1.00138,-1.00138,0.00479354,0.0866045,0.996231,0.171523,0.00312204,0.985175,0.531481,0.843695,0.0755456,-0.00138,0.001426,-0.000489,-48.498,-32.027,85.124,0.100139,4.17693
2.1293,0.999857,-1.00014,-1.00014,0.00479354,0.0866045,0.996231,0.171523,0.00312204,0.985175,0.532446,0.843456,0.0712924,-0.000143,-0.001101,0.001094,-48.498,-32.028,85.123,0.094814,4.14339
2.1856,0.998262,-1.00174,-1.00174,0.00479354,0.0866045,0.996231,0.17154,0.00276688,0.985173,0.532407,0.843344,0.072903,-0.001738,0.00163,-0.001434,-48.492,-32.026,85.121,0.0928412,4.09302
2.21295,1.00038,-0.999621,-0.999621,0.00479354,0.0866045,0.996231,0.171523,0.00312204,0.985175,0.530542,0.844649,0.0713601,0.000379,-0.002904,0.000407,-48.493,-32.026,85.12,0.0852869,4.06554
2.26731,0.999683,-1.00032,-1.00032,0.00484392,0.0861875,0.996267,0.171523,0.00312204,0.985175,0.530805,0.844514,0.0709995,-0.000317,-0.001615,-0.00037,-48.493,-32.026,85.121,0.0819018,4.01793
2.29623,1.00039,-0.999614,-0.999614,0.00479354,0.0866045,0.996231,0.17154,0.00276688,0.985173,0.53022,0.844617,0.0740839,0.000386,-0.001621,0.000762,-48.496,-32.025,85.12,0.0791238,3.99085
2.35102,1.00052,-0.999484,-0.999484,0.00479354,0.0866045,0.996231,0.171523,0.00312204,0.985175,0.531318,0.844182,0.0711149,0.000516,-0.002864,0.002147,-48.499,-32.025,85.119,0.0740248,3.93296
2.3792,1.00021,-0.999791,-0.999791,0.00479354,0.0866045,0.996231,0.171523,0.00312204,0.985175,0.527557,0.846483,0.0717584,0.000209,-0.003179,0.00011,-48.5,-32.025,85.117,0.0713224,3.91753
2.43496,0.999849,-1.00015,-1.00015,0.00479354,0.0866045,0.996231,0.171523,0.00312204,0.985175,0.531129,0.844152,0.072872,-0.000151,-0.002309,-0.000127,-48.498,-32.025,85.119,0.0681213,3.87398
2.46441,0.998886,-1.00111,-1.00111,0.00484392,0.0861875,0.996267,0.171523,0.00312204,0.985175,0.529139,0.84562,0.0702723,-0.001114,0.000995,-0.000739,-48.497,-32.025,85.117,0.0691353,3.85888
2.52375,1.0004,-0.999602,-0.999602,0.00479354,0.0866045,0.996231,0.17154,0.00276688,0.985173,0.529225,0.845451,0.0716467,0.000398,-0.002274,0.000038,-48.498,-32.025,85.119,0.0616107,3.82512
2.54995,0.999865,-1.00013,-1.00013,0.00479354,0.0866045,0.996231,0.17154,0.00276688,0.985173,0.530402,0.844389,0.0753772,-0.000135,0.003982,-0.000899,-48.495,-32.024,85.117,0.0645666,3.81019
2.60419,0.999734,-1.00027,-1.00027,0.00484392,0.0861875,0.996267,0.17154,0.00276688,0.985173,0.52979,0.845048,0.0722255,-0.000266,-0.001659,-0.0013,-48.494,-32.023,85.116,0.0573591,3.78065
2.6328,0.997456,-1.00254,-1.00254,0.00479354,0.0866045,0.996231,0.17154,0.00276688,0.985173,0.530168,0.84491,0.0710576,-0.002544,0.001077,-0.000599,-48.497,-32.023,85.116,0.0603755,3.76549
2.69005,1.00157,-0.998432,-0.998432,0.00479354,0.0866045,0.996231,0.17154,0.00276688,0.985173,0.527446,0.846673,0.0703261,0.001568,-0.000835,-0.000693,-48.499,-32.023,85.116,0.0513391,3.74744
2.72141,0.999715,-1.00029,-1.00029,0.00479354,0.0866045,0.996231,0.171523,0.00312204,0.985175,0.528029,0.846011,0.0738281,-0.000285,0.000058,-0.000365,-48.502,-32.023,85.116,0.05272,3.73993
2.77651,0.999794,-1.00021,-1.00021,0.00479354,0.0866045,0.996231,0.171523,0.00312204,0.985175,0.530577,0.844921,0.0677897,-0.000206,-0.001967,0.00036,-48.503,-32.021,85.117,0.0485837,3.70092
2.8038,0.998948,-1.00105,-1.00105,0.00479354,0.0866045,0.996231,0.171523,0.00312204,0.985175,0.527744,0.846227,0.0733941,-0.001052,0.001638,-0.000994,-48.502,-32.021,85.116,0.0500844,3.70019
2.86182,1.00022,-0.999776,-0.999776,0.00479354,0.0866045,0.996231,0.17154,0.00276688,0.985173,0.529194,0.845648,0.0695179,0.000224,-0.001337,0.000183,-48.502,-32.02,85.117,0.0444849,3.67625
2.88955,0.999124,-1.00088,-1.00088,0.00479354,0.0866045,0.996231,0.171523,0.00312204,0.985175,0.53046,0.844429,0.0745114,-0.000876,0.001892,-0.00032,-48.502,-32.02,85.117,0.0463618,3.65977
2.94429,0.997961,-1.00204,-1.00204,0.00484392,0.0861875,0.996267,0.171523,0.00312204,0.985175,0.52997,0.844882,0.0728452,-0.002039,0.001223,0.000156,-48.503,-32.021,85.114,0.0450997,3.63261
2.97476,0.999506,-1.00049,-1.00049,0.00479354,0.0866045,0.996231,0.17154,0.00276688,0.985173,0.531952,0.843416,0.0753361,-0.000494,0.001131,-0.001621,-48.506,-32.021,85.114,0.0407218,3.60071
3.02885,1.00046,-0.999537,-0.999537,0.00479354,0.0866045,0.996231,0.17154,0.00276688,0.985173,0.530414,0.844695,0.0717715,0.000463,0.000958,0,-48.505,-32.021,85.112,0.0379403,3.55809
3.0571,0.998868,-1.00113,-1.00113,0.00479354,0.0866045,0.996231,0.171523,0.00312204,0.985175,0.530007,0.844813,0.0733729,-0.001132,0.001018,-0.000652,-48.505,-32.021,85.111,0.0384096,3.54342
3.11173,0.999096,-1.0009,-1.0009,0.00484392,0.0861875,0.996267,0.171523,0.00312204,0.985175,0.530788,0.844231,0.0744248,-0.000904,0.001026,0.000031,-48.498,-32.02,85.109,0.0363251,3.51352
3.14352,0.999197,-1.0008,-1.0008,0.00479354,0.0866045,0.996231,0.171523,0.00312204,0.985175,0.530638,0.844444,0.0730611,-0.000803,0.000227,0.000245,-48.499,-32.02,85.108,0.0345515,3.49148
3.20083,1.00006,-0.999938,-0.999938,0.00479354,0.0866045,0.996231,0.171523,0.00312204,0.985175,0.529581,0.845186,0.0721413,0.000062,0.000541,-0.001009,-48.498,-32.019,85.107,0.0310787,3.46482
3.22743,0.998464,-1.00154,-1.00154,0.00479354,0.0866045,0.996231,0.171523,0.00312204,0.985175,0.529288,0.845469,0.0709671,-0.001536,0.000469,-0.001064,-48.499,-32.019,85.106,0.0320183,3.45621
3.28202,0.999344,-1.00066,-1.00066,0.00479354,0.0866045,0.996231,0.17154,0.00276688,0.985173,0.532489,0.843227,0.0736443,-0.000656,0.001188,0.000952,-48.501,-32.019,85.105,0.0304192,3.4023
3.31172,1.00033,-0.999674,-0.999674,0.00479354,0.0866045,0.996231,0.171523,0.00312204,0.985175,0.528409,0.846026,0.0708767,0.000326,-0.000737,-0.000382,-48.502,-32.018,85.104,0.0264249,3.39513
3.3684,0.999547,-1.00045,-1.00045,0.00479354,0.0866045,0.996231,0.17154,0.00276688,0.985173,0.531359,0.843767,0.0756023,-0.000453,0.002631,-0.001202,-48.499,-32.017,85.104,0.027662,3.36289
3.39526,1.00016,-0.999841,-0.999841,0.00479354,0.0866045,0.996231,0.17154,0.00276688,0.985173,0.530364,0.84429,0.0767443,0.000159,-0.003835,-0.000242,-48.499,-32.017,85.104,0.0224666,3.3502
3.45307,0.997666,-1.00233,-1.00233,0.00479354,0.0866045,0.996231,0.171523,0.00312204,0.985175,0.527795,0.845882,0.0769169,-0.002334,0.002974,-0.000967,-48.492,-32.016,85.1,0.0282325,3.3692
3.4866,0.998963,-1.00104,-1.00104,0.00479354,0.0866045,0.996231,0.17154,0.00276688,0.985173,0.529342,0.84539,0.0715078,-0.001037,0.002624,-0.000207,-48.489,-32.016,85.099,0.0259502,3.3632
3.55017,0.999976,-1.00002,-1.00002,0.00484392,0.0861875,0.996267,0.17154,0.00276688,0.985173,0.530126,0.844868,0.0718624,-0.000024,-0.001059,0.001184,-48.486,-32.015,85.1,0.0213093,3.33577
3.57952,1.00109,-0.99891,-0.99891,0.00479354,0.0866045,0.996231,0.171523,0.00312204,0.985175,0.53191,0.84361,0.0734373,0.00109,-0.000593,-0.000394,-48.483,-32.015,85.098,0.0186553,3.31004
3.63412,1.00008,-0.999923,-0.999923,0.00479354,0.0866045,0.996231,0.171523,0.00312204,0.985175,0.532578,0.84352,0.0695287,0.000077,-0.003585,0.000334,-48.484,-32.015,85.098,0.0164483,3.25559
3.66394,0.999581,-1.00042,-1.00042,0.00479354,0.0866045,0.996231,0.17154,0.00276688,0.985173,0.529947,0.845039,0.0711762,-0.000419,0.00023,-0.00141,-48.485,-32.014,85.096,0.0185409,3.24598
3.71831,1.00174,-0.998262,-0.998262,0.00484392,0.0861875,0.996267,0.171523,0.00312204,0.985175,0.530688,0.844606,0.0707924,0.001738,-0.001986,0.001837,-48.487,-32.013,85.093,0.0145944,3.21569
3.74527,0.998445,-1.00155,-1.00155,0.00479354,0.0866045,0.996231,0.17154,0.00276688,0.985173,0.531486,0.844143,0.0703197,-0.001555,0.001969,0.000038,-48.487,-32.012,85.093,0.0206019,3.20545
3.8114,0.999046,-1.00095,-1.00095,0.00479354,0.0866045,0.996231,0.171523,0.00312204,0.985175,0.530485,0.844249,0.0763514,-0.000954,0.0024,0.000438,-48.484,-32.013,85.091,0.0188717,3.19452
3.84146,0.999566,-1.00043,-1.00043,0.00479354,0.0866045,0.996231,0.171523,0.00312204,0.985175,0.530412,0.844916,0.0691397,-0.000434,-0.002055,0.000118,-48.483,-32.014,85.09,0.014112,3.18528
3.89914,0.999564,-1.00044,-1.00044,0.00479354,0.0866045,0.996231,0.17154,0.00276688,0.985173,0.528965,0.845568,0.0721827,-0.000436,0.000912,-0.002372,-48.485,-32.014,85.091,0.0147463,3.18769
3.95887,1.00011,-0.999887,-0.999887,0.00479354,0.0866045,0.996231,0.171523,0.00312204,0.985175,0.529674,0.845309,0.069982,0.000113,-0.001846,-0.000352,-48.482,-32.013,85.09,0.0118745,3.18227
3.98731,0.999168,-1.00083,-1.00083,0.00479354,0.0866045,0.996231,0.171523,0.00312204,0.985175,0.530756,0.844156,0.0754862,-0.000832,0.002494,-0.001007,-48.481,-32.013,85.088,0.01579,3.17586
4.05004,0.999093,-1.00091,-1.00091,0.00479354,0.0866045,0.996231,0.171523,0.00312204,0.985175,0.531803,0.843828,0.0716911,-0.000907,-0.00074,0.000602,-48.485,-32.013,85.088,0.0128534,3.14291
4.07503,1.0002,-0.999799,-0.999799,0.00479354,0.0866045,0.996231,0.171523,0.00312204,0.985175,0.531625,0.843812,0.07318,0.000201,-0.000548,-0.000449,-48.484,-32.013,85.087,0.0107827,3.13103
4.1296,1.00075,-0.999253,-0.999253,0.00479354,0.0866045,0.996231,0.171523,0.00312204,0.985175,0.530458,0.844785,0.0703732,0.000747,-0.003983,0.000824,-48.486,-32.014,85.089,0.00752568,3.11337
4.15857,1.00005,-0.99995,-0.99995,0.00479354,0.0866045,0.996231,0.17154,0.00276688,0.985173,0.528726,0.845757,0.0717228,0.00005,0.001779,-0.000235,-48.481,-32.015,85.089,0.0121126,3.12119
4.21272,0.999918,-1.00008,-1.00008,0.00479354,0.0866045,0.996231,0.171523,0.00312204,0.985175,0.52747,0.846262,0.0749438,-0.000082,-0.001137,0.000226,-48.482,-32.014,85.09,0.00986541,3.14813
4.24293,0.998115,-1.00189,-1.00189,0.00479354,0.0866045,0.996231,0.17154,0.00276688,0.985173,0.529412,0.845341,0.0715697,-0.001885,0.001375,-0.000459,-48.484,-32.014,85.09,0.0133095,3.15142
4.29756,0.999226,-1.00077,-1.00077,0.00479354,0.0866045,0.996231,0.17154,0.00276688,0.985173,0.529791,0.844932,0.0735566,-0.000774,0.000468,-0.001037,-48.483,-32.014,85.088,0.0103013,3.14962
4.32465,1.00062,-0.999383,-0.999383,0.00479354,0.0866045,0.996231,0.171523,0.00312204,0.985175,0.528082,0.846035,0.0731772,0.000617,0.000248,-0.000097,-48.484,-32.015,85.089,0.00882906,3.15372
4.37959,0.998798,-1.0012,-1.0012,0.00479354,0.0866045,0.996231,0.171523,0.00312204,0.985175,0.529068,0.84567,0.0702085,-0.001202,0.001442,-0.001378,-48.486,-32.014,85.088,0.0108069,3.15688
4.40667,1.00062,-0.999377,-0.999377,0.00479354,0.0866045,0.996231,0.17154,0.00276688,0.985173,0.529556,0.845407,0.0697,0.000623,-0.000685,-0.001144,-48.487,-32.013,85.088,0.00682648,3.15215
4.47248,0.999907,-1.00009,-1.00009,0.00479354,0.0866045,0.996231,0.17154,0.00276688,0.985173,0.528048,0.845958,0.0742982,-0.000093,-0.001393,-0.001374,-48.489,-32.013,85.086,0.00698868,3.16605
4.50045,1.00001,-0.999994,-0.999994,0.00479354,0.0866045,0.996231,0.17154,0.00276688,0.985173,0.530075,0.845037,0.070241,0.000006,0.001205,-0.00161,-48.489,-32.014,85.086,0.00804209,3.15739
4.55498,0.999926,-1.00007,-1.00007,0.00479354,0.0866045,0.996231,0.171523,0.00312204,0.985175,0.529398,0.845261,0.0726085,-0.000074,0.00154,-0.000713,-48.486,-32.014,85.087,0.00834665,3.15286
4.58379,0.9991,-1.0009,-1.0009,0.00479354,0.0866045,0.996231,0.17154,0.00276688,0.985173,0.529549,0.844927,0.0753431,-0.0009,0.002173,0.000087,-48.483,-32.013,85.084,0.00999943,3.15329
4.63829,0.999079,-1.00092,-1.00092,0.00479354,0.0866045,0.996231,0.17154,0.00276688,0.985173,0.530043,0.844836,0.0728413,-0.000921,0.001271,-0.000315,-48.48,-32.013,85.082,0.00863234,3.14357
4.66909,1.00009,-0.999914,-0.999914,0.00479354,0.0866045,0.996231,0.171523,0.00312204,0.985175,0.528366,0.845795,0.0738895,0.000086,0.002601,-0.000763,-48.479,-32.014,85.084,0.00803726,3.14723
4.72435,0.999238,-1.00076,-1.00076,0.00479354,0.0866045,0.996231,0.171523,0.00312204,0.985175,0.52784,0.845935,0.0760196,-0.000762,0.000522,-0.00081,-48.473,-32.013,85.082,0.0076067,3.16835
4.75148,0.999239,-1.00076,-1.00076,0.00479354,0.0866045,0.996231,0.171523,0.00312204,0.985175,0.531802,0.843482,0.0756642,-0.000761,0.00121,0.001039,-48.474,-32.014,85.082,0.00868486,3.14993
4.80645,0.99927,-1.00073,-1.00073,0.00479354,0.0866045,0.996231,0.171523,0.00312204,0.985175,0.531148,0.844028,0.0741542,-0.00073,0.002382,-0.001728,-48.475,-32.014,85.081,0.00779842,3.11891
4.83106,1.00035,-0.999653,-0.999653,0.00479354,0.0866045,0.996231,0.171523,0.00312204,0.985175,0.531813,0.843918,0.0705477,0.000347,-0.001665,0.000733,-48.478,-32.014,85.081,0.00518746,3.09821
4.89396,0.99898,-1.00102,-1.00102,0.00479354,0.0866045,0.996231,0.171523,0.00312204,0.985175,0.526608,0.84693,0.0734327,-0.00102,0.001241,-0.000827,-48.484,-32.014,85.081,0.00682423,3.12647
4.92234,0.999833,-1.00017,-1.00017,0.00484392,0.0861875,0.996267,0.17154,0.00276688,0.985173,0.531364,0.844309,0.0692374,-0.000167,-0.00166,0.001015,-48.486,-32.014,85.081,0.00480903,3.10929
4.98498,1.00057,-0.999429,-0.999429,0.00479354,0.0866045,0.996231,0.171523,0.00312204,0.985175,0.528543,0.845811,0.0724311,0.000571,-0.000312,0.000552,-48.478,-32.012,85.076,0.00393717,3.11325
5.01379,0.998557,-1.00144,-1.00144,0.00479354,0.0866045,0.996231,0.171523,0.00312204,0.985175,0.529724,0.844985,0.0734282,-0.001443,0.003654,-0.000899,-48.479,-32.013,85.076,0.00888997,3.11005
5.0723,1.00019,-0.999807,-0.999807,0.00479354,0.0866045,0.996231,0.17154,0.00276688,0.985173,0.527989,0.846149,0.072527,0.000193,-0.00081,0.000537,-48.474,-32.011,85.075,0.00394203,3.12548
5.10349,1.00065,-0.999353,-0.999353,0.00479354,0.0866045,0.996231,0.171523,0.00312204,0.985175,0.528065,0.845903,0.0747974,0.000647,0.000056,-0.000279,-48.474,-32.011,85.075,0.00329828,3.13078
5.15925,1.00107,-0.998934,-0.998934,0.00479354,0.0866045,0.996231,0.17154,0.00276688,0.985173,0.530506,0.844377,0.0747652,0.001066,-0.003012,0.000878,-48.479,-32.01,85.074,0.00350255,3.10489
5.18892,0.999975,-1.00003,-1.00003,0.00479354,0.0866045,0.996231,0.171523,0.00312204,0.985175,0.530822,0.844159,0.0749841,-0.000025,0.000571,0.001281,-48.479,-32.011,85.073,0.0046522,3.09077
5.2527,0.999601,-1.0004,-1.0004,0.00479354,0.0866045,0.996231,0.171523,0.00312204,0.985175,0.530213,0.844966,0.0700474,-0.000399,0.00006,-0.000331,-48.475,-32.01,85.071,0.00371215,3.0741
5.27936,0.998486,-1.00151,-1.00151,0.00479354,0.0866045,0.996231,0.171523,0.00312204,0.985175,0.532198,0.843626,0.0711369,-0.001514,-0.003061,0.000119,-48.473,-32.01,85.071,0.00263477,3.06028
5.3371,0.99927,-1.00073,-1.00073,0.00479354,0.0866045,0.996231,0.171523,0.00312204,0.985175,0.530282,0.844833,0.0711266,-0.00073,-0.000504,0.000147,-48.47,-32.01,85.071,0.00390898,3.05048
5.36599,0.999998,-1,-1,0.00479354,0.0866045,0.996231,0.171523,0.00312204,0.985175,0.53032,0.84455,0.0741406,-0.000002,-0.00108,0.000541,-48.469,-32.01,85.07,0.00230531,3.04596
5.42219,0.997686,-1.00231,-1.00231,0.00479354,0.0866045,0.996231,0.171523,0.00312204,0.985175,0.53153,0.843701,0.0751297,-0.002314,0.000994,0.000918,-48.467,-32.008,85.069,0.00653067,3.03573
5.4493,0.999412,-1.00059,-1.00059,0.00479354,0.0866045,0.996231,0.17154,0.00276688,0.985173,0.53131,0.844044,0.0727906,-0.000588,-0.000141,0.000268,-48.467,-32.008,85.067,0.0034471,3.02585
5.51276,0.99794,-1.00206,-1.00206,0.00479354,0.0866045,0.996231,0.171523,0.00312204,0.985175,0.529432,0.844826,0.0772663,-0.00206,0.002645,-0.001342,-48.469,-32.007,85.066,0.00663401,3.03711
5.54089,0.99859,-1.00141,-1.00141,0.00479354,0.0866045,0.996231,0.171523,0.00312204,0.985175,0.532564,0.843056,0.075045,-0.00141,0.000593,0.000211,-48.471,-32.007,85.062,0.0043526,3.0199
5.59843,1.00041,-0.999588,-0.999588,0.00479354,0.0866045,0.996231,0.171523,0.00312204,0.985175,0.529453,0.844957,0.07568,0.000412,-0.001816,-0.000099,-48.471,-32.006,85.063,0.00389597,3.01989
5.62681,0.999466,-1.00053,-1.00053,0.00479354,0.0866045,0.996231,0.17154,0.00276688,0.985173,0.529809,0.845062,0.0719267,-0.000534,-0.000088,-0.00051,-48.471,-32.005,85.062,0.00302749,3.01988
5.68212,0.998864,-1.00114,-1.00114,0.00479354,0.0866045,0.996231,0.171523,0.00312204,0.985175,0.531414,0.843854,0.0742199,-0.001136,0.001626,-0.000966,-48.465,-32.003,85.06,0.00451166,3.01145
5.70872,0.999215,-1.00078,-1.00078,0.00479354,0.0866045,0.996231,0.171523,0.00312204,0.985175,0.529718,0.845039,0.0728605,-0.000785,0.000434,0.000646,-48.464,-32.003,85.06,0.00291139,3.01336
5.76421,1.00018,-0.999816,-0.999816,0.00479354,0.0866045,0.996231,0.17154,0.00276688,0.985173,0.531196,0.844037,0.0737061,0.000184,0.001924,-0.000359,-48.463,-32.002,85.06,0.00373745,3.00167
5.794,0.998047,-1.00195,-1.00195,0.00479354,0.0866045,0.996231,0.17154,0.00276688,0.985173,0.5308,0.844284,0.0737308,-0.001953,-0.00182,-0.000321,-48.466,-32.002,85.06,0.00183246,2.99894
5.85085,0.999304,-1.0007,-1.0007,0.00479354,0.0866045,0.996231,0.171523,0.00312204,0.985175,0.531942,0.843348,0.0761668,-0.000696,-0.0007,-0.001316,-48.467,-32.001,85.057,0.00325452,2.98239
5.88099,0.999564,-1.00044,-1.00044,0.00484392,0.0861875,0.996267,0.171523,0.00312204,0.985175,0.532664,0.843035,0.074575,-0.000436,-0.000303,0.000913,-48.468,-32,85.055,0.00232191,2.96856
5.93586,1.00012,-0.99988,-0.99988,0.00479354,0.0866045,0.996231,0.171523,0.00312204,0.985175,0.531973,0.843364,0.075777,0.00012,0.000674,-0.000395,-48.467,-32.001,85.053,0.00398851,2.95113
5.96711,0.999866,-1.00013,-1.00013,0.00479354,0.0866045,0.996231,0.171523,0.00312204,0.985175,0.530751,0.8444,0.072742,-0.000134,-0.002159,-0.000291,-48.466,-32,85.051,0.00329078,2.94997
6.02967,0.99982,-1.00018,-1.00018,0.00479354,0.0866045,0.996231,0.171523,0.00312204,0.985175,0.528508,0.845756,0.0733132,-0.00018,0.000916,0.000374,-48.465,-32.002,85.049,0.00171228,2.97253
6.06184,1.00002,-0.999976,-0.999976,0.00479354,0.0866045,0.996231,0.171523,0.00312204,0.985175,0.529671,0.84502,0.0734177,0.000024,0.002305,-0.001681,-48.464,-32.002,85.048,0.00337123,2.97899
6.12432,1.00014,-0.999861,-0.999861,0.00479354,0.0866045,0.996231,0.17154,0.00276688,0.985173,0.529501,0.84532,0.071159,0.000139,-0.000864,0.000532,-48.464,-32.003,85.047,0.00167139,2.98857
6.18282,0.999532,-1.00047,-1.00047,0.00479354,0.0866045,0.996231,0.171523,0.00312204,0.985175,0.529167,0.845197,0.0749969,-0.000468,0.002524,-0.000989,-48.464,-32.003,85.043,0.00359779,3.00528
6.21591,1.00035,-0.999648,-0.999648,0.00479354,0.0866045,0.996231,0.17154,0.00276688,0.985173,0.529291,0.845128,0.0748977,0.000352,0.003153,-0.000994,-48.467,-32.004,85.043,0.00294308,3.00982
6.27091,1.00047,-0.999535,-0.999535,0.00479354,0.0866045,0.996231,0.17154,0.00276688,0.985173,0.529385,0.845404,0.07102,0.000465,-0.001146,-0.000923,-48.47,-32.004,85.044,0.00202537,3.01487
6.29947,0.998002,-1.002,-1.002,0.00479354,0.0866045,0.996231,0.171523,0.00312204,0.985175,0.529932,0.844684,0.075369,-0.001998,0.002723,-0.000788,-48.47,-32.004,85.043,0.0059884,3.0207
6.35333,0.999111,-1.00089,-1.00089,0.00479354,0.0866045,0.996231,0.17154,0.00276688,0.985173,0.530749,0.843974,0.0775412,-0.000889,0.001866,-0.001933,-48.471,-32.003,85.04,0.00216693,3.01836
6.37643,1.00094,-0.999064,-0.999064,0.00484392,0.0861875,0.996267,0.171523,0.00312204,0.985175,0.530779,0.844612,0.0700355,0.000936,-0.00231,0.000213,-48.471,-32.003,85.04,0.00357188,3.01108
6.43264,0.9995,-1.0005,-1.0005,0.00479354,0.0866045,0.996231,0.171523,0.00312204,0.985175,0.530271,0.844623,0.0736459,-0.0005,-0.001351,0.001248,-48.472,-32.004,85.04,0.00295672,3.00651
6.46118,0.999445,-1.00056,-1.00056,0.00479354,0.0866045,0.996231,0.171523,0.00312204,0.985175,0.527771,0.846437,0.0707238,-0.000555,-0.002662,0.000698,-48.467,-32.003,85.039,0.00361646,3.02343
6.51676,0.998851,-1.00115,-1.00115,0.00479354,0.0866045,0.996231,0.171523,0.00312204,0.985175,0.531344,0.844051,0.07247,-0.001149,0.003337,-0.000181,-48.463,-32.004,85.037,0.0053924,3.0132
6.54561,0.998673,-1.00133,-1.00133,0.00479354,0.0866045,0.996231,0.171523,0.00312204,0.985175,0.525922,0.847199,0.0752339,-0.001327,0.000579,0.000753,-48.464,-32.004,85.037,0.00443717,3.03999
6.6009,1.00028,-0.999718,-0.999718,0.00479354,0.0866045,0.996231,0.171523,0.00312204,0.985175,0.53062,0.844577,0.0716419,0.000282,-0.001807,0.000342,-48.467,-32.004,85.036,0.00268954,3.02841
6.65864,0.999417,-1.00058,-1.00058,0.00479354,0.0866045,0.996231,0.17154,0.00276688,0.985173,0.529824,0.844896,0.0737316,-0.000583,0.001733,0.000502,-48.465,-32.003,85.033,0.00352497,3.0298
6.68921,1.00018,-0.999819,-0.999819,0.00479354,0.0866045,0.996231,0.17154,0.00276688,0.985173,0.530295,0.844758,0.0719095,0.000181,-0.001694,0.001143,-48.464,-32.002,85.033,0.00271805,3.02653
6.74473,0.999165,-1.00083,-1.00083,0.00479354,0.0866045,0.996231,0.171523,0.00312204,0.985175,0.530011,0.844641,0.0753065,-0.000835,0.000056,-0.000333,-48.462,-32.002,85.032,0.00142583,3.0276
6.77371,1.0007,-0.999302,-0.999302,0.00479354,0.0866045,0.996231,0.17154,0.00276688,0.985173,0.530167,0.844854,0.0717242,0.000698,-0.000606,0.000581,-48.463,-32.002,85.031,0.00138468,3.0212
6.83091,0.99931,-1.00069,-1.00069,0.00479354,0.0866045,0.996231,0.171523,0.00312204,0.985175,0.529943,0.844904,0.0727854,-0.00069,0.001118,-0.000109,-48.467,-32.003,85.03,0.00230873,3.0155
6.85842,1.00036,-0.999637,-0.999637,0.00479354,0.0866045,0.996231,0.171523,0.00312204,0.985175,0.533275,0.843084,0.0694821,0.000363,-0.000995,0.000513,-48.47,-32.002,85.03,0.00132456,2.99126
6.91291,1.00103,-0.998968,-0.998968,0.00479354,0.0866045,0.996231,0.171523,0.00312204,0.985175,0.530005,0.844756,0.0740351,0.001032,-0.000984,0.000065,-48.472,-32.002,85.029,0.00226116,2.98202
6.94153,1.00013,-0.999872,-0.999872,0.00479354,0.0866045,0.996231,0.17154,0.00276688,0.985173,0.530063,0.844607,0.0753146,0.000128,-0.001453,0.000134,-48.471,-32.002,85.027,0.00146247,2.98229
6.99838,1.00001,-0.999988,-0.999988,0.00479354,0.0866045,0.996231,0.171523,0.00312204,0.985175,0.532857,0.843078,0.0726809,0.000012,-0.000079,0.000085,-48.467,-32.001,85.026,0.00193838,2.95313
7.02751,1.00087,-0.999132,-0.999132,0.00479354,0.0866045,0.996231,0.171523,0.00312204,0.985175,0.528818,0.845822,0.0702639,0.000868,-0.000609,0.000904,-48.463,-32.002,85.025,0.00169134,2.95903
7.08145,1.00174,-0.998264,-0.998264,0.00484392,0.0861875,0.996267,0.171523,0.00312204,0.985175,0.529964,0.845077,0.0705936,0.001736,-0.002637,0.001297,-48.46,-32.003,85.024,0.00374654,2.958
7.10708,0.99905,-1.00095,-1.00095,0.00479354,0.0866045,0.996231,0.171523,0.00312204,0.985175,0.527655,0.846193,0.0744142,-0.00095,0.000644,-0.000233,-48.458,-32.003,85.024,0.00274795,2.97632
7.16477,0.999946,-1.00005,-1.00005,0.00479354,0.0866045,0.996231,0.17154,0.00276688,0.985173,0.530661,0.84466,0.0703458,-0.000054,-0.001497,-0.000158,-48.458,-32.004,85.024,0.00177634,2.97379
7.19616,0.99868,-1.00132,-1.00132,0.00479354,0.0866045,0.996231,0.171523,0.00312204,0.985175,0.526537,0.847104,0.0719307,-0.00132,-0.000169,-0.000306,-48.459,-32.003,85.022,0.00327791,3.00011
7.25069,1.00095,-0.999054,-0.999054,0.00479354,0.0866045,0.996231,0.171523,0.00312204,0.985175,0.528442,0.846061,0.0702062,0.000946,-0.000162,0.000344,-48.455,-32.002,85.021,0.00255239,3.02121
7.28353,1.00021,-0.999786,-0.999786,0.00479354,0.0866045,0.996231,0.17154,0.00276688,0.985173,0.528852,0.845406,0.0748627,0.000214,0.000382,0.00053,-48.456,-32.002,85.021,0.00265785,3.03038
7.33769,0.999781,-1.00022,-1.00022,0.00479354,0.0866045,0.996231,0.17154,0.00276688,0.985173,0.525901,0.847484,0.0721002,-0.000219,-0.00095,-0.000689,-48.459,-32.003,85.019,0.00328212,3.07557
7.36597,0.999481,-1.00052,-1.00052,0.00479354,0.0866045,0.996231,0.171523,0.00312204,0.985175,0.529198,0.845243,0.0742554,-0.000519,0.00152,-0.000884,-48.459,-32.002,85.019,0.00334821,3.08173
7.42041,1.00081,-0.999191,-0.999191,0.00479354,0.0866045,0.996231,0.171523,0.00312204,0.985175,0.529462,0.845201,0.0728393,0.000809,-0.000047,0.000976,-48.46,-32.002,85.019,0.00321691,3.0757
7.45188,0.999843,-1.00016,-1.00016,0.00479354,0.0866045,0.996231,0.17154,0.00276688,0.985173,0.531706,0.843706,0.0738141,-0.000157,-0.000435,-0.000881,-48.458,-32.003,85.019,0.00140363,3.05872
7.50642,1.00128,-0.998718,-0.998718,0.00479354,0.0866045,0.996231,0.17154,0.00276688,0.985173,0.530531,0.844538,0.0727539,0.001282,-0.001265,0.001536,-48.454,-32.003,85.017,0.00329006,3.03846
7.54056,0.99921,-1.00079,-1.00079,0.00479354,0.0866045,0.996231,0.17154,0.00276688,0.985173,0.528103,0.84617,0.0714426,-0.00079,-0.000578,0.000479,-48.454,-32.004,85.016,0.00243525,3.04784
7.59544,1.00022,-0.999778,-0.999778,0.00479354,0.0866045,0.996231,0.17154,0.00276688,0.985173,0.53141,0.844179,0.0704672,0.000222,-0.001522,-0.000172,-48.456,-32.003,85.015,0.00142065,3.02212
7.62396,0.999153,-1.00085,-1.00085,0.00479354,0.0866045,0.996231,0.171523,0.00312204,0.985175,0.530928,0.844116,0.074724,-0.000847,0.000736,0.000401,-48.456,-32.005,85.015,0.00204913,3.01344
7.68097,1.00097,-0.999031,-0.999031,0.00479354,0.0866045,0.996231,0.171523,0.00312204,0.985175,0.531114,0.844526,0.068511,0.000969,-0.002453,0.001723,-48.462,-32.006,85.016,0.00232696,2.98359
7.70706,0.998653,-1.00135,-1.00135,0.00479354,0.0866045,0.996231,0.171523,0.00312204,0.985175,0.531431,0.843821,0.0744758,-0.001347,0.001763,-0.000469,-48.461,-32.007,85.015,0.0041901,2.97714
7.76567,0.999661,-1.00034,-1.00034,0.00479354,0.0866045,0.996231,0.171523,0.00312204,0.985175,0.530867,0.844324,0.0727777,-0.000339,-0.003474,0.000299,-48.459,-32.008,85.015,0.0025692,2.96765
7.79617,0.998391,-1.00161,-1.00161,0.00479354,0.0866045,0.996231,0.171523,0.00312204,0.985175,0.528201,0.84596,0.0731796,-0.001609,0.001499,0.000157,-48.456,-32.008,85.014,0.00375771,2.98397
7.85123,1.00089,-0.999115,-0.999115,0.00484392,0.0861875,0.996267,0.171523,0.00312204,0.985175,0.529999,0.844957,0.0717484,0.000885,-0.002032,0.000679,-48.452,-32.009,85.014,0.00263879,2.98378
7.88076,0.999026,-1.00097,-1.00097,0.00479354,0.0866045,0.996231,0.171523,0.00312204,0.985175,0.530227,0.844507,0.0752804,-0.000974,0.00264,-0.000932,-48.452,-32.009,85.014,0.00407878,2.98526
7.93756,0.999725,-1.00028,-1.00028,0.00479354,0.0866045,0.996231,0.171523,0.00312204,0.985175,0.530478,0.844366,0.0750957,-0.000275,-0.000714,0.000277,-48.455,-32.008,85.013,0.00205725,2.98043
8.00763,1.00059,-0.999412,-0.999412,0.00479354,0.0866045,0.996231,0.171523,0.00312204,0.985175,0.529162,0.84525,0.0744278,0.000588,-0.001987,0.000905,-48.455,-32.008,85.012,0.00409778,2.98913
8.03681,0.99972,-1.00028,-1.00028,0.00479354,0.0866045,0.996231,0.171523,0.00312204,0.985175,0.528858,0.845498,0.0737704,-0.00028,0.000824,-0.000284,-48.456,-32.009,85.012,0.00212693,2.99506
8.09775,1.00053,-0.999468,-0.999468,0.00479354,0.0866045,0.996231,0.17154,0.00276688,0.985173,0.529986,0.844773,0.0739776,0.000532,-0.002028,0.000311,-48.458,-32.009,85.013,0.0042203,2.99273
8.12721,0.998891,-1.00111,-1.00111,0.00479354,0.0866045,0.996231,0.171523,0.00312204,0.985175,0.530833,0.844284,0.0734827,-0.001109,-0.001029,0.000414,-48.457,-32.009,85.012,0.00244651,2.9892
8.18348,0.999659,-1.00034,-1.00034,0.00479354,0.0866045,0.996231,0.171523,0.00312204,0.985175,0.531585,0.843746,0.0742317,-0.000341,-0.000699,0.000171,-48.455,-32.007,85.011,0.00246367,2.97423
8.21398,0.999819,-1.00018,-1.00018,0.00479354,0.0866045,0.996231,0.171523,0.00312204,0.985175,0.529506,0.845206,0.0724608,-0.000181,-0.001978,0.000923,-48.452,-32.006,85.01,0.00289917,2.97932
8.26864,1.00111,-0.99889,-0.99889,0.00479354,0.0866045,0.996231,0.17154,0.00276688,0.985173,0.52874,0.845678,0.0725421,0.00111,0.00004,0.000214,-48.449,-32.005,85.009,0.00200211,2.99316
8.29787,1.00047,-0.999532,-0.999532,0.00484392,0.0861875,0.996267,0.171523,0.00312204,0.985175,0.52895,0.845382,0.0744425,0.000468,0.000478,-0.000998,-48.447,-32.005,85.007,0.00163813,3.00061
8.35845,0.999009,-1.00099,-1.00099,0.00479354,0.0866045,0.996231,0.171523,0.00312204,0.985175,0.528872,0.845642,0.0719979,-0.000991,0.000145,-0.001455,-48.45,-32.006,85.006,0.00096613,3.0153
8.3869,1.00002,-0.999985,-0.999985,0.00479354,0.0866045,0.996231,0.17154,0.00276688,0.985173,0.531552,0.844032,0.0711527,0.000015,-0.00141,-0.000252,-48.451,-32.004,85.005,0.00136369,3.00557
8.44297,0.998952,-1.00105,-1.00105,0.00479354,0.0866045,0.996231,0.171523,0.00312204,0.985175,0.532077,0.843318,0.0755576,-0.001048,-0.00071,0.000369,-48.454,-32.004,85.005,0.000917815,2.98266
8.47399,1.00093,-0.999065,-0.999065,0.00479354,0.0866045,0.996231,0.171523,0.00312204,0.985175,0.531015,0.844461,0.0700644,0.000935,-0.001207,0.001095,-48.455,-32.004,85.004,0.00188248,2.97087
8.53148,0.998683,-1.00132,-1.00132,0.00479354,0.0866045,0.996231,0.17154,0.00276688,0.985173,0.530938,0.844229,0.0733668,-0.001317,0.000292,-0.000081,-48.458,-32.003,85.004,0.00215263,2.96544
8.56426,0.999181,-1.00082,-1.00082,0.00479354,0.0866045,0.996231,0.171523,0.00312204,0.985175,0.530486,0.844141,0.0775201,-0.000819,0.000627,-0.001729,-48.458,-32.002,85.004,0.0025805,2.96808
8.61907,0.999094,-1.00091,-1.00091,0.00479354,0.0866045,0.996231,0.171523,0.00312204,0.985175,0.530166,0.844634,0.0742804,-0.000906,0.002877,-0.000623,-48.455,-32.001,85.001,0.00363097,2.9732
8.68489,0.99896,-1.00104,-1.00104,0.00479354,0.0866045,0.996231,0.171523,0.00312204,0.985175,0.531893,0.843844,0.0708236,-0.00104,-0.000128,-0.000278,-48.456,-32.002,84.998,0.00185543,2.95004
8.71231,1.00024,-0.999755,-0.999755,0.00479354,0.0866045,0.996231,0.17154,0.00276688,0.985173,0.528207,0.845867,0.0742025,0.000245,-0.00095,0.000929,-48.457,-32.002,85,0.00102179,2.9615
8.76844,1.00007,-0.999927,-0.999927,0.00479354,0.0866045,0.996231,0.17154,0.00276688,0.985173,0.530834,0.844123,0.0753079,0.000073,-0.000016,0.001417,-48.454,-32.002,85,0.000411195,2.96117
8.79836,1.00101,-0.998994,-0.998994,0.00479354,0.0866045,0.996231,0.17154,0.00276688,0.985173,0.531064,0.844182,0.0729893,0.001006,-0.000511,0.000792,-48.454,-32.002,84.999,0.00206174,2.95384
8.85286,1.00059,-0.999414,-0.999414,0.00479354,0.0866045,0.996231,0.17154,0.00276688,0.985173,0.531636,0.843704,0.0743454,0.000586,-0.000758,-0.00096,-48.455,-32.002,84.998,0.00343796,2.9378
8.88141,0.999941,-1.00006,-1.00006,0.00479354,0.0866045,0.996231,0.17154,0.00276688,0.985173,0.52948,0.844997,0.0750403,-0.000059,0.000988,-0.000203,-48.454,-32.002,84.996,0.001621,2.94391
8.93781,0.999933,-1.00007,-1.00007,0.00479354,0.0866045,0.996231,0.171523,0.00312204,0.985175,0.529018,0.845224,0.0757344,-0.000067,-0.002153,-0.000509,-48.456,-31.999,84.995,0.00329916,2.96436
8.96807,0.997838,-1.00216,-1.00216,0.00479354,0.0866045,0.996231,0.171523,0.00312204,0.985175,0.528203,0.845964,0.0731169,-0.002162,-0.001107,0.002109,-48.457,-31.999,84.993,0.00472071,2.981
9.02956,0.998607,-1.00139,-1.00139,0.00479354,0.0866045,0.996231,0.171523,0.00312204,0.985175,0.530433,0.844373,0.0753374,-0.001393,0.001136,-0.000318,-48.452,-31.998,84.991,0.00214769,2.99046
9.05855,1.00074,-0.99926,-0.99926,0.00475721,0.0863009,0.996258,0.17154,0.00276688,0.985173,0.530163,0.844688,0.0736819,0.00074,-0.000152,0.00146,-48.45,-31.998,84.991,0.00243076,2.98974
9.12396,1.00056,-0.99944,-0.99944,0.00479354,0.0866045,0.996231,0.17154,0.00276688,0.985173,0.529274,0.845062,0.0757564,0.00056,-0.000863,0.000748,-48.448,-31.998,84.989,0.00332054,3.00014
9.15595,1.00019,-0.999814,-0.999814,0.00479354,0.0866045,0.996231,0.171523,0.00312204,0.985175,0.528594,0.845486,0.0757761,0.000186,0.000152,0.002122,-48.449,-31.997,84.987,0.00380498,3.00983
9.21012,1.00011,-0.999893,-0.999893,0.00479354,0.0866045,0.996231,0.171523,0.00312204,0.985175,0.530795,0.844348,0.0730264,0.000107,-0.001514,0.001387,-48.449,-31.998,84.986,0.00353144,2.99809
9.23859,0.999472,-1.00053,-1.00053,0.00479354,0.0866045,0.996231,0.171523,0.00312204,0.985175,0.527915,0.846035,0.0743643,-0.000528,0.00044,-0.001194,-48.451,-31.997,84.984,0.000758057,3.01025
9.29465,1.00064,-0.999358,-0.999358,0.00479354,0.0866045,0.996231,0.171523,0.00312204,0.985175,0.531257,0.843984,0.0738652,0.000642,-0.000691,0.000185,-48.453,-31.996,84.983,0.00215694,2.99263
9.32024,0.999426,-1.00057,-1.00057,0.00479354,0.0866045,0.996231,0.171523,0.00312204,0.985175,0.530732,0.844402,0.0728656,-0.000574,-0.000164,-0.00096,-48.453,-31.997,84.983,0.00022865,2.98748
9.37917,1.00041,-0.999594,-0.999594,0.00479354,0.0866045,0.996231,0.17154,0.00276688,0.985173,0.529215,0.84544,0.0718461,0.000406,-0.000387,0.000479,-48.454,-31.996,84.982,0.00168444,2.99426
9.40762,0.999752,-1.00025,-1.00025,0.00479354,0.0866045,0.996231,0.171523,0.00312204,0.985175,0.531487,0.843886,0.0733368,-0.000248,0.000268,-0.001371,-48.455,-31.997,84.983,0.00164696,2.98493
9.46438,0.999694,-1.00031,-1.00031,0.00479354,0.0866045,0.996231,0.171523,0.00312204,0.985175,0.52686,0.846648,0.0748722,-0.000306,0.000619,0.000003,-48.45,-31.997,84.979,0.00245879,3.02611
9.48943,1.00029,-0.999709,-0.999709,0.00479354,0.0866045,0.996231,0.171523,0.00312204,0.985175,0.530943,0.844334,0.0721085,0.000291,-0.000898,0.001642,-48.449,-31.998,84.98,0.00342446,3.01974
9.54688,0.998271,-1.00173,-1.00173,0.00479354,0.0866045,0.996231,0.171523,0.00312204,0.985175,0.532036,0.843252,0.0765755,-0.001729,0.003046,-0.000975,-48.453,-31.999,84.98,0.0044618,2.99496
9.57382,0.999415,-1.00058,-1.00058,0.00479354,0.0866045,0.996231,0.171523,0.00312204,0.985175,0.527851,0.846072,0.0744013,-0.000585,-0.003179,-0.000074,-48.454,-32,84.979,0.00329554,3.00473
9.62971,0.9999,-1.0001,-1.0001,0.00479354,0.0866045,0.996231,0.171523,0.00312204,0.985175,0.531037,0.84406,0.0745781,-0.0001,0.000337,0.000135,-48.453,-31.999,84.978,0.00015347,2.99256
9.65741,1.00051,-0.999485,-0.999485,0.00479354,0.0866045,0.996231,0.171523,0.00312204,0.985175,0.530169,0.844495,0.0758259,0.000515,-0.001123,-0.000234,-48.448,-32,84.978,0.00243135,2.99143
9.71247,0.999761,-1.00024,-1.00024,0.00479354,0.0866045,0.996231,0.171523,0.00312204,0.985175,0.530737,0.844577,0.0707649,-0.000239,-0.002295,-0.000409,-48.446,-31.998,84.976,0.00208133,2.98077
9.74381,1.00027,-0.999729,-0.999729,0.00479354,0.0866045,0.996231,0.171523,0.00312204,0.985175,0.528902,0.845651,0.0716723,0.000271,0.000471,0.000153,-48.445,-31.998,84.974,0.00168471,2.98564
9.80032,0.999918,-1.00008,-1.00008,0.00479354,0.0866045,0.996231,0.171523,0.00312204,0.985175,0.530526,0.844348,0.0749578,-0.000082,-0.001056,0.000359,-48.447,-31.998,84.976,0.00116399,2.98116
9.82845,1.00004,-0.999961,-0.999961,0.00479354,0.0866045,0.996231,0.17154,0.00276688,0.985173,0.526809,0.846647,0.0752439,0.000039,-0.000214,-0.001005,-48.449,-31.998,84.975,0.00104117,2.99934
9.88269,0.999869,-1.00013,-1.00013,0.00479354,0.0866045,0.996231,0.17154,0.00276688,0.985173,0.528689,0.845678,0.0729156,-0.000131,0.000116,0.000685,-48.452,-31.997,84.974,0.00207862,3.01479
9.91046,1.00055,-0.999446,-0.999446,0.00479354,0.0866045,0.996231,0.171523,0.00312204,0.985175,0.527854,0.845749,0.0779703,0.000554,0.002174,-0.000729,-48.451,-31.996,84.972,0.00100954,3.0283
9.96811,0.99898,-1.00102,-1.00102,0.00479354,0.0866045,0.996231,0.171523,0.00312204,0.985175,0.529468,0.845126,0.0736536,-0.00102,0.000514,0.000818,-48.449,-31.996,84.971,0.00326957,3.0353
9.99699,0.999104,-1.0009,-1.0009,0.00479354,0.0866045,0.996231,0.171523,0.00312204,0.985175,0.528058,0.845892,0.0749706,-0.000896,0.001281,-0.000377,-48.447,-31.997,84.97,0.00249715,3.04658
10.0511,0.999132,-1.00087,-1.00087,0.00475721,0.0863009,0.996258,0.171523,0.00312204,0.985175,0.530009,0.844583,0.0759635,-0.000868,0.000631,-0.000342,-48.445,-31.997,84.969,0.00175806,3.04483
