test for writing sensor data,,,,,,,,,,,,,,,,,,,,,,
Time, omega_x, omega_y, omega_z,cam1_x, cam1_y, cam1_z, cam2_x, cam2_y, cam2_z,g_x, g_y, g_z,true_omega_x, true_omega_y, true_omega_z,true_attitude_x, true_attitude_y, true_attitude_z,bias_err_proposed, attitude_err_proposed,bias_err_mahony, attitude_err_mahony
0.000000256,0.0123704,-0.101989,-0.0112748,-0.215064,0.263266,0.940446,-0.0335721,0.2854,0.95782,-0.0627337,0.997619,0.0286637,-0.008319,0.088361,0.002794,-113.232,3.26,88.497,0.191987,48.355,0.191987,48.355
0.0571425,0.011364,-0.0975261,-0.0104401,-0.215064,0.263266,0.940446,-0.0335721,0.2854,0.95782,-0.0578482,0.99801,0.0250982,-0.005874,0.161948,0.010644,-112.858,3.234,88.484,0.374304,39.6534,0.424516,48.6983
0.0898362,0.010142,-0.0933693,-0.00976672,-0.215064,0.263266,0.940446,-0.0335721,0.2854,0.95782,-0.0514099,0.998353,0.0254494,-0.007713,0.135494,0.008749,-112.572,3.224,88.49,0.493945,35.514,0.639665,49.0108
0.150324,-1,0.175358,0.0192777,-0.215064,0.263266,0.940446,-0.0335721,0.2854,0.95782,-0.0654215,0.997473,0.0277019,-0.009766,0.158632,0.009807,-112.079,3.192,88.485,1.71395,28.7316,2.15452,49.8606
0.173991,1,0.0995496,-0.172042,-0.0693591,0.259146,0.963345,0.112142,0.275063,0.954864,-0.0675685,0.997401,0.0250065,-0.012442,0.16132,0.008505,-111.872,3.185,88.481,0.365127,27.1594,0.553836,50.5387
0.227879,1,1,0.0961521,-0.0810748,0.259444,0.962349,0.100873,0.276095,0.955822,-0.0583925,0.997889,0.0284293,-0.00978,0.180589,0.015,-111.314,3.155,88.475,1.02864,22.9715,1.49876,54.4954
0.255431,-1,-1,0.0215426,-0.0871467,0.259675,0.961756,0.0945729,0.276325,0.9564,-0.0633735,0.997622,0.0270871,-0.011508,0.186292,0.0141,-111.026,3.14,88.471,2.15573,22.1091,3.22385,54.8418
0.310091,0.227575,1,1,-0.0949664,0.259826,0.960975,0.0882859,0.277146,0.956763,-0.0545076,0.998247,0.023053,-0.011931,0.200277,0.01682,-110.387,3.105,88.469,1.54755,18.3817,2.82433,61.1311
0.336971,-1,1,-1,-0.102207,0.260275,0.96011,0.0805682,0.278299,0.957109,-0.0567019,0.997994,0.028147,-0.012798,0.19695,0.019168,-110.105,3.087,88.467,2.49277,16.0802,4.49305,63.9245
0.391434,0.00974233,-0.086308,1,-0.118206,0.261035,0.958065,0.0642285,0.279346,0.95804,-0.0451385,0.998563,0.0289009,-0.012105,0.202709,0.015276,-109.451,3.045,88.462,1.28357,15.3051,3.4009,67.9056
0.418625,0.197332,0.157772,0.0183451,-0.126963,0.261453,0.956829,0.0557777,0.279819,0.958431,-0.0514353,0.998439,0.0217808,-0.012293,0.180151,0.016772,-109.159,3.029,88.459,0.76725,14.3416,3.61682,68.1243
0.473333,-1,0.0972846,-0.169245,-0.135416,0.261667,0.955611,0.0470724,0.280626,0.958662,-0.0450734,0.998361,0.0352615,-0.010043,0.196216,0.012709,-108.549,2.989,88.453,1.88443,12.3773,5.1607,65.4735
0.510033,0.0104085,-0.0901717,0.0785656,-0.144009,0.261971,0.954271,0.0382792,0.28138,0.958833,-0.0555362,0.998018,0.0296057,-0.012164,0.156076,0.013838,-108.187,2.971,88.447,0.779665,11.7955,4.28054,62.1478
0.575916,-1,-0.960305,0.0176789,-0.160969,0.262172,0.951501,0.0218152,0.282216,0.959103,-0.0472064,0.998471,0.0287521,-0.010702,0.187956,0.010561,-107.509,2.933,88.438,1.86864,14.2013,5.27563,56.269
0.608172,1,1,1,-0.168497,0.262803,0.950023,0.0140165,0.283212,0.958955,-0.0505226,0.998407,0.0251082,-0.012462,0.153576,0.010044,-107.199,2.92,88.435,1.49433,13.0835,3.76253,52.8127
0.662735,-1,1,-1,-0.175577,0.262686,0.948772,0.00622589,0.283561,0.958934,-0.053135,0.998223,0.0269762,-0.011854,0.181138,0.010498,-106.652,2.887,88.429,2.13719,6.40226,5.89583,46.5462
0.691572,0.00694447,-0.120016,-1,-0.183717,0.262984,0.947147,-0.00119963,0.284217,0.958759,-0.0491406,0.998308,0.0310952,-0.013388,0.174089,0.008219,-106.377,2.885,88.423,1.15518,6.31448,4.59473,46.8726
0.746861,-1,-0.0170278,0.0199439,-0.198283,0.263061,0.944183,-0.0167304,0.284847,0.958427,-0.0556544,0.997994,0.0301802,-0.012031,0.184413,0.014912,-105.811,2.86,88.417,1.25167,5.9723,4.77792,49.052
0.77163,0.261549,0.323112,1,-0.205619,0.262951,0.942644,-0.0234731,0.285449,0.958106,-0.0493577,0.998575,0.0202938,-0.013078,0.179497,0.01386,-105.524,2.846,88.412,1.04059,5.81281,3.41097,50.018
0.837495,-0.215552,1,-0.369091,-0.220345,0.26329,0.939216,-0.0389909,0.286258,0.957359,-0.0548973,0.998208,0.0238059,-0.011715,0.187966,0.018805,-104.864,2.794,88.409,1.16609,3.52802,4.0269,58.7383
0.869474,0.0100088,-0.119882,0.243906,-0.227887,0.263087,0.937471,-0.0469852,0.286499,0.956928,-0.0565306,0.998263,0.0166206,-0.010193,0.200631,0.02495,-104.52,2.773,88.401,0.255251,2.7912,2.87281,60.9759
0.925984,0.197065,-0.904747,1,-0.235642,0.263237,0.93551,-0.054748,0.286697,0.956456,-0.0387014,0.998884,0.0270604,-0.013479,0.198891,0.013281,-103.712,2.721,88.392,1.37713,8.89054,2.03192,59.2458
0.954364,-0.0752592,0.0983505,-0.165514,-0.244296,0.263021,0.933349,-0.0621645,0.287188,0.955855,-0.0425171,0.998387,0.037623,-0.009725,0.195351,0.018116,-103.487,2.708,88.387,0.210121,8.27472,2.49821,61.1328
1.00958,0.00867648,-0.0911043,-0.983954,-0.26001,0.263539,0.928947,-0.0795415,0.287777,0.954388,-0.0472973,0.998566,0.0250819,-0.013718,0.157544,0.015576,-102.944,2.674,88.38,0.96887,3.40946,2.22588,66.1313
1.03368,-1,0.162035,0.0208765,-0.269199,0.263313,0.92639,-0.0891699,0.288478,0.953325,-0.0449572,0.998662,0.0255438,-0.011059,0.163062,0.013052,-102.715,2.662,88.376,0.833863,3.19973,2.7516,67.52
1.08925,1,0.100882,-0.169111,-0.285607,0.26354,0.921399,-0.105716,0.288938,0.951493,-0.0493995,0.998503,0.023475,-0.011635,0.161658,0.01597,-102.204,2.631,88.368,1.25545,2.79377,1.25295,70.0338
1.11616,-1,1,-0.0194926,-0.29297,0.263851,0.918994,-0.113047,0.2893,0.95054,-0.0445463,0.998791,0.0208018,-0.012321,0.180276,0.011842,-101.942,2.617,88.361,1.3007,3.31368,2.84565,71.8731
1.17254,1,-0.0859083,1,-0.299345,0.263253,0.91711,-0.120289,0.289059,0.949724,-0.0411001,0.998774,0.0276046,-0.010346,0.138736,0.010585,-101.383,2.588,88.353,1.64087,5.50421,2.11975,66.6489
1.20009,0.185341,1,1,-0.306487,0.263978,0.914539,-0.127199,0.289713,0.948624,-0.0513505,0.998061,0.0351884,-0.009178,0.129864,0.012413,-101.182,2.575,88.346,1.58734,7.32802,2.85651,64.0669
1.25787,-0.0523434,0.100749,-0.165114,-0.314705,0.263322,0.911933,-0.135057,0.290018,0.947443,-0.0341117,0.999043,0.027371,0.001315,0.111872,0.005626,-100.759,2.566,88.346,0.276298,5.93745,1.59475,57.9554
1.2868,0.00614509,-0.0847092,1,-0.320619,0.263635,0.90978,-0.142222,0.290028,0.946392,-0.0347617,0.998943,0.0300862,-0.002479,0.081331,0.004049,-100.623,2.556,88.342,1.06438,8.14209,2.60117,50.9385
1.34481,0.193468,0.16843,0.0228749,-0.332642,0.263449,0.905508,-0.154919,0.290064,0.944385,-0.0318721,0.999136,0.0266789,0.006824,-0.039757,-0.003685,-100.554,2.564,88.342,0.546315,7.3682,2.08621,40.424
1.37076,0.17788,0.102081,-0.16658,-0.337227,0.263056,0.903924,-0.159422,0.290154,0.943608,-0.0455029,0.998398,0.0336147,0.002864,-0.089419,-0.011904,-100.663,2.568,88.341,0.532469,6.48498,1.98671,35.9577
1.42515,0.00467954,-0.106959,-0.011632,-0.340964,0.2627,0.902626,-0.163306,0.289966,0.943001,-0.0419905,0.998474,0.0358605,0.000405,-0.095984,-0.00814,-101.006,2.591,88.331,0.240888,5.93441,2.10698,24.9767
1.45343,0.00398075,-0.10268,-0.0110388,-0.343011,0.262838,0.901809,-0.165523,0.290445,0.942467,-0.0543047,0.997862,0.0363729,0.001982,-0.115579,-0.015976,-101.189,2.61,88.328,0.260095,5.71578,2.16347,19.6726
1.50805,0.00343782,-0.098957,-0.0109809,-0.337553,0.26302,0.903813,-0.159834,0.289249,0.943816,0.068221,0.996757,0.0426762,0.002293,-0.082577,-0.003495,-101.547,2.643,88.324,0.214332,7.02111,2.22008,12.1497
1.53411,0.0030445,-0.0952545,-0.0106696,-0.333654,0.262405,0.905438,-0.154953,0.289191,0.944647,-0.0296776,0.999385,0.018701,0.000841,-0.136424,-0.011077,-101.764,2.656,88.32,0.270738,7.0006,2.25843,12.7121
1.58915,0.00117926,-0.119236,-0.0141336,-0.327917,0.262022,0.907643,-0.150403,0.289391,0.945321,-0.0471706,0.99853,0.0266927,0.001345,-0.118522,-0.017124,-102.124,2.685,88.315,0.228733,6.45855,2.223,19.6217
1.62145,0.000779569,-0.118836,-0.0145333,-0.323389,0.262085,0.909247,-0.144935,0.288713,0.946382,-0.0506339,0.998284,0.0294003,0.005264,-0.085649,-0.005338,-102.457,2.685,88.311,0.197808,6.12505,2.16713,24.7094
1.67608,0.00424358,-0.119769,-0.0134674,-0.313077,0.261528,0.913009,-0.134182,0.287958,0.948196,-0.0471421,0.998574,0.0250538,0.005798,-0.080783,-0.00323,-102.686,2.696,88.318,0.191399,5.56965,2.08449,32.9252
1.71036,0.00424358,-0.119769,-0.0134674,-0.308335,0.261539,0.914618,-0.128914,0.287568,0.949045,-0.0436943,0.998522,0.0323358,0.005414,-0.101418,-0.003064,-102.909,2.696,88.321,0.210335,5.26228,2.02883,37.5618
1.76628,0.00264481,-0.112042,-0.00787174,-0.303432,0.261387,0.9163,-0.12439,0.2871,0.94979,-0.0392087,0.998652,0.0340149,0.010313,-0.166398,-0.013886,-103.376,2.705,88.331,0.278514,4.78517,1.9556,43.9811
1.79917,0.00277804,-0.111642,-0.00773851,-0.29958,0.261666,0.917487,-0.120086,0.286956,0.950387,-0.0508092,0.998257,0.0300143,0.008892,-0.204781,-0.020184,-103.771,2.73,88.333,0.314044,4.29579,1.90229,46.8913
1.85987,0.0009128,-0.106313,-0.0060065,-0.292322,0.261338,0.919919,-0.111797,0.28694,0.951403,-0.0430659,0.998578,0.031432,0.014623,-0.212891,-0.018026,-104.539,2.772,88.34,0.323255,3.54781,1.76195,50.8774
1.88816,0.000779569,-0.106179,-0.00534034,-0.285444,0.261606,0.922,-0.105557,0.285922,0.952421,-0.045032,0.998686,0.0244605,0.012756,-0.239717,-0.016423,-104.968,2.79,88.341,0.345678,3.26444,1.70896,52.1524
1.94396,0.00397712,-0.098985,-0.00534034,-0.269581,0.261251,0.926862,-0.0889094,0.286095,0.954067,-0.0560555,0.997869,0.0333882,0.014407,-0.212377,-0.019002,-105.683,2.825,88.345,0.319714,3.03529,1.56657,53.9387
1.96896,0.00369013,-0.0950256,-0.00576624,-0.260799,0.260989,0.929445,-0.0799409,0.285369,0.955078,-0.0514455,0.998226,0.0299672,0.011561,-0.210783,-0.015715,-105.995,2.84,88.348,0.317662,3.11771,1.51036,54.4974
2.02444,-1,-1,0.0886947,-0.251136,0.261097,0.932072,-0.0702044,0.285266,0.955874,-0.0474378,0.998541,0.0258103,0.01779,-0.211885,-0.017,-106.674,2.874,88.358,1.23027,6.30127,1.27764,56.7175
2.05697,1,0.557808,0.0275416,-0.241985,0.260499,0.934657,-0.0598641,0.283918,0.956978,-0.0479329,0.998312,0.0328069,0.017867,-0.233214,-0.018758,-107.124,2.895,88.371,1.36277,5.27026,2.2731,56.3229
2.11262,0.00488921,-0.0938265,-0.0144263,-0.224949,0.260768,0.938828,-0.0416896,0.282865,0.958253,-0.0505976,0.998254,0.0304608,0.017032,-0.252543,-0.018939,-107.927,2.934,88.382,0.339901,5.35405,1.2953,55.9663
2.13952,0.00571686,-0.0909688,-0.0139771,-0.215269,0.260797,0.941087,-0.0325838,0.283294,0.958479,-0.0463413,0.998594,0.0257338,0.018717,-0.249095,-0.021454,-108.284,2.953,88.389,0.335706,5.56945,1.2637,55.5806
2.19417,0.00558363,-0.126142,-0.0109128,-0.205041,0.260343,0.943493,-0.0224634,0.282103,0.959121,-0.0531422,0.998153,0.0294326,0.018818,-0.292724,-0.021658,-109.149,2.999,88.405,0.337236,6.15655,1.21839,54.2231
2.22304,0.0054504,-0.125875,-0.0109128,-0.194666,0.260378,0.945679,-0.0112966,0.281485,0.959499,-0.0546314,0.998172,0.025835,0.018173,-0.283681,-0.018307,-109.645,3.016,88.41,0.324318,6.55404,1.18567,53.1636
2.2817,1,0.216795,0.0243935,-0.173131,0.26004,0.94995,0.0102792,0.280511,0.959796,-0.0557371,0.998072,0.0273081,0.016491,-0.296379,-0.022265,-110.586,3.062,88.421,1.17847,6.33387,1.90615,50.4754
2.31013,1,0.120736,-0.169591,-0.160757,0.259568,0.952251,0.0224643,0.279467,0.959892,-0.0582415,0.997872,0.0293251,0.018566,-0.291487,-0.018929,-111.09,3.081,88.425,1.10436,5.97417,1.80043,49.0164
2.36743,0.197303,1,-1,-0.14838,0.259794,0.954196,0.0345909,0.279008,0.959665,-0.0564002,0.998038,0.0271784,0.018114,-0.257267,-0.018451,-111.984,3.123,88.432,1.65186,4.29024,2.40258,45.6099
2.396,-0.0569018,0.121668,-0.197037,-0.136331,0.258719,0.956284,0.0467494,0.277873,0.95948,-0.0585169,0.997641,0.0358849,0.015817,-0.256085,-0.01566,-112.386,3.139,88.434,0.522437,4.2129,1.26726,45.55
2.45333,0.00358516,-0.0539305,-0.00545032,-0.111694,0.258319,0.959581,0.0709401,0.276101,0.958507,-0.0540705,0.998115,0.0290209,0.018251,-0.250366,-0.016001,-113.222,3.17,88.443,0.352714,4.01438,0.999508,46.2811
2.47937,0.00382546,-0.0512616,-0.00548811,-0.101074,0.258298,0.960763,0.082323,0.2752,0.957856,-0.0543856,0.998093,0.02919,0.015536,-0.248378,-0.014128,-113.575,3.183,88.446,0.354998,4.72478,0.966962,46.6334
2.53525,0.0163492,-0.0299446,0.00557008,-0.0909649,0.257577,0.961966,0.0926299,0.274563,0.957097,-0.0544698,0.997899,0.0350892,0.018056,-0.240753,-0.012728,-114.378,3.204,88.456,0.374498,7.0871,0.905073,47.224
2.56554,0.0156952,-0.0284911,0.00534728,-0.0791978,0.257544,0.963015,0.103639,0.273271,0.956338,-0.0587017,0.997827,0.0299124,0.014941,-0.254966,-0.016939,-114.806,3.217,88.46,0.389023,8.55467,0.878254,47.3152
2.62064,0.0142297,0.12699,0.0141405,-0.0575646,0.256686,0.964779,0.124753,0.271534,0.954309,-0.056237,0.997698,0.0378989,0.017006,-0.224802,-0.011849,-115.561,3.244,88.459,0.484737,11.0884,0.922361,47.181
2.65055,0.0136605,0.122422,0.0138307,-0.0473981,0.255533,0.965638,0.134615,0.270822,0.95317,-0.0571532,0.998093,0.0233299,0.015115,-0.245372,-0.014588,-115.962,3.253,88.465,0.494788,12.4376,0.892992,46.9484
2.70526,0.0133699,0.118037,0.0131496,-0.036399,0.255284,0.966181,0.144708,0.269732,0.952,-0.024848,0.999283,0.0285598,0.006554,-0.208722,-0.013129,-116.698,3.28,88.46,0.457811,15.303,0.762786,46.4563
2.76191,0.0171004,0.176792,0.00888619,-0.0266169,0.254418,0.966728,0.154801,0.269247,0.950549,-0.0650392,0.99754,0.0261382,0.012911,-0.177549,-0.006308,-117.324,3.308,88.459,0.460708,17.0533,0.703604,46.2022
2.78978,0.0166721,0.169208,0.00801914,-0.00729288,0.254233,0.967115,0.17385,0.266681,0.947976,-0.0645579,0.997445,0.0306015,0.010662,-0.161538,-0.008907,-117.609,3.313,88.459,0.437568,17.8423,0.636347,46.1836
2.84443,0.0174715,0.155752,0.0133484,0.00202018,0.253212,0.967409,0.183416,0.266132,0.946326,-0.0643999,0.997535,0.0278624,0.010232,-0.165391,-0.00728,-118.097,3.327,88.463,0.419204,19.2581,0.540836,46.3221
2.86899,0.0167727,0.142743,0.0111517,0.0115455,0.252466,0.967537,0.191054,0.265075,0.94511,-0.0563159,0.99815,0.0228943,0.010345,-0.156991,-0.004702,-118.318,3.33,88.464,0.39512,19.8723,0.480878,46.4477
2.92396,0.0127757,0.187775,0.0160813,0.0255684,0.251773,0.967449,0.205223,0.263879,0.942471,-0.052815,0.998081,0.0323212,0.01325,-0.201564,-0.009084,-118.837,3.327,88.476,0.457077,21.0873,0.484534,46.9042
2.954,0.0121368,0.180264,0.0155659,0.0329491,0.250757,0.967489,0.211831,0.262814,0.941306,-0.0615276,0.997955,0.0173014,0.010769,-0.233846,-0.008878,-119.217,3.33,88.476,0.467955,21.5174,0.461956,47.2949
3.00846,0.014721,0.133276,0.00496694,0.0460006,0.250536,0.967014,0.224588,0.261353,0.938752,-0.0615822,0.997857,0.0221247,0.008952,-0.191687,-0.011248,-119.849,3.348,88.471,0.378055,22.2998,0.293374,47.9216
3.04096,0.0145158,0.127945,0.00502406,0.0544007,0.249118,0.966944,0.231974,0.260828,0.9371,-0.0543216,0.998108,0.0287945,0.010642,-0.197613,-0.006944,-120.195,3.353,88.468,0.368728,22.8057,0.24878,48.1983
3.09691,0.0144468,0.122827,0.00520681,0.062854,0.249301,0.966384,0.240539,0.2596,0.93528,-0.0597446,0.997817,0.0281391,0.009499,-0.186017,-0.009881,-120.797,3.362,88.463,0.344579,23.5749,0.169247,48.4463
3.156,0.0163121,0.196637,0.0205284,0.0702527,0.248338,0.966122,0.248213,0.258723,0.933516,-0.0710005,0.997077,0.0282365,0.002892,-0.121377,-0.010851,-121.335,3.386,88.451,0.346318,24.0196,0.134604,48.3957
3.18844,0.0160433,0.188516,0.0197073,0.0869119,0.247135,0.965075,0.263262,0.256948,0.929877,-0.0711778,0.9971,0.0269459,-0.006253,-0.019706,-0.001549,-121.468,3.395,88.437,0.252544,24.2963,0.166628,48.3397
3.25741,1,-1,-0.00653929,0.0941605,0.246375,0.96459,0.270082,0.256399,0.928071,-0.0589605,0.99784,0.0289702,-0.006289,0.045203,0.000924,-121.253,3.405,88.451,1.47188,28.1462,1.72851,47.478
3.2894,-0.154759,-1,-1,0.100595,0.246219,0.96398,0.27635,0.255573,0.926452,-0.052154,0.998625,0.00523593,-0.01349,0.040037,0.000073,-121.176,3.404,88.452,1.39196,27.4684,1.7994,45.7969
3.34658,1,-1,-1,0.105986,0.24568,0.963539,0.280811,0.254907,0.925293,-0.0622526,0.997572,0.0312283,0.002389,0.108915,-0.000215,-120.879,3.41,88.472,1.69759,26.0846,2.08727,41.9071
3.41278,1,0.0443599,0.19504,0.103694,0.245764,0.963767,0.27871,0.255378,0.925798,-0.0511481,0.997996,0.0372447,0.00118,0.147041,0.005659,-120.404,3.386,88.496,0.915178,27.2988,1.09606,40.8451
3.44144,0.425463,-1,0.103909,0.0996825,0.246155,0.964091,0.274831,0.255989,0.926789,-0.058325,0.997541,0.0388494,-0.004045,0.124905,0.001312,-120.184,3.382,88.507,1.20299,29.04,1.81507,39.9278
3.49799,0.0304323,0.243807,0.0163765,0.0962823,0.246713,0.964294,0.271865,0.256527,0.927514,-0.0764041,0.996926,0.0173414,-0.011071,0.157543,0.011141,-119.77,3.367,88.508,0.273543,28.8747,0.722688,38.9218
3.53015,0.0295987,0.234566,0.0158493,0.0851772,0.248942,0.964766,0.26164,0.258556,0.929889,-0.0665335,0.99739,0.0280624,-0.006881,0.219343,0.014536,-119.397,3.346,88.508,0.283704,28.708,0.834757,38.2336
3.58507,0.0261347,0.281197,0.0238432,0.0743946,0.250106,0.965356,0.25107,0.260277,0.93232,-0.053383,0.998181,0.0280159,-0.015051,0.307852,0.022127,-118.357,3.308,88.498,0.302704,28.5184,0.943407,36.8884
3.63064,0.026934,0.281064,0.0242429,0.068269,0.250264,0.965768,0.244664,0.261382,0.933712,-0.0554341,0.998222,0.0218873,-0.022069,0.306727,0.021079,-117.872,3.286,88.497,0.301441,27.9583,0.992612,36.2105
3.68548,0.0277334,0.317836,0.0258417,0.0602313,0.251367,0.966016,0.237358,0.261928,0.935444,-0.0554045,0.997893,0.0337733,-0.017758,0.384019,0.019751,-116.83,3.256,88.49,0.310243,26.8347,1.08957,35.8349
3.71355,0.0276002,0.317969,0.0257084,0.0503486,0.252156,0.966376,0.228125,0.263477,0.937304,-0.0620108,0.99782,0.0225867,-0.021931,0.352657,0.004813,-116.25,3.241,88.491,0.301599,26.0022,1.08429,35.8034
3.76815,0.0289325,0.314505,0.0222444,0.0258617,0.253464,0.966999,0.205119,0.265662,0.941992,-0.0485244,0.998376,0.0298297,-0.025681,0.347315,0.021698,-115.177,3.228,88.465,0.275286,24.4562,1.12968,35.4273
3.80245,0.305387,0.0289905,0.273918,0.011984,0.254818,0.966915,0.191237,0.26745,0.944404,-0.0475608,0.998369,0.0315714,-0.024338,0.323521,0.006159,-114.504,3.218,88.454,0.430994,24.8252,1.33956,35.3016
3.86385,0.0244027,0.281464,0.0209121,-0.0173928,0.256237,0.966458,0.162454,0.270327,0.948964,-0.0500611,0.998355,0.0279482,-0.018847,0.320419,0.019361,-113.405,3.196,88.442,0.251421,23.6896,1.20801,33.2119
3.89235,0.0241362,0.281464,0.0209121,-0.0319639,0.256701,0.965962,0.148261,0.271649,0.950908,-0.0603388,0.997786,0.0279744,-0.022957,0.3111,0.009632,-112.868,3.191,88.435,0.236281,23.0866,1.21333,31.9513
3.95075,0.0264011,0.271471,0.0245094,-0.0462342,0.257842,0.96508,0.134838,0.272895,0.952548,-0.0476581,0.998463,0.0282874,-0.022293,0.31067,-0.001415,-111.834,3.205,88.418,0.207935,21.9221,1.25048,29.6442
3.97723,0.0264011,0.271871,0.024909,-0.0613398,0.258022,0.96419,0.121344,0.274396,0.95393,-0.0581512,0.997903,0.028409,-0.025947,0.298903,-0.015071,-111.358,3.234,88.408,0.194373,21.1598,1.24764,28.6755
4.0324,0.02347,0.261213,0.0149167,-0.0871114,0.259372,0.961841,0.0945563,0.27691,0.956232,-0.0461173,0.998526,0.0286316,-0.017258,0.236656,-0.010951,-110.486,3.307,88.387,0.189842,19.1769,1.23136,26.6935
4.0602,0.0238697,0.260546,0.0155829,-0.100614,0.259802,0.960406,0.0815867,0.277627,0.957218,-0.0494237,0.998297,0.0310049,-0.017701,0.173957,-0.014927,-110.176,3.331,88.377,0.21508,18.1285,1.18451,25.6015
4.11458,0.0260014,0.24669,0.0115859,-0.125941,0.259879,0.957393,0.0568341,0.278873,0.958645,-0.0700233,0.99694,0.0347568,-0.01784,0.180015,-0.060521,-109.695,3.483,88.339,0.192164,15.6549,1.20603,22.9182
4.13962,0.0258682,0.246824,0.0117192,-0.136274,0.259463,0.95609,0.0464072,0.28002,0.958872,-0.0469427,0.998424,0.0307521,-0.009666,0.165456,-0.025616,-109.44,3.548,88.334,0.197068,14.6848,1.21539,21.7343
4.1946,0.0202725,0.203523,0.00865484,-0.143811,0.259172,0.955064,0.0386507,0.279829,0.959271,-0.0584138,0.997835,0.0302281,-0.020535,0.072594,-0.066132,-109.154,3.657,88.307,0.230562,12.8738,1.16975,19.0486
4.22247,0.0194616,0.195255,0.00856445,-0.151021,0.259147,0.953958,0.0312552,0.27994,0.959509,-0.0562189,0.997962,0.0302011,-0.011899,0.114089,-0.089054,-108.992,3.809,88.29,0.191169,12.0069,1.21202,17.6905
4.28246,0.0185552,0.187572,0.00873348,-0.158211,0.257892,0.953132,0.0245106,0.280025,0.95968,-0.072838,0.996784,0.0333969,-0.009111,0.005475,-0.068762,-108.812,4.078,88.274,0.275765,10.197,1.14446,14.9212
4.33758,0.0148713,0.168558,0.00684932,-0.162499,0.257675,0.952469,0.020119,0.280053,0.959774,-0.0731315,0.996683,0.0357012,-0.007783,0.06128,-0.124381,-108.701,4.38,88.249,0.213941,8.83113,1.19104,13.0147
4.36415,0.0141485,0.161944,0.00657534,-0.1701,0.256421,0.95148,0.0120148,0.280125,0.959888,-0.0742048,0.996625,0.0351175,-0.005769,0.045369,-0.11543,-108.631,4.555,88.244,0.218179,8.24032,1.18873,12.4427
4.42716,-0.169844,0.110783,-0.00474931,-0.171819,0.25553,0.951411,0.00996977,0.279834,0.959997,-0.0878545,0.995617,0.0320771,-0.011036,0.046757,-0.16213,-108.543,5.016,88.219,0.268964,7.06095,1.23809,12.2632
4.45735,-0.801093,0.00752884,0.185372,-0.173382,0.255644,0.951097,0.00827669,0.279827,0.960015,-0.0909904,0.995087,0.039025,-0.006379,0.04459,-0.166015,-108.454,5.335,88.213,0.872555,7.26583,1.49126,13.3425
4.51343,0.0168131,0.186725,0.0148357,-0.177986,0.253259,0.950884,0.00427868,0.279863,0.960031,-0.0972337,0.994704,0.0332964,-0.003612,0.006843,-0.126701,-108.426,5.789,88.2,0.281447,6.20486,1.11643,14.6151
4.54303,0.0165243,0.179,0.0142423,-0.179341,0.251942,0.950979,0.0018814,0.279558,0.960127,-0.0988812,0.994628,0.0306134,-0.001254,0.002845,-0.117428,-108.412,6.002,88.199,0.276823,5.72847,1.12037,15.5459
4.60857,-1,1,1,-0.183596,0.249524,0.950805,-0.00149692,0.278942,0.960307,-0.10904,0.993661,0.0273626,0.00156,-0.043594,-0.05594,-108.56,6.296,88.197,1.76417,6.41687,0.936277,16.0714
4.63717,0.00733136,0.109054,-1,-0.184326,0.248513,0.950929,-0.00317317,0.278928,0.960307,-0.110742,0.993507,0.026075,0.001414,-0.015207,-0.057265,-108.601,6.39,88.194,1.06031,3.66059,1.96471,16.7398
4.69389,-0.00132867,-0.0580183,-0.00281135,-0.184734,0.247276,0.951172,-0.00355176,0.278604,0.960399,-0.129644,0.990603,0.0435589,0.010523,-0.027229,0.003889,-108.677,6.465,88.204,0.166217,3.82461,1.34245,19.8829
4.72443,-0.00165923,-0.0555697,-0.00129197,-0.184087,0.247329,0.951284,-0.00284679,0.278315,0.960486,-0.113514,0.993453,0.0128993,0.007187,-0.04871,-0.001469,-108.728,6.47,88.208,0.187233,4.14585,1.31118,21.5883
4.77778,-0.00405739,-0.153628,-0.0155477,-0.181648,0.246222,0.952039,-0.000496547,0.278578,0.960414,-0.109793,0.993246,0.0375176,0.015749,-0.104284,0.037075,-108.932,6.392,88.223,0.204719,4.83832,1.35307,24.7285
4.80749,-0.0041509,-0.146843,-0.0141584,-0.180999,0.24587,0.952254,0.000170908,0.278611,0.960404,-0.113575,0.992841,0.0369756,0.015675,-0.104522,0.055005,-109.104,6.303,88.227,0.218747,5.26251,1.34357,26.4743
4.86242,-0.00721522,-0.153105,-0.0112273,-0.177326,0.246723,0.952724,0.00356928,0.278599,0.960401,-0.116146,0.992902,0.025595,0.009388,-0.05737,0.055415,-109.354,6.124,88.238,0.219392,6.04917,1.35477,29.5661
4.89204,-0.00705451,-0.146725,-0.011034,-0.173566,0.247233,0.953284,0.00828612,0.27857,0.96038,-0.108541,0.99346,0.0354295,0.008172,-0.013384,0.05839,-109.394,6.028,88.247,0.225771,6.34007,1.36724,31.0596
4.94698,-0.0153148,-0.264901,-0.0148977,-0.168879,0.247671,0.954012,0.0123423,0.278542,0.960345,-0.0996033,0.994583,0.0297153,-0.001781,-0.038722,0.062662,-109.489,5.86,88.253,0.2663,6.98452,1.4066,33.7952
4.97925,-0.0153148,-0.264635,-0.015031,-0.164881,0.248193,0.954576,0.0163972,0.278509,0.960294,-0.0953002,0.995131,0.0251544,0.002741,-0.017644,0.050792,-109.525,5.758,88.254,0.26858,7.3314,1.39065,35.2559
5.04529,0.390241,0.0896271,0.0240058,-0.161014,0.249033,0.955017,0.0201333,0.278797,0.960139,-0.107763,0.993872,0.0246227,-0.009123,-0.074978,0.075696,-109.73,5.459,88.238,0.611773,7.58294,1.20425,37.7003
5.07518,-0.0567498,0.0437956,-0.37289,-0.159951,0.249377,0.955106,0.0221421,0.278471,0.96019,-0.0944363,0.994749,0.0394506,0.0062,0.027138,0.049307,-109.749,5.362,88.235,0.463825,7.8352,1.30595,38.9043
5.12997,-0.0230423,-0.338312,-0.0246236,-0.158279,0.249744,0.955288,0.0234926,0.278456,0.960162,-0.0883462,0.995838,0.0223933,-0.001813,-0.069794,0.09138,-109.813,5.127,88.235,0.275819,8.33411,1.2847,40.7567
5.15647,-0.0225093,-0.338312,-0.0246236,-0.156363,0.250113,0.955507,0.0255329,0.278147,0.960199,-0.0916053,0.995302,0.0313521,0.002774,-0.013156,0.06668,-109.872,5.002,88.23,0.310685,8.66661,1.29428,41.5725
5.21053,-0.0143822,-0.313397,-0.0243571,-0.153302,0.250543,0.95589,0.0288984,0.27778,0.96021,-0.0831497,0.996166,0.0272071,0.003919,-0.063974,0.084073,-109.913,4.791,88.243,0.24459,9.24397,1.17618,42.9095
5.23922,-0.0145155,-0.313264,-0.0239574,-0.151052,0.250965,0.956138,0.0302645,0.277474,0.960256,-0.0812615,0.996296,0.0281093,0.000889,-0.068307,0.086714,-110.029,4.648,88.235,0.238675,9.70867,1.14124,43.6235
5.30407,1,0.0481922,-0.316533,-0.148668,0.251359,0.956408,0.0333387,0.277104,0.960261,-0.0689295,0.997336,0.0238602,0.006485,-0.082302,0.095668,-110.171,4.309,88.247,1.11155,9.49745,1.49972,45.0831
5.33198,-1,-1,0.0896888,-0.146668,0.252075,0.956528,0.0360196,0.276762,0.960263,-0.0706851,0.997286,0.0206208,0.005605,-0.069583,0.095059,-110.319,4.125,88.243,1.3382,10.7426,1.85819,45.6771
5.38692,-0.0150484,-0.233725,0.0121482,-0.144057,0.25255,0.9568,0.0380113,0.276424,0.960284,-0.0682082,0.997124,0.0330336,0.005043,-0.053278,0.088561,-110.45,3.873,88.25,0.161841,11.7181,0.895932,46.3487
5.41039,-0.0150484,-0.233459,0.0118818,-0.142022,0.252883,0.957016,0.0407078,0.276382,0.960185,-0.0606361,0.997739,0.028991,0.004055,-0.06754,0.091451,-110.536,3.739,88.252,0.149713,12.1479,0.856664,46.6205
5.46516,0.203584,0.108812,0.0228067,-0.137094,0.253539,0.957561,0.0464603,0.275993,0.960036,-0.0633348,0.997318,0.0366729,0.009187,-0.064023,0.081717,-110.742,3.46,88.261,0.248404,12.2941,0.533091,46.9933
5.49442,0.196923,0.04233,-0.189964,-0.13312,0.253825,0.958046,0.049138,0.275639,0.960005,-0.0551816,0.997951,0.0323759,0.008955,-0.059261,0.07156,-110.836,3.337,88.267,0.253173,12.1425,0.62452,47.2154
5.54919,-0.0139825,-0.0705168,0.066773,-0.130769,0.254857,0.958096,0.0518594,0.274681,0.960136,-0.0564297,0.99805,0.0266815,0.00446,-0.061219,0.081288,-111.015,3.087,88.278,0.117619,13.0603,0.549298,47.6418
5.57669,-0.0138069,-0.067952,0.0643579,-0.127483,0.254693,0.958582,0.0555565,0.274588,0.959956,-0.0520881,0.998167,0.0308026,0.005547,-0.041704,0.081252,-111.09,2.96,88.284,0.124586,13.5897,0.540928,47.8666
5.63128,-0.00261552,-0.0474344,0.11432,-0.121471,0.255525,0.959141,0.0616497,0.274143,0.959711,-0.0457724,0.998615,0.0259513,0.000388,-0.034075,0.09465,-111.189,2.689,88.292,0.149102,14.8246,0.482765,48.3317
5.66249,-0.0027667,-0.045537,0.109619,-0.118805,0.255615,0.959451,0.0643343,0.274081,0.959552,-0.0402195,0.998749,0.0297052,0.006744,-0.020511,0.096832,-111.236,2.511,88.298,0.151164,15.5182,0.467403,48.621
5.71704,0.000669422,-0.0341229,0.143733,-0.116862,0.256643,0.959415,0.06598,0.273758,0.959533,-0.0390347,0.99886,0.0274878,0.004114,-0.041562,0.091878,-111.324,2.232,88.311,0.179727,16.704,0.403417,49.1646
5.74752,0.000642645,-0.0330137,0.137983,-0.114403,0.256975,0.959623,0.0680008,0.273674,0.959416,-0.0384917,0.998952,0.0247447,0.005877,-0.029827,0.100894,-111.388,2.053,88.317,0.16383,17.2479,0.381847,49.4643
5.80245,0.0132792,0.00475887,0.10164,-0.111632,0.257662,0.959765,0.0709936,0.27331,0.959303,-0.0286549,0.999136,0.0300877,0.003654,-0.029554,0.092026,-111.481,1.721,88.334,0.137049,17.9559,0.28937,49.9092
5.82972,0.0127481,0.00405691,0.0969346,-0.110323,0.25807,0.959807,0.0730173,0.272643,0.959341,-0.0326612,0.998923,0.0329674,0.006096,-0.015328,0.090283,-111.506,1.59,88.338,0.128047,18.2249,0.278104,50.0977
5.89442,0.0119487,0.0656097,0.0261888,-0.108068,0.258406,0.959973,0.0743676,0.272913,0.95916,-0.0227183,0.999195,0.0330541,0.004224,-0.029718,0.098054,-111.564,1.249,88.363,0.137981,18.3147,0.140114,50.285
5.92568,0.0108312,0.0624737,0.0256528,-0.106995,0.259084,0.95991,0.0763886,0.272861,0.959016,-0.0203379,0.999317,0.0308646,0.00276,-0.01874,0.105857,-111.604,1.057,88.368,0.124462,18.3552,0.128876,50.3221
5.9806,0.00963214,0.0400909,-0.0285723,-0.104283,0.260422,0.959846,0.0787387,0.272192,0.959016,-0.0108081,0.999442,0.0316085,0.005741,-0.015192,0.108327,-111.631,0.732,88.384,0.119375,18.4365,0.103347,50.3027
6.01216,0.00924686,0.038871,-0.0274294,-0.102944,0.260461,0.95998,0.0804096,0.272467,0.958799,-0.00900428,0.999578,0.0276268,0.004738,-0.039176,0.120927,-111.675,0.531,88.391,0.137823,18.5096,0.117416,50.2452
6.06656,0.0281657,0.111216,-0.0685978,-0.10192,0.261438,0.959824,0.0813842,0.271813,0.958903,-0.00142944,0.999482,0.0321623,0.004215,-0.011433,0.109114,-111.751,0.161,88.4,0.176681,18.4256,0.187205,49.9412
6.09323,0.0267833,0.107023,-0.0662376,-0.100916,0.26114,0.960011,0.082062,0.272102,0.958763,-0.000102348,0.999638,0.0269177,0.00494,-0.02104,0.112069,-111.768,-0.012,88.407,0.178559,18.4307,0.220551,49.7625
6.14971,0.0133269,0.0694515,-0.0788946,-0.0982028,0.262472,0.959929,0.0851359,0.271089,0.958782,0.00878666,0.999738,0.0211493,0.003539,-0.019662,0.117968,-111.829,-0.375,88.418,0.152333,18.7398,0.242884,49.3825
6.17742,0.0130496,0.0665455,-0.0765062,-0.0975145,0.26311,0.959825,0.0861246,0.271075,0.958698,0.0115602,0.999596,0.0259848,0.004178,-0.027573,0.119892,-111.854,-0.58,88.427,0.149789,18.967,0.275934,49.1765
6.23293,-0.00853383,0.0404322,-0.0827681,-0.0948934,0.264101,0.959816,0.0881426,0.270397,0.958705,0.020498,0.999405,0.0277386,0.000536,-0.014352,0.115939,-111.928,-0.954,88.433,0.118103,19.6592,0.296502,48.7504
6.26213,-0.00908779,0.0377917,-0.07869,-0.0934598,0.264474,0.959853,0.0894761,0.270357,0.958593,0.02075,0.999474,0.0249408,0.005978,-0.017023,0.124649,-111.948,-1.144,88.441,0.116563,20.0183,0.32589,48.4923
6.31694,-0.0249423,-0.973966,-1,-0.0928647,0.264774,0.959828,0.091124,0.269986,0.958543,0.0289049,0.999269,0.0250099,0.001249,-0.01757,0.11175,-112.014,-1.524,88.45,1.37682,19.4142,1.06079,48.3
6.34576,0.998407,1,-1,-0.0914299,0.265146,0.959864,0.0924563,0.269944,0.958427,0.0276983,0.999183,0.0294358,0.003612,-0.01837,0.1112,-112.035,-1.714,88.454,1.70288,16.0402,1.86024,46.6879
6.40039,-0.00362531,0.069634,-0.107601,-0.0887157,0.266468,0.959752,0.0941731,0.268968,0.958534,0.0401036,0.998906,0.0240417,0.002217,-0.014561,0.10851,-112.093,-2.064,88.459,0.0778003,16.9844,0.48801,45.8667
6.42757,-0.003864,0.0664649,-0.103425,-0.0876873,0.26643,0.959857,0.0954945,0.26862,0.958501,0.0376849,0.998955,0.0258702,0.002572,-0.019211,0.105608,-112.115,-2.233,88.463,0.0714526,17.8049,0.519224,45.5664
6.4822,0.00127873,0.0552369,0.0678799,-0.0866851,0.267136,0.959752,0.0968598,0.268259,0.958465,0.0467425,0.998431,0.0308215,0.002483,-0.020044,0.09283,-112.175,-2.549,88.465,0.214296,20.3639,0.656005,45.1548
6.511,-1,1,-0.00646313,-0.085637,0.267752,0.959675,0.0979076,0.268232,0.958366,0.0468229,0.998513,0.0279097,-0.000565,-0.013717,0.094721,-112.198,-2.695,88.466,1.43218,20.3214,1.83949,43.961
6.57959,-0.00231851,0.0680271,-0.116112,-0.0836407,0.268795,0.959559,0.0998931,0.267234,0.95844,0.0560616,0.99808,0.0263459,0.002041,-0.001781,0.080516,-112.228,-3.054,88.472,0.0768295,22.1336,0.656895,42.6748
6.60887,-0.00273738,0.0659455,-0.110189,-0.0822624,0.268449,0.959775,0.101213,0.266883,0.958399,0.0603169,0.997832,0.0263312,0.004599,-0.01769,0.092416,-112.24,-3.191,88.478,0.0791057,22.9626,0.692902,42.2052
6.66398,0.725771,1,0.877055,-0.0822881,0.268676,0.959709,0.101871,0.266865,0.958335,0.059829,0.997865,0.0261816,-0.002127,-0.030167,0.097361,-112.351,-3.517,88.487,1.59921,26.6267,2.20767,40.9005
6.69543,0.00245864,0.0456944,-1,-0.0820335,0.269105,0.959611,0.10256,0.266559,0.958346,0.0656574,0.997421,0.0289995,0.003031,-0.009742,0.085659,-112.372,-3.682,88.489,0.809476,24.4221,0.840515,39.169
6.76039,0.0069885,0.0526224,-0.0964661,-0.0789659,0.269809,0.959671,0.104577,0.26586,0.958322,0.0664257,0.997407,0.0276944,-0.001215,-0.024493,0.090742,-112.469,-4.033,88.496,0.095226,25.3939,0.812169,37.8132
6.79002,0.00670896,0.0503896,-0.0928633,-0.0772084,0.270124,0.959725,0.105933,0.265161,0.958367,0.0757955,0.996619,0.0317,0.003424,-0.005279,0.082033,-112.481,-4.182,88.497,0.112193,26.1499,0.819651,37.376
6.84595,-0.00110561,0.0485019,-0.0855675,-0.0761715,0.270452,0.959715,0.10726,0.265114,0.958233,0.0753276,0.996839,0.0252455,-0.001449,-0.0314,0.083195,-112.555,-4.452,88.501,0.116125,27.413,0.877798,36.5505
6.87393,-0.0017009,0.046306,-0.0824006,-0.0748261,0.270481,0.959813,0.107914,0.265124,0.958157,0.0757776,0.996752,0.0272677,-0.002072,-0.014325,0.076383,-112.588,-4.579,88.502,0.124455,27.9801,0.881577,36.1623
6.94086,-0.00201657,0.0440701,-0.0793604,-0.0732574,0.270852,0.959829,0.110291,0.263774,0.958258,0.0904861,0.995552,0.0262471,-0.001443,-0.035803,0.074639,-112.658,-4.87,88.505,0.124625,29.5087,0.933751,35.4446
6.99887,0.000494232,0.0134014,-0.0859065,-0.0719107,0.270643,0.95999,0.111643,0.263445,0.958192,0.0877071,0.995715,0.0293038,0.001239,-0.009773,0.064798,-112.726,-5.111,88.507,0.129981,30.594,0.909708,34.9458
7.03017,0.000602365,0.0131212,-0.0822144,-0.0697201,0.271222,0.959988,0.113603,0.262723,0.95816,0.0917608,0.995267,0.0319834,0.000319,-0.020894,0.06681,-112.752,-5.234,88.509,0.12157,31.1518,0.930232,34.7369
7.08508,0.00912916,-1,1,-0.0691063,0.271524,0.959947,0.114325,0.262088,0.958248,0.0913536,0.995387,0.0293272,-0.000062,-0.009548,0.058356,-112.822,-5.438,88.51,1.57666,39.8426,1.55804,41.7082
7.11317,1,1,-1,-0.0664119,0.271576,0.960123,0.116636,0.261685,0.95808,0.0993164,0.994592,0.0303863,0.001015,-0.011973,0.058603,-112.833,-5.531,88.512,1.6003,35.735,2.16856,37.9315
7.16785,0.000335903,0.0123218,-0.0864778,-0.0659273,0.271683,0.960126,0.117994,0.261316,0.958014,0.0980213,0.994727,0.0301525,-0.000188,-0.017985,0.058643,-112.903,-5.729,88.515,0.0688034,34.8487,0.956959,36.6308
7.19766,0.000194564,0.0124684,-0.0827629,-0.0644911,0.271648,0.960233,0.118961,0.260649,0.958076,0.104957,0.993989,0.0311512,0.000267,-0.012473,0.05535,-112.924,-5.827,88.517,0.072683,34.8647,0.959031,36.3642
7.25582,-0.00134804,0.0112023,-0.0814988,-0.0637052,0.271941,0.960203,0.120345,0.259988,0.958083,0.105284,0.994049,0.0279595,-0.00437,-0.038024,0.06741,-113.012,-6.083,88.525,0.0668007,34.9249,0.981993,35.8971
7.28986,-0.00167783,0.0104984,-0.0784947,-0.0617932,0.271698,0.960397,0.12099,0.259659,0.958091,0.104215,0.994275,0.0235784,-0.001906,-0.028846,0.060928,-113.034,-6.172,88.524,0.0695747,34.8651,0.977182,35.5714
7.35507,-0.000345513,-0.00588906,-0.0870215,-0.0606127,0.272331,0.960293,0.122346,0.259289,0.958019,0.11264,0.993168,0.030479,0.000647,-0.032741,0.066721,-113.046,-6.389,88.524,0.074131,34.9574,0.959203,35.1047
7.38481,-0.000331692,-0.00616511,-0.0835406,-0.0596478,0.272333,0.960352,0.123367,0.258636,0.958065,0.112581,0.993309,0.0257445,-0.005799,-0.037129,0.066299,-113.08,-6.51,88.526,0.0686791,35.0056,0.962851,34.94
7.44947,-0.00389968,-0.00758123,-0.076234,-0.0562976,0.272111,0.960618,0.126354,0.257877,0.95788,0.117685,0.992752,0.0243557,-0.001932,-0.016096,0.052897,-113.081,-6.71,88.525,0.0687539,35.2022,0.939063,34.7077
7.48298,-0.00361579,-0.00727798,-0.0735684,-0.055916,0.27233,0.960578,0.12702,0.258159,0.957716,0.119429,0.99262,0.0210457,-0.002677,-0.025181,0.056371,-113.087,-6.82,88.526,0.0644851,35.3099,0.941156,34.6537
7.53996,-0.0028164,-0.00194873,-0.0883571,-0.0527625,0.271861,0.960889,0.13003,0.256495,0.957759,0.122148,0.992221,0.0240408,-0.001615,-0.020269,0.057789,-113.09,-7.014,88.532,0.0671719,35.4456,0.92262,34.5849
7.56962,-0.00257585,-0.00174288,-0.0850786,-0.051965,0.271805,0.960948,0.131016,0.256436,0.957641,0.124434,0.991894,0.0257449,-0.001408,-0.016913,0.057968,-113.092,-7.105,88.531,0.0639094,35.5274,0.911883,34.603
7.6245,-0.00451924,-0.00141736,-0.0795011,-0.0503585,0.271764,0.961046,0.132721,0.255437,0.957673,0.12446,0.991899,0.0254228,-0.003624,-0.021978,0.055694,-113.102,-7.289,88.533,0.0569391,35.6964,0.900552,34.7601
7.65791,-0.00433847,-0.00161647,-0.0761932,-0.0485557,0.271825,0.961121,0.133689,0.255101,0.957628,0.129386,0.991281,0.0249173,-0.000335,-0.010707,0.054223,-113.092,-7.396,88.531,0.053815,35.8448,0.877551,34.9381
7.71442,-0.00527109,0.000248769,-0.0736618,-0.0471596,0.271559,0.961266,0.135404,0.25407,0.957661,0.132649,0.990831,0.0256708,-0.001988,-0.021536,0.049769,-113.083,-7.566,88.528,0.045234,36.1372,0.866863,35.3665
7.74349,-0.00531605,0.000878328,-0.0707153,-0.0461294,0.27151,0.961329,0.136371,0.253734,0.957613,0.131943,0.991003,0.0224324,-0.002399,-0.01514,0.054329,-113.084,-7.655,88.53,0.0416794,36.2617,0.847019,35.6248
7.79867,0.000146428,-0.00485062,-0.067118,-0.0454233,0.271598,0.961338,0.136686,0.253397,0.957657,0.138762,0.989919,0.0283855,-0.001662,-0.018382,0.050717,-113.06,-7.817,88.527,0.0293071,36.6216,0.819046,36.247
7.82979,0.000140571,-0.00478449,-0.0644333,-0.0444546,0.271594,0.961385,0.137745,0.252729,0.957682,0.136356,0.990417,0.0219435,-0.00254,-0.028992,0.058054,-113.074,-7.922,88.529,0.0294349,36.7663,0.810453,36.6225
7.88442,-1,0.29432,0.0550751,-0.0434579,0.271917,0.961339,0.139051,0.252364,0.957589,0.144172,0.989202,0.0263243,-0.001248,-0.011306,0.05405,-113.059,-8.097,88.526,1.04886,37.5043,1.34439,38.1142
7.91459,0.0102661,-1,1,-0.0420718,0.271559,0.961502,0.139735,0.252019,0.957581,0.14279,0.989412,0.0259619,-0.001566,-0.023761,0.056885,-113.062,-8.186,88.527,1.44183,42.1491,1.33115,42.0562
7.97094,-0.00425606,-0.0174415,-0.0289938,-0.0407351,0.27131,0.96163,0.141077,0.251334,0.957564,0.146887,0.988881,0.0231873,-0.003259,-0.009402,0.046092,-113.047,-8.36,88.526,0.0485075,42.2604,0.711806,42.8351
7.99799,-0.00421372,-0.0169996,-0.027962,-0.0403953,0.271641,0.96155,0.141734,0.2513,0.957476,0.146406,0.988955,0.0231059,-0.001505,-0.018003,0.045199,-113.041,-8.433,88.524,0.05374,41.8945,0.703535,42.8836
8.05438,1,0.0978457,0.0667654,-0.0384463,0.27171,0.961611,0.143389,0.250277,0.957497,0.151844,0.988114,0.0239431,-0.002572,-0.020827,0.047782,-113.042,-8.583,88.526,1.06868,40.9417,1.44711,42.9021
8.08556,-1,0.0175073,0.0619691,-0.0376454,0.271567,0.961683,0.143717,0.25028,0.957447,0.155689,0.98767,0.0163776,-0.005305,-0.023447,0.044698,-113.045,-8.676,88.526,0.94182,41.1772,1.03022,43.6136
8.14014,0.863388,-1,1,-0.0370919,0.271725,0.96166,0.144101,0.249639,0.957557,0.158277,0.987059,0.0257494,-0.003106,-0.014727,0.044081,-113.03,-8.807,88.525,1.65429,47.568,1.64334,48.99
8.20218,0.104103,0.012711,0.0478466,-0.0363117,0.271311,0.961806,0.145088,0.249271,0.957504,0.150299,0.988367,0.0232569,-0.002066,-0.016271,0.034601,-113.036,-8.943,88.525,0.1364,46.0307,0.642083,49.06
8.23194,-1,1,0.160693,-0.0347008,0.27067,0.962047,0.147088,0.248864,0.957304,0.154859,0.987555,0.0274716,-0.003044,-0.002498,0.026567,-113.014,-8.989,88.522,1.44506,44.5487,1.76835,49.0873
8.28654,-1,1,-1,-0.0353394,0.270999,0.961931,0.147423,0.247922,0.957497,0.159657,0.986792,0.027425,-0.000011,-0.00113,0.005674,-112.973,-9.042,88.517,1.78415,35.9526,1.94365,43.6361
8.31253,0.00870971,0.101177,1,-0.0333467,0.270682,0.962091,0.148442,0.247576,0.957429,0.159197,0.986773,0.0305715,-0.001329,0.002319,-0.00463,-112.946,-9.043,88.517,0.962557,38.0977,1.23519,45.4806
8.37609,-0.00194879,-0.00940542,-0.0215669,-0.0320118,0.270435,0.962206,0.149443,0.246886,0.957452,0.160609,0.986892,0.0157641,-0.000321,-0.000548,-0.013578,-112.885,-9.016,88.515,0.0896618,38.1969,0.430697,45.4789
8.40595,-0.00225454,-0.00928501,-0.0212158,-0.0320118,0.270435,0.962206,0.150056,0.246869,0.95736,0.155089,0.987507,0.0278732,0.000276,0.009678,-0.022506,-112.848,-8.982,88.514,0.0893524,37.9773,0.399178,45.2357
8.46087,1,-1,1,-0.031676,0.270774,0.962122,0.149774,0.246886,0.9574,0.147346,0.988781,0.0245406,0.005685,0.040069,-0.036429,-112.739,-8.885,88.513,1.7622,44.3931,1.72025,49.268
8.48962,1,1,-1,-0.031676,0.270774,0.962122,0.149774,0.246886,0.9574,0.157699,0.987082,0.0282814,0.007271,0.054794,-0.045391,-112.634,-8.817,88.513,1.77009,39.6309,1.95271,46.0751
8.54449,-1,1,-1,-0.0320118,0.270435,0.962206,0.15006,0.247179,0.95728,0.154475,0.987698,0.0242994,0.00356,-0.001756,-0.039118,-112.515,-8.654,88.517,1.7457,31.4318,1.82806,41.0669
8.57681,-1,0.306606,1,-0.0320118,0.270435,0.962206,0.149421,0.247514,0.957293,0.150555,0.988326,0.0233197,0.002036,0.001261,-0.042844,-112.488,-8.587,88.521,1.4141,34.6601,1.46284,43.579
8.63508,-0.000522536,0.0178942,1,-0.0360172,0.271363,0.961803,0.146745,0.248583,0.95743,0.141025,0.989621,0.0275941,-0.000873,0.008741,-0.059728,-112.396,-8.368,88.517,1.0036,40.6754,1.05372,48.1738
8.66124,-1,0.108891,0.0593891,-0.0357374,0.271739,0.961707,0.14577,0.248954,0.957483,0.14086,0.989695,0.0257223,-0.002435,0.004502,-0.048277,-112.369,-8.307,88.514,0.9247,40.6171,0.903564,48.2866
8.71572,-0.000788999,0.00896767,-0.019617,-0.0357374,0.271739,0.961707,0.145405,0.249271,0.957456,0.136805,0.990249,0.0262771,0.000998,0.034285,-0.052201,-112.252,-8.156,88.495,0.122044,39.2293,0.17699,47.213
8.74129,-0.000885341,0.00886476,-0.0181928,-0.0363117,0.271311,0.961806,0.145088,0.249271,0.957504,0.145458,0.989011,0.0264376,-0.000711,0.025789,-0.044969,-112.185,-8.087,88.489,0.136702,38.6794,0.18267,46.6799
8.79615,-0.00341673,-0.00698975,-0.00580233,-0.0374085,0.270643,0.961953,0.145063,0.249901,0.957343,0.13892,0.99002,0.0237155,-0.007909,0.011171,-0.052452,-112.117,-7.958,88.474,0.152328,37.6576,0.185204,45.6073
8.82263,-0.00353587,-0.00696597,-0.00569814,-0.0384985,0.270981,0.961814,0.143717,0.25028,0.957447,0.139457,0.989765,0.0302989,-0.000433,0.049319,-0.071038,-112.038,-7.85,88.46,0.152825,37.1981,0.181953,45.0449
8.87724,-0.00262702,0.00252162,-0.00547021,-0.0394077,0.270713,0.961853,0.142412,0.250647,0.957546,0.13477,0.990639,0.0217272,-0.005132,-0.018279,-0.041809,-111.951,-7.675,88.45,0.168105,36.2473,0.204117,43.8717
8.90735,-0.00264984,0.00267655,-0.00563511,-0.0398027,0.270693,0.961843,0.142412,0.250647,0.957546,0.132583,0.990896,0.0233909,-0.002538,0.020672,-0.067723,-111.918,-7.581,88.441,0.157309,35.7753,0.209115,43.2243
8.96652,0.000525798,0.00448802,-0.00617712,-0.0420824,0.270308,0.961854,0.140136,0.251072,0.957771,0.130154,0.991192,0.0244613,-0.00375,-0.001298,-0.079012,-111.805,-7.302,88.426,0.155207,34.8417,0.220686,41.8494
8.98977,0.000376863,0.0040527,-0.00618584,-0.0431211,0.26997,0.961903,0.140136,0.251072,0.957771,0.117879,0.992618,0.0285241,-0.007976,-0.000396,-0.092874,-111.792,-7.193,88.422,0.153784,34.446,0.227893,41.2952
9.04468,-0.0016216,0.000188991,0.000209261,-0.0431926,0.270038,0.96188,0.139112,0.251414,0.95783,0.127627,0.991077,-0.0384497,0.018529,0.073045,-0.139398,-111.539,-6.749,88.389,0.163198,33.5403,0.303202,39.864
9.07241,-0.00104513,-7.43722E-05,0.00020089,-0.0437965,0.269735,0.961938,0.138139,0.251443,0.957963,0.118344,0.992077,0.042164,-0.003374,-0.011545,-0.110499,-111.475,-6.52,88.385,0.151746,33.2116,0.26494,39.2081
9.12792,0.000403594,-0.00135042,-0.00159777,-0.0463654,0.269516,0.961879,0.136772,0.252757,0.957814,0.113133,0.993162,0.0288199,0.004657,0.040274,-0.141231,-111.458,-6.149,88.377,0.137393,32.5878,0.329002,37.9162
9.15569,0.000515353,-0.0010406,-0.00127805,-0.0492424,0.268959,0.961892,0.133119,0.253211,0.958209,0.106251,0.99378,0.0333435,-0.004147,0.000562,-0.141029,-111.401,-5.919,88.376,0.129164,32.2553,0.311254,37.2572
9.21258,0.00151795,-0.0117427,-0.00250595,-0.0513206,0.268945,0.961787,0.132768,0.253874,0.958082,0.0922782,0.995279,0.0300796,0.00306,-0.00189,-0.12148,-111.418,-5.516,88.377,0.0979845,31.4077,0.359993,35.7816
9.24224,0.00145724,-0.0117846,-0.00240571,-0.0506545,0.268069,0.962067,0.132083,0.254188,0.958093,0.0952197,0.995107,0.0263591,-0.002692,-0.002505,-0.127138,-111.397,-5.321,88.377,0.0950334,31.0604,0.378533,35.039
9.29701,0.00127104,-0.00837151,-0.000135154,-0.0512612,0.267767,0.962119,0.131064,0.254865,0.958053,0.0835907,0.995944,0.033273,-0.000951,-0.017927,-0.11319,-111.387,-4.93,88.379,0.0744685,30.3177,0.40286,33.6003
9.32519,0.000964399,-0.00790874,0.000126056,-0.0524455,0.266878,0.962302,0.131362,0.255468,0.957852,0.0833649,0.996088,0.0293207,-0.00284,-0.010462,-0.105431,-111.392,-4.748,88.381,0.0662004,29.9735,0.432239,32.8569
9.38099,0.00242994,0.00541438,0.00505561,-0.0512561,0.266776,0.962395,0.13135,0.256094,0.957686,0.078103,0.996476,0.0305886,-0.000498,-0.009597,-0.100571,-111.373,-4.415,88.381,0.055084,29.3233,0.460612,31.4212
9.41262,0.00246065,0.004942,0.00421388,-0.0517243,0.266236,0.962519,0.13135,0.256094,0.957686,0.0727783,0.996879,0.0305791,-0.001619,-0.022287,-0.087704,-111.39,-4.248,88.384,0.0600399,28.9293,0.477307,30.573
9.46767,0.00261803,-0.00484833,0.0133822,-0.051472,0.265626,0.962701,0.131985,0.256688,0.95744,0.0681679,0.99721,0.0304102,0.003402,0.009628,-0.077954,-111.348,-3.988,88.384,0.0288708,28.3969,0.554626,29.2185
9.49498,0.0022575,-0.0046544,0.0125911,-0.0517733,0.264967,0.962866,0.131957,0.256981,0.957365,0.0702508,0.997073,0.0301803,-0.000217,-0.016428,-0.07139,-111.335,-3.873,88.387,0.0409805,28.1847,0.551426,28.5718
9.55123,-1,0.122981,0.0582894,-0.0506019,0.26491,0.962945,0.132611,0.257293,0.957191,0.0638705,0.997441,0.0321393,-0.001747,0.002188,-0.079132,-111.322,-3.634,88.385,0.988083,28.1071,1.18224,28.0552
9.57911,-1,0.00946812,0.0313767,-0.0506019,0.26491,0.962945,0.132293,0.25729,0.957236,0.0675258,0.997304,0.0287214,-0.002487,-0.003126,-0.067646,-111.297,-3.509,88.386,0.963185,28.194,1.22996,27.9039
9.63335,0.00692059,-0.0109163,0.062686,-0.0507367,0.264711,0.962992,0.132601,0.257918,0.957024,0.0545533,0.998101,0.0286047,-0.003591,-0.016302,-0.065199,-111.314,-3.313,88.385,0.0831673,27.8516,0.625359,27.1351
9.66528,0.00651587,-0.0104796,0.0603065,-0.0499517,0.264035,0.963219,0.133217,0.258178,0.956869,0.0546196,0.998059,0.0299132,-0.001085,-0.000263,-0.070384,-111.298,-3.187,88.382,0.0958131,27.653,0.657453,26.6802
9.71995,0.00904726,-0.0509819,0.085354,-0.0500557,0.263848,0.963265,0.133523,0.258803,0.956657,0.0542547,0.998143,0.0276893,-0.0013,-0.014726,-0.055624,-111.281,-2.987,88.384,0.126521,27.5733,0.708223,26.122
9.75489,0.00906908,-0.0491984,0.0818119,-0.0503296,0.263313,0.963397,0.133523,0.258803,0.956657,0.04984,0.998433,0.0254306,-0.003203,0.00072,-0.064173,-111.271,-2.872,88.381,0.143081,27.4733,0.736924,25.7729
9.8096,0.0102411,-0.0111621,0.0800743,-0.0493622,0.262824,0.96358,0.13353,0.25911,0.956573,0.0458295,0.998552,0.0281714,-0.001224,-0.013366,-0.05957,-111.228,-2.678,88.381,0.139334,27.1224,0.712651,25.1524
9.83432,0.00957569,-0.0100761,0.0767434,-0.0489671,0.262836,0.963597,0.133815,0.259088,0.956539,0.0450345,0.998502,0.0310758,-0.00071,-0.015435,-0.053632,-111.235,-2.6,88.381,0.137786,26.9717,0.722097,24.8952
9.89309,0.00586721,-0.0238702,0.0956728,-0.0489905,0.262387,0.963718,0.133815,0.259088,0.956539,0.04893,0.998501,0.0245163,-0.00114,-0.015621,-0.051942,-111.226,-2.416,88.382,0.139643,26.8423,0.74906,24.5611
9.92327,0.00550462,-0.0232991,0.0912064,-0.0490147,0.262125,0.963789,0.133496,0.259087,0.956584,0.0355669,0.999032,0.0258854,-0.000581,-0.03218,-0.047275,-111.248,-2.334,88.383,0.134594,26.6677,0.744238,24.3889
9.97804,0.00590431,-0.0450158,1,-0.0486803,0.262462,0.963713,0.134492,0.259705,0.956277,0.039813,0.998899,0.0248066,-0.000448,0.003912,-0.043335,-111.245,-2.201,88.38,0.926088,30.9035,0.99442,28.9373
10.0064,-0.74139,0.108067,0.0323182,-0.0482524,0.262111,0.963831,0.134812,0.259365,0.956324,0.0361316,0.998927,0.0289869,0.002762,0.003914,-0.038834,-111.216,-2.133,88.381,0.63778,30.2829,1.00256,28.637
