test for writing sensor data,,,,,,,,,,,,,,,,,,,,,,
Time, omega_x, omega_y, omega_z,cam1_x, cam1_y, cam1_z, cam2_x, cam2_y, cam2_z,g_x, g_y, g_z,true_omega_x, true_omega_y, true_omega_z,true_attitude_x, true_attitude_y, true_attitude_z,bias_err_proposed, attitude_err_proposed,bias_err_mahony, attitude_err_mahony
0.000000192,0.0147686,0.0613521,0.00271446,-0.215278,0.26352,0.940326,-0.0335482,0.285702,0.957731,-0.0383472,0.999074,0.0195315,-0.002319,-0.002877,-0.000371,-107.074,2.601,88.582,0.0665348,48.1802,0.0665348,48.1802
0.0580092,-1,1,0.0136394,-0.215278,0.26352,0.940326,-0.0335482,0.285702,0.957731,-0.0486472,0.998494,0.0253456,-0.00017,0.001519,0.0004,-107.069,2.601,88.583,1.72534,38.6951,1.78433,48.4997
0.0886928,0.0579355,1,1,-0.215278,0.26352,0.940326,-0.0335482,0.285702,0.957731,-0.0470545,0.998556,0.0259259,-0.000448,-0.000057,-0.000981,-107.067,2.601,88.583,1.51372,34.1513,1.56383,49.0077
0.148637,1,1,1,-0.215278,0.26352,0.940326,-0.0335482,0.285702,0.957731,-0.0399912,0.998962,0.0217855,-0.000793,-0.001663,-0.000835,-107.068,2.601,88.583,1.49189,26.5988,1.47649,51.9114
0.208141,0.0170335,0.0757411,-1,-0.215278,0.26352,0.940326,-0.0335482,0.285702,0.957731,-0.0465646,0.998586,0.025631,-0.000645,-0.00231,-0.001806,-107.073,2.601,88.584,1.48184,21.3944,2.22709,57.1352
0.230906,0.0410151,0.162075,0.0105751,-0.215278,0.26352,0.940326,-0.0335482,0.285702,0.957731,-0.0475985,0.998548,0.0252293,-0.000238,0.002014,0.000416,-107.074,2.601,88.584,0.970571,19.5813,1.98007,59.1151
0.285687,-0.0615729,0.0829356,-0.0120742,-0.215278,0.26352,0.940326,-0.0335482,0.285702,0.957731,-0.0479207,0.99857,0.0237049,0.000412,-0.000528,-0.000519,-107.074,2.603,88.584,1.10645,15.8298,2.62801,63.7512
0.311586,0.0175664,0.0594869,0.0915797,-0.215278,0.26352,0.940326,-0.0335482,0.285702,0.957731,-0.0470273,0.998512,0.027603,-0.000936,-0.000232,-0.000299,-107.076,2.602,88.585,1.02272,14.3244,2.79078,65.6917
0.365854,-1,1,0.0104419,-0.215278,0.26352,0.940326,-0.0335482,0.285702,0.957731,-0.0478696,0.99851,0.0261851,0.00023,-0.000821,-0.001555,-107.075,2.602,88.585,2.36105,9.92482,4.59508,71.1546
0.397225,1,-1,1,-0.215278,0.26352,0.940326,-0.0335482,0.285702,0.957731,-0.0435682,0.998795,0.0226023,-0.000946,-0.001844,0.001615,-107.077,2.603,88.583,1.0666,10.2887,2.33213,71.0237
0.45195,-1,1,-1,-0.215278,0.26352,0.940326,-0.0335482,0.285702,0.957731,-0.0493975,0.998442,0.0259719,0.000096,0.000404,-0.003466,-107.08,2.603,88.582,2.57614,6.77093,5.66072,65.7261
0.479262,0.0191652,0.0425665,1,-0.215278,0.26352,0.940326,-0.0335482,0.285702,0.957731,-0.0433154,0.998809,0.022475,0.001558,-0.001129,0.002346,-107.078,2.603,88.582,1.21569,5.74546,3.9763,64.1381
0.533724,0.0416813,1,1,-0.215278,0.26352,0.940326,-0.0335482,0.285702,0.957731,-0.0413611,0.998927,0.0208345,-0.000972,-0.003675,-0.000686,-107.076,2.603,88.582,1.70342,4.16795,4.52507,58.571
0.560352,-0.0567766,0.0798712,-0.0295275,-0.215278,0.26352,0.940326,-0.0335482,0.285702,0.957731,-0.0496719,0.998323,0.0297217,-0.000376,0.000597,0.000569,-107.075,2.603,88.582,0.861446,3.86851,4.58092,53.8852
0.617748,0.0208972,0.0565558,0.788779,-0.215278,0.26352,0.940326,-0.0335482,0.285702,0.957731,-0.0425298,0.998939,0.0176867,0.000503,-0.000604,0.002212,-107.073,2.603,88.582,0.940692,6.29524,4.22093,46.497
0.642993,-0.760238,0.147686,0.00711109,-0.215278,0.26352,0.940326,-0.0335482,0.285702,0.957731,-0.0485599,0.998335,0.0311151,-0.00219,-0.000238,-0.004403,-107.072,2.604,88.582,1.38263,5.99657,5.13582,43.3707
0.701287,-1,0.0788054,-0.0159379,-0.215278,0.26352,0.940326,-0.0335482,0.285702,0.957731,-0.0438431,0.998785,0.0224837,0.001876,0.002006,0.003453,-107.073,2.603,88.583,1.4731,5.36303,5.10659,40.5262
0.73586,0.0392831,0.166871,0.0117742,-0.215278,0.26352,0.940326,-0.0335482,0.285702,0.957731,-0.0430804,0.998932,0.0166796,0.001422,-0.001489,0.002876,-107.075,2.602,88.582,0.538778,4.77702,4.05739,41.8647
0.790194,0.167052,0.0852005,-0.0128736,-0.215278,0.26352,0.940326,-0.0335482,0.285702,0.957731,-0.0400532,0.999076,0.0155706,0.000202,-0.003374,0.002308,-107.075,2.603,88.581,0.36397,4.16008,3.59083,46.8902
0.826686,1,1,0.100106,-0.215278,0.26352,0.940326,-0.0335482,0.285702,0.957731,-0.0391291,0.999022,0.0205889,-0.000611,-0.003888,-0.001655,-107.073,2.603,88.581,1.50786,3.21045,3.32923,52.6397
0.885997,-1,1,0.0147053,-0.215278,0.26352,0.940326,-0.0335482,0.285702,0.957731,-0.0407164,0.998984,0.0193352,0.000604,-0.00067,0.002889,-107.072,2.603,88.579,1.6368,4.15434,4.28358,62.9127
0.918812,-1,-1,1,-0.215278,0.26352,0.940326,-0.0335482,0.285702,0.957731,-0.0498686,0.99829,0.0304923,0.000804,0.002622,-0.001989,-107.072,2.604,88.58,1.62728,5.72507,3.08992,62.4588
0.973017,1,1,1,-0.215278,0.26352,0.940326,-0.0335482,0.285702,0.957731,-0.0474898,0.99851,0.0268598,0.001676,0.003477,0.002711,-107.074,2.603,88.581,1.87962,8.35157,2.49397,67.7516
1.00011,0.0153015,0.0425665,-1,-0.215278,0.26352,0.940326,-0.0335482,0.285702,0.957731,-0.0457742,0.998653,0.0244197,-0.002037,-0.004156,-0.00248,-107.077,2.603,88.581,1.03817,5.66329,2.57461,70.7174
1.0556,0.0423474,-1,1,-0.215278,0.26352,0.940326,-0.0335482,0.285702,0.957731,-0.0486008,0.998358,0.0303244,-0.000203,0.002825,-0.000538,-107.079,2.603,88.581,1.2844,11.4677,1.40421,65.9343
1.08491,-0.0642375,0.0840014,-0.0295275,-0.215278,0.26352,0.940326,-0.0335482,0.285702,0.957731,-0.0430247,0.998869,0.0202349,0.000217,-0.000775,-0.001602,-107.078,2.603,88.582,0.294146,10.8574,1.69447,66.1715
1.15074,0.0170335,0.0596201,-1,-0.215278,0.26352,0.940326,-0.0335482,0.285702,0.957731,-0.0403758,0.998969,0.0207501,0.000005,-0.000552,0.000008,-107.078,2.602,88.58,1.06039,3.68367,1.48871,69.1574
1.18501,-1,0.16474,0.0103086,-0.215278,0.26352,0.940326,-0.0335482,0.285702,0.957731,-0.0429657,0.998824,0.0224524,-0.000745,-0.00025,0.000328,-107.078,2.602,88.58,0.912398,3.65785,1.99208,67.85
1.23988,1,0.0817365,-0.0107419,-0.215278,0.26352,0.940326,-0.0335482,0.285702,0.957731,-0.0443076,0.998815,0.0201584,-0.001977,-0.001342,-0.000084,-107.083,2.602,88.58,1.19999,3.45648,1.56226,63.7758
1.27147,-1,1,0.0191019,-0.215278,0.26352,0.940326,-0.0335482,0.285702,0.957731,-0.0423602,0.998944,0.0178036,-0.000506,-0.001152,0.001482,-107.083,2.601,88.58,1.43479,3.15248,2.44592,61.6429
1.3303,-1,-1,1,-0.215278,0.26352,0.940326,-0.0335482,0.285702,0.957731,-0.0431998,0.9986,0.030536,-0.000382,-0.00109,-0.00125,-107.08,2.601,88.581,1.56012,11.2528,2.51254,44.0572
1.38535,0.0579355,1,0.822753,-0.215278,0.26352,0.940326,-0.0335482,0.285702,0.957731,-0.0467569,0.998499,0.0285227,0.000437,0.001523,-0.000957,-107.079,2.6,88.58,1.45382,12.7683,2.94498,33.8711
1.41688,1,0.86074,-1,-0.215278,0.26352,0.940326,-0.0335482,0.285702,0.957731,-0.0468659,0.99858,0.0253219,-0.000924,0.00137,-0.001103,-107.081,2.601,88.581,1.87657,7.43406,2.14027,32.99
1.47221,0.0169003,0.0629509,1,-0.215278,0.26352,0.940326,-0.0335482,0.285702,0.957731,-0.0494492,0.998384,0.027994,0.000998,0.003583,0.00007,-107.082,2.601,88.58,1.03173,11.2657,2.88501,19.7244
1.52909,-1,0.153015,0.0120406,-0.215278,0.26352,0.940326,-0.0335482,0.285702,0.957731,-0.0423511,0.998933,0.0184135,0.00235,-0.000604,0.001631,-107.085,2.601,88.581,0.863088,10.575,2.05714,15.5415
1.55561,1,0.0846676,-0.00980928,-0.215278,0.26352,0.940326,-0.0335482,0.285702,0.957731,-0.0506743,0.998365,0.026461,0.001362,0.001067,-0.002296,-107.085,2.601,88.582,1.22474,9.40984,2.45075,16.4465
1.61318,-0.8968,1,0.0761249,-0.215278,0.26352,0.940326,-0.0335482,0.285702,0.957731,-0.0457198,0.998747,0.0203428,0.000445,0.001507,0.001612,-107.081,2.601,88.582,1.34587,7.21425,2.47429,23.6258
1.64369,-1,-1,0.0119074,-0.215278,0.26352,0.940326,-0.0335482,0.285702,0.957731,-0.0462224,0.998526,0.0284681,0.001967,0.003827,0.000565,-107.079,2.6,88.583,1.163,7.99002,1.96617,27.404
1.70929,0.0579355,0.997302,1,-0.215278,0.26352,0.940326,-0.0335482,0.285702,0.957731,-0.048561,0.998357,0.0304016,-0.000283,0.001268,-0.003427,-107.084,2.601,88.583,1.50694,10.8889,3.16291,40.3825
1.73993,1,1,-1,-0.215278,0.26352,0.940326,-0.0335482,0.285702,0.957731,-0.0427347,0.998809,0.0235602,-0.002623,-0.001788,-0.002102,-107.085,2.601,88.581,1.99559,6.17634,2.24673,40.9736
1.79572,0.0141024,0.0425665,1,-0.215278,0.26352,0.940326,-0.0335482,0.285702,0.957731,-0.0484785,0.998249,0.0338839,-0.000344,0.004193,-0.000374,-107.083,2.6,88.58,0.970316,9.66126,2.63055,50.0125
1.82513,0.0394164,1,1,-0.215278,0.26352,0.940326,-0.0335482,0.285702,0.957731,-0.0400818,0.998884,0.0249874,-0.001307,-0.003319,-0.000481,-107.081,2.598,88.579,1.47894,11.3497,2.90384,54.5607
1.88106,0.0145021,0.0620183,0.00564554,-0.215278,0.26352,0.940326,-0.0335482,0.285702,0.957731,-0.0487112,0.998325,0.0312199,-0.000205,0.002288,-0.000534,-107.08,2.597,88.579,0.283262,9.61153,1.44848,57.7284
1.90792,0.013922,0.0594096,0.00631504,-0.215278,0.26352,0.940326,-0.0335482,0.285702,0.957731,-0.0397979,0.99905,0.0177449,-0.000348,-0.004134,0.001519,-107.083,2.597,88.579,0.278927,8.78548,1.36502,58.6641
1.97556,0.017386,0.0575444,0.00604857,-0.215278,0.26352,0.940326,-0.0335482,0.285702,0.957731,-0.0413811,0.998882,0.0228415,0.000914,-0.000834,0.000886,-107.082,2.597,88.579,0.254927,7.08908,1.15642,59.9161
2.00767,0.0163069,0.0557542,0.00555083,-0.215278,0.26352,0.940326,-0.0335482,0.285702,0.957731,-0.0466423,0.998657,0.0225523,0.001056,0.000704,0.00171,-107.079,2.598,88.58,0.241981,6.40923,1.05934,59.988
2.063,1,0.0841325,-0.00977077,-0.215278,0.26352,0.940326,-0.0335482,0.285702,0.957731,-0.0392405,0.999101,0.0160437,0.000527,-0.002943,-0.000396,-107.078,2.597,88.579,1.10587,5.01606,1.58193,59.0369
2.09153,-1,1,-1,-0.215278,0.26352,0.940326,-0.0335482,0.285702,0.957731,-0.0471718,0.998571,0.0251174,0.001605,0.001911,0.001049,-107.075,2.598,88.578,1.82019,2.92174,1.77918,56.6858
2.14787,0.0159072,0.0510911,0.000621271,-0.215278,0.26352,0.940326,-0.0335482,0.285702,0.957731,-0.046134,0.998684,0.0224021,0.001312,-0.000098,0.002376,-107.079,2.596,88.579,0.159398,2.87563,0.725594,55.2119
2.17979,0.0156546,0.0491754,0.000212714,-0.215278,0.26352,0.940326,-0.0335482,0.285702,0.957731,-0.044846,0.998768,0.0212482,-0.001398,-0.000505,0.000072,-107.082,2.596,88.58,0.139486,2.87674,0.677528,54.4304
2.23506,0.0137494,0.0610218,-0.000563207,-0.215278,0.26352,0.940326,-0.0335482,0.285702,0.957731,-0.0413661,0.998914,0.0214491,-0.000385,-0.001513,-0.000881,-107.079,2.597,88.58,0.12432,3.05545,0.626965,52.8743
2.26513,0.0130715,0.0581972,-0.00066858,-0.215278,0.26352,0.940326,-0.0335482,0.285702,0.957731,-0.0458536,0.99867,0.0235906,0.001358,0.001046,0.002017,-107.078,2.597,88.58,0.110179,3.22635,0.599179,51.9501
2.32948,0.0134712,0.0428756,-0.00120151,-0.215278,0.26352,0.940326,-0.0335482,0.285702,0.957731,-0.046498,0.998532,0.0277966,0.000636,-0.001615,-0.000555,-107.082,2.597,88.578,0.0843301,3.74131,0.562662,49.9478
2.35574,0.0125487,0.0407769,-0.00140925,-0.215278,0.26352,0.940326,-0.0335482,0.285702,0.957731,-0.0499997,0.998355,0.0280736,0.000225,0.000825,0.000895,-107.084,2.597,88.577,0.0785944,3.96968,0.555601,49.1518
2.41383,0.0112793,0.0455409,-0.00608525,-0.215278,0.26352,0.940326,-0.0335482,0.285702,0.957731,-0.0466391,0.998506,0.0284733,-0.000052,0.002298,-0.001676,-107.08,2.597,88.58,0.0808741,4.51472,0.558249,47.5319
2.44319,0.011084,0.0435914,-0.00545814,-0.215278,0.26352,0.940326,-0.0335482,0.285702,0.957731,-0.0458219,0.998592,0.026738,-0.001694,-0.000256,-0.002454,-107.076,2.597,88.579,0.0809511,4.8036,0.558279,46.8116
2.49913,0.00923367,0.0395455,0.0021785,-0.215278,0.26352,0.940326,-0.0335482,0.285702,0.957731,-0.0462077,0.998515,0.0288671,-0.001818,-0.002185,-0.002619,-107.079,2.597,88.579,0.0856759,5.38849,0.549194,45.6764
2.52884,0.00873642,0.0379637,0.00196346,-0.215278,0.26352,0.940326,-0.0335482,0.285702,0.957731,-0.0409416,0.998913,0.0222665,-0.000775,-0.003281,0.000251,-107.081,2.598,88.578,0.0859843,5.72684,0.546319,45.1914
2.5915,0.0118007,0.0347661,0.00156377,-0.215278,0.26352,0.940326,-0.0335482,0.285702,0.957731,-0.0472946,0.998589,0.0241569,0.000904,0.004732,0.002634,-107.082,2.6,88.579,0.0789087,6.30506,0.528648,44.3797
2.62202,0.0115845,0.0338871,0.00175702,-0.215278,0.26352,0.940326,-0.0335482,0.285702,0.957731,-0.050796,0.998207,0.0316584,0.000876,0.00678,-0.000516,-107.077,2.6,88.581,0.0805012,6.53386,0.516039,44.0744
2.69183,0.011249,0.0331711,0.00194254,-0.215278,0.26352,0.940326,-0.0335482,0.285702,0.957731,-0.0508426,0.998207,0.0315856,-0.00055,0.000304,-0.002919,-107.079,2.601,88.58,0.0823808,6.98344,0.490147,43.5466
2.74999,0.00913635,0.0409253,-0.000309491,-0.215278,0.26352,0.940326,-0.0335482,0.285702,0.957731,-0.0417368,0.999016,0.0149719,0.002026,-0.000377,0.003141,-107.08,2.601,88.579,0.0781943,7.37654,0.469626,43.1874
2.77664,0.00877089,0.0391604,-0.000169209,-0.215278,0.26352,0.940326,-0.0335482,0.285702,0.957731,-0.0506692,0.998021,0.0372388,0.000399,0.006121,-0.002559,-107.079,2.602,88.579,0.0770642,7.49304,0.450492,43.0181
2.8343,0.00829216,0.0332453,0.00456993,-0.215278,0.26352,0.940326,-0.0335482,0.285702,0.957731,-0.0480287,0.998668,0.0188428,0.001259,0.000929,0.003005,-107.076,2.6,88.58,0.0704008,7.7373,0.428317,42.5854
2.86277,0.00783257,0.0319155,0.00387553,-0.215278,0.26352,0.940326,-0.0335482,0.285702,0.957731,-0.049257,0.998371,0.0288011,0.000939,0.002563,-0.001511,-107.076,2.602,88.579,0.069887,7.83851,0.417532,42.3267
2.91815,1,0.0505679,-0.00798205,-0.215278,0.26352,0.940326,-0.0335482,0.285702,0.957731,-0.0477575,0.998715,0.0169759,0.001472,0.000945,0.003292,-107.079,2.602,88.579,0.944855,7.46682,1.02884,41.7357
2.94533,1,0.967865,0.0664942,-0.215278,0.26352,0.940326,-0.0335482,0.285702,0.957731,-0.0456621,0.998629,0.0255954,-0.00152,-0.000925,-0.001428,-107.078,2.602,88.578,1.34032,6.38853,1.22201,42.0958
3.00081,0.0118295,0.0268527,-0.000654335,-0.215278,0.26352,0.940326,-0.0335482,0.285702,0.957731,-0.0479024,0.998494,0.02676,0.000709,0.003821,0.00066,-107.078,2.601,88.579,0.106479,6.66749,0.451655,41.3989
3.0244,0.0109726,0.0257786,-0.000500259,-0.215278,0.26352,0.940326,-0.0335482,0.285702,0.957731,-0.0439261,0.998833,0.0200688,-0.000619,0.000518,0.001738,-107.076,2.601,88.578,0.116545,6.88858,0.465552,40.9654
3.08033,0.00528973,0.0310146,0.00386842,-0.215278,0.26352,0.940326,-0.0335482,0.285702,0.957731,-0.0404495,0.998981,0.0200205,-0.002701,-0.002391,-0.00187,-107.082,2.601,88.578,0.142467,7.43068,0.49921,39.7874
3.10982,0.00507814,0.0300299,0.00358578,-0.215278,0.26352,0.940326,-0.0335482,0.285702,0.957731,-0.0439101,0.998801,0.0216487,0.001529,0.000258,0.00139,-107.081,2.6,88.579,0.151887,7.65545,0.532551,39.0793
3.16533,-1,1,0.0779288,-0.215278,0.26352,0.940326,-0.0335482,0.285702,0.957731,-0.043661,0.998886,0.0178939,0.000754,0.001941,0.000409,-107.078,2.599,88.579,1.50603,6.47877,1.22556,39.3179
3.19405,-1,-1,0.00891503,-0.215278,0.26352,0.940326,-0.0335482,0.285702,0.957731,-0.0426286,0.998756,0.0258634,0.00032,0.001643,0.001065,-107.073,2.599,88.58,1.52264,8.4295,1.96319,37.6933
3.24923,0.00814246,0.0312289,0.00225347,-0.215278,0.26352,0.940326,-0.0335482,0.285702,0.957731,-0.0422086,0.998902,0.0203378,-0.00171,-0.002602,0.000693,-107.072,2.599,88.578,0.083394,8.91878,0.661505,35.9146
3.27864,0.00768886,0.0295961,0.00165172,-0.215278,0.26352,0.940326,-0.0335482,0.285702,0.957731,-0.0479562,0.998528,0.0253526,0.000773,0.000973,0.001489,-107.075,2.599,88.578,0.0668313,8.91177,0.69719,35.0202
3.33536,0.0103535,0.0253327,-0.00167906,-0.215278,0.26352,0.940326,-0.0335482,0.285702,0.957731,-0.0428198,0.998857,0.0212566,0.000275,0.000676,0.002171,-107.074,2.599,88.577,0.0372695,8.93565,0.760794,33.2159
3.35862,0.00968354,0.0241915,-0.00135609,-0.215278,0.26352,0.940326,-0.0335482,0.285702,0.957731,-0.0427995,0.99879,0.0242088,0.000688,-0.002264,-0.001128,-107.075,2.599,88.578,0.0373098,8.94267,0.782324,32.4556
3.4132,0.00699397,0.0275725,0.00112829,-0.215278,0.26352,0.940326,-0.0335482,0.285702,0.957731,-0.0449274,0.998613,0.027467,-0.000493,0.002975,-0.000397,-107.073,2.598,88.578,0.039604,8.908,0.838025,30.6277
3.43731,0.00671421,0.0260859,0.000571548,-0.215278,0.26352,0.940326,-0.0335482,0.285702,0.957731,-0.0482594,0.998552,0.0237726,0.001272,0.000453,0.001348,-107.073,2.598,88.577,0.0398557,8.85423,0.860011,29.7946
3.49177,0.00721305,0.0223565,-0.00175355,-0.215278,0.26352,0.940326,-0.0335482,0.285702,0.957731,-0.0415702,0.998913,0.0210923,0.000551,-0.000881,0.002395,-107.074,2.597,88.576,0.051121,8.82349,0.912138,27.8649
3.51662,0.00692453,0.021718,-0.00168341,-0.215278,0.26352,0.940326,-0.0335482,0.285702,0.957731,-0.0460977,0.998613,0.0254508,-0.000781,-0.001298,-0.002375,-107.075,2.597,88.576,0.0583806,8.77842,0.932332,26.9567
3.57123,0.0103567,0.0214888,-0.00161607,-0.215278,0.26352,0.940326,-0.0335482,0.285702,0.957731,-0.0508565,0.998339,0.0270622,0.000665,0.00243,0.000656,-107.074,2.597,88.577,0.0648384,8.58987,0.978347,24.8813
3.5931,0.00994244,0.0207572,-0.00103982,-0.215278,0.26352,0.940326,-0.0335482,0.285702,0.957731,-0.0480795,0.998363,0.0309665,-0.000709,0.001201,-0.002035,-107.074,2.597,88.578,0.067733,8.53629,0.992512,24.0316
3.64825,0.00557978,0.0159619,0.00015289,-0.215278,0.26352,0.940326,-0.0335482,0.285702,0.957731,-0.0406128,0.998953,0.0210737,-0.001723,-0.004299,-0.000171,-107.077,2.595,88.578,0.0697463,8.5291,1.02701,21.8691
3.67449,0.00484498,0.0155793,1.88728E-05,-0.215278,0.26352,0.940326,-0.0335482,0.285702,0.957731,-0.0487582,0.99832,0.0313154,0.000758,0.003018,-0.000955,-107.078,2.596,88.578,0.0659912,8.4749,1.04843,20.8085
3.72951,-1,0.110706,0.00854567,-0.215278,0.26352,0.940326,-0.0335482,0.285702,0.957731,-0.0471636,0.998637,0.0223514,0.000871,0.001009,0.00297,-107.078,2.596,88.578,0.930297,8.56673,1.28037,19.1891
3.75445,1,0.039028,-0.0122384,-0.215278,0.26352,0.940326,-0.0335482,0.285702,0.957731,-0.0458293,0.998527,0.0290525,-0.001287,0.000991,-0.002012,-107.079,2.596,88.578,1.08634,8.25202,1.5781,18.0223
3.81561,0.00191389,0.0217079,0.000951492,-0.215278,0.26352,0.940326,-0.0335482,0.285702,0.957731,-0.039987,0.99906,0.0167125,0.001035,-0.002304,0.001709,-107.08,2.596,88.578,0.0963959,8.19032,1.10437,15.6191
3.84719,0.00170943,0.0204559,0.00129714,-0.215278,0.26352,0.940326,-0.0335482,0.285702,0.957731,-0.049127,0.998474,0.0252274,0.001233,0.001992,0.001659,-107.081,2.598,88.578,0.0964109,8.12471,1.11962,14.4334
3.90307,0.00437406,0.00833183,-0.00256657,-0.215278,0.26352,0.940326,-0.0335482,0.285702,0.957731,-0.0457763,0.998534,0.0288899,-0.001298,0.000243,-0.002405,-107.084,2.598,88.577,0.0984642,8.07547,1.14385,12.5317
3.93185,0.0045828,0.00799856,-0.0018244,-0.215278,0.26352,0.940326,-0.0335482,0.285702,0.957731,-0.0504773,0.998306,0.0289172,0.001325,0.004658,0.002466,-107.08,2.598,88.577,0.0935023,8.01874,1.15437,11.6827
3.98948,0.00452739,0.0199572,-0.00251883,-0.215278,0.26352,0.940326,-0.0335482,0.285702,0.957731,-0.0396901,0.999005,0.0203565,0.000384,-0.001595,0.001611,-107.079,2.598,88.578,0.0902476,8.0297,1.14445,10.5599
4.0213,0.00396259,0.0191589,-0.00216227,-0.215278,0.26352,0.940326,-0.0335482,0.285702,0.957731,-0.0431103,0.998789,0.0237004,0.000709,0.001052,0.002188,-107.078,2.598,88.579,0.0853552,8.02055,1.14941,10.2914
4.07748,0.00661793,0.00969523,-0.00348271,-0.215278,0.26352,0.940326,-0.0335482,0.285702,0.957731,-0.0429742,0.998769,0.0247889,-0.00054,-0.001436,0.000856,-107.078,2.597,88.578,0.0807176,8.02538,1.15592,10.5506
4.10755,0.00596951,0.00917952,-0.00257599,-0.215278,0.26352,0.940326,-0.0335482,0.285702,0.957731,-0.0457354,0.998726,0.0213364,0.000639,0,0.001432,-107.079,2.597,88.577,0.0747289,8.00593,1.15554,11.0396
4.16301,0.00739345,0.0112425,-0.000682318,-0.215278,0.26352,0.940326,-0.0335482,0.285702,0.957731,-0.0448563,0.998821,0.0185365,-0.00159,-0.00312,-0.000405,-107.078,2.597,88.577,0.070757,7.98073,1.14307,12.4637
4.19447,0.00684191,0.0107928,-0.000655025,-0.215278,0.26352,0.940326,-0.0335482,0.285702,0.957731,-0.0467797,0.998578,0.025581,0.001644,0.000992,0.000494,-107.077,2.598,88.579,0.0609291,7.96145,1.14167,13.4845
4.24952,0.00695194,0.0126633,-0.000245118,-0.215278,0.26352,0.940326,-0.0335482,0.285702,0.957731,-0.0434705,0.998799,0.0226047,-0.000817,-0.001465,0.0009,-107.076,2.598,88.577,0.0534185,7.96806,1.12479,15.5078
4.27854,0.00667386,0.0126684,-0.00100273,-0.215278,0.26352,0.940326,-0.0335482,0.285702,0.957731,-0.0452654,0.998693,0.0237541,0.000098,0.001192,0.001723,-107.077,2.597,88.577,0.0470832,7.95874,1.11941,16.6369
4.33357,-0.000116093,0.0162545,0.000572208,-0.215278,0.26352,0.940326,-0.0335482,0.285702,0.957731,-0.0432492,0.99883,0.0216246,0.000532,-0.002852,0.002004,-107.077,2.598,88.577,0.0310603,7.97047,1.09288,18.8291
4.36398,0.000144355,0.0154764,0.000677221,-0.215278,0.26352,0.940326,-0.0335482,0.285702,0.957731,-0.0496794,0.998383,0.027645,0.000943,0.002963,0.000329,-107.076,2.598,88.578,0.0248759,7.93176,1.08661,20.035
4.41846,0.00371984,0.00795066,0.00244076,-0.215278,0.26352,0.940326,-0.0335482,0.285702,0.957731,-0.0454017,0.998736,0.021576,0.0006,0.000069,0.003236,-107.077,2.596,88.578,0.0225318,7.93518,1.06733,22.1873
4.44591,0.00369894,0.00763263,0.00183152,-0.215278,0.26352,0.940326,-0.0335482,0.285702,0.957731,-0.048332,0.998419,0.0287131,-0.000201,0.000368,-0.001839,-107.078,2.596,88.578,0.0187183,7.92377,1.05288,23.2417
4.50298,0.000353437,0.00988537,0.00354889,-0.215278,0.26352,0.940326,-0.0335482,0.285702,0.957731,-0.0462217,0.998613,0.0252026,0.002786,-0.001021,0.002866,-107.076,2.596,88.577,0.00587888,7.92592,1.02029,25.3535
4.53636,0.000211397,0.00961785,0.00340693,-0.215278,0.26352,0.940326,-0.0335482,0.285702,0.957731,-0.0486701,0.998453,0.0268913,0.002512,0.004891,0.001573,-107.077,2.597,88.576,0.0104226,7.90751,1.00614,26.5259
4.60264,0.00557483,0.0065472,-0.00491507,-0.215278,0.26352,0.940326,-0.0335482,0.285702,0.957731,-0.0499053,0.998209,0.0329986,-0.000453,0.001633,-0.002915,-107.081,2.597,88.577,0.0133351,7.82331,0.965539,28.7135
4.6318,0.00509603,0.00628531,-0.00471847,-0.215278,0.26352,0.940326,-0.0335482,0.285702,0.957731,-0.0405649,0.998937,0.0219132,-0.002283,-0.004127,-0.002303,-107.084,2.596,88.576,0.00964587,7.85252,0.940299,29.6178
4.68904,-0.000607598,0.00923145,0.00608614,-0.215278,0.26352,0.940326,-0.0335482,0.285702,0.957731,-0.0527491,0.998151,0.0302006,0.002253,0.002301,0.000103,-107.082,2.597,88.576,0.0191969,7.79551,0.899646,31.2647
4.7174,-0.0010949,0.00822268,0.00558689,-0.215278,0.26352,0.940326,-0.0335482,0.285702,0.957731,-0.0384401,0.999035,0.0212648,-0.002255,-0.003865,-0.002505,-107.083,2.596,88.577,0.0140098,7.86388,0.871811,32.0281
4.77219,0.00117003,0.0091553,-1,-0.215278,0.26352,0.940326,-0.0335482,0.285702,0.957731,-0.0488757,0.998329,0.0308152,-0.000659,0.001396,-0.004581,-107.086,2.597,88.577,0.991423,5.14733,1.51766,33.7855
4.80129,0.0248852,0.113342,0.0114491,-0.215278,0.26352,0.940326,-0.0335482,0.285702,0.957731,-0.0418724,0.998912,0.0205277,-0.00264,-0.003613,-0.001619,-107.086,2.597,88.577,0.0995917,5.08659,0.702398,34.3795
4.85686,0.00143649,0.00262697,0.00398811,-0.215278,0.26352,0.940326,-0.0335482,0.285702,0.957731,-0.047961,0.998405,0.029797,-0.001602,0.000397,-0.004384,-107.084,2.597,88.576,0.0562206,5.45597,0.7647,35.4972
4.88344,0.00125113,0.00213818,0.00370068,-0.215278,0.26352,0.940326,-0.0335482,0.285702,0.957731,-0.0384935,0.999091,0.0183254,-0.000076,-0.002929,0.001036,-107.086,2.597,88.576,0.0594146,5.74858,0.740291,35.9948
4.94307,0.00125113,0.0105318,-0.000695946,-0.215278,0.26352,0.940326,-0.0335482,0.285702,0.957731,-0.0471428,0.998468,0.0289795,-0.001025,-0.000286,-0.002617,-107.085,2.597,88.575,0.0694941,6.39957,0.681803,37.0169
4.96933,0.00145689,0.00985468,-0.000668108,-0.215278,0.26352,0.940326,-0.0335482,0.285702,0.957731,-0.0447667,0.998767,0.0214635,-0.000366,0.000771,0.001244,-107.085,2.597,88.575,0.0711695,6.69785,0.660403,37.4274
5.02548,0.00421246,0.0037049,-0.0016646,-0.215278,0.26352,0.940326,-0.0335482,0.285702,0.957731,-0.0429908,0.998899,0.0187893,-0.000992,-0.002792,0.000966,-107.087,2.596,88.575,0.0781272,7.34565,0.610533,38.2373
5.05212,0.00442766,0.00355671,-0.00172592,-0.215278,0.26352,0.940326,-0.0335482,0.285702,0.957731,-0.0464798,0.998602,0.0251765,0.000956,0.002018,0.000175,-107.088,2.597,88.575,0.0826428,7.61579,0.590138,38.5861
5.10674,0.00169252,0.00661199,-0.00383122,-0.215278,0.26352,0.940326,-0.0335482,0.285702,0.957731,-0.0467493,0.998615,0.0241419,-0.000138,0.003719,0.003173,-107.083,2.597,88.575,0.0780945,8.08328,0.537425,39.2293
5.13687,0.00124111,0.00660331,-0.00406167,-0.215278,0.26352,0.940326,-0.0335482,0.285702,0.957731,-0.0476806,0.998441,0.0290363,-0.001191,0.000333,-0.000127,-107.085,2.596,88.575,0.0781773,8.29953,0.504296,39.5378
5.19332,0.000935663,0.00646708,-0.00389921,-0.215278,0.26352,0.940326,-0.0335482,0.285702,0.957731,-0.0466445,0.998663,0.0222993,0.001274,0.000052,0.000897,-107.087,2.597,88.574,0.074326,8.63992,0.448466,40.0382
5.25408,-0.000529881,-0.0109862,1,-0.215278,0.26352,0.940326,-0.0335482,0.285702,0.957731,-0.0441592,0.998631,0.0280457,-0.000655,-0.000341,-0.00287,-107.088,2.596,88.574,1.05712,14.3923,1.03157,41.1066
5.28633,0.0251837,1,1,-0.215278,0.26352,0.940326,-0.0335482,0.285702,0.957731,-0.0404852,0.998943,0.0217762,-0.000958,-0.003016,-0.000382,-107.084,2.595,88.575,1.42254,15.8705,1.14779,40.8088
5.34167,0.00360029,0.00806585,0.00169651,-0.215278,0.26352,0.940326,-0.0335482,0.285702,0.957731,-0.0450665,0.998513,0.0306575,-0.00086,0.000186,-0.003199,-107.081,2.596,88.574,0.00735829,14.5898,0.287777,40.6927
5.37143,0.00320047,0.00735951,0.00162865,-0.215278,0.26352,0.940326,-0.0335482,0.285702,0.957731,-0.0399358,0.999009,0.0196607,-0.00147,-0.003865,-0.001245,-107.081,2.596,88.575,0.0167635,13.8069,0.255605,40.6214
5.44188,-1,1,-1,-0.215278,0.26352,0.940326,-0.0335482,0.285702,0.957731,-0.0407006,0.998904,0.0231114,-0.003222,-0.003835,-0.002846,-107.087,2.596,88.576,1.72704,3.84114,1.64333,37.5792
5.47332,0.024251,-1,1,-0.215278,0.26352,0.940326,-0.0335482,0.285702,0.957731,-0.0396197,0.999092,0.0156636,-0.001014,-0.004959,0.001092,-107.086,2.595,88.577,1.41077,7.99512,1.48482,38.4804
5.53146,-0.00119616,0.00709305,0.0026945,-0.215278,0.26352,0.940326,-0.0335482,0.285702,0.957731,-0.0502755,0.998168,0.033653,-0.000398,0.001301,-0.003249,-107.079,2.596,88.577,0.0744272,8.46361,0.154308,38.5127
5.56465,-0.00127621,0.00668143,0.00233091,-0.215278,0.26352,0.940326,-0.0335482,0.285702,0.957731,-0.0452977,0.998595,0.0275058,-0.001344,-0.001571,-0.002337,-107.08,2.596,88.577,0.0886139,8.29764,0.149408,38.3648
5.61883,-0.00084146,0.00871641,0.000702852,-0.215278,0.26352,0.940326,-0.0335482,0.285702,0.957731,-0.049639,0.998283,0.0310881,0.000121,0.003774,0.000681,-107.081,2.595,88.578,0.104153,7.99569,0.153188,38.0473
5.6511,-0.00131941,0.00785614,0.000930542,-0.215278,0.26352,0.940326,-0.0335482,0.285702,0.957731,-0.0507843,0.998146,0.0335503,0.000606,0.003372,-0.002861,-107.083,2.595,88.577,0.107712,7.83253,0.157889,37.8192
5.70559,0.0010356,0.00460015,-0.00204843,-0.215278,0.26352,0.940326,-0.0335482,0.285702,0.957731,-0.0493967,0.998467,0.024954,0.000829,0.002704,0.003127,-107.081,2.595,88.576,0.120417,7.60114,0.180686,37.3804
5.73446,0.00048257,0.00403244,-0.00183859,-0.215278,0.26352,0.940326,-0.0335482,0.285702,0.957731,-0.0447536,0.998646,0.0265055,-0.001732,0.000389,-0.002202,-107.083,2.595,88.577,0.122204,7.54228,0.195117,37.1169
5.78969,0.00340501,0.00195261,-0.00342777,-0.215278,0.26352,0.940326,-0.0335482,0.285702,0.957731,-0.0506856,0.998312,0.0283513,0.002027,0.002443,-0.000734,-107.08,2.596,88.578,0.121976,7.37868,0.218222,36.5531
5.82529,0.00326881,0.00225821,-0.00316276,-0.215278,0.26352,0.940326,-0.0335482,0.285702,0.957731,-0.048462,0.998318,0.0318319,0.000912,0.002308,-0.00076,-107.079,2.594,88.578,0.119244,7.31518,0.236661,36.1456
5.88219,0.00416128,0.000760963,0.00578899,-0.215278,0.26352,0.940326,-0.0335482,0.285702,0.957731,-0.0442211,0.998703,0.0252254,0.000382,0.001776,0.001699,-107.078,2.593,88.578,0.113338,7.34229,0.269316,35.426
5.91186,0.00425063,0.000858426,0.00530163,-0.215278,0.26352,0.940326,-0.0335482,0.285702,0.957731,-0.0443482,0.998701,0.0250797,-0.000066,0.00083,-0.000382,-107.08,2.593,88.578,0.109453,7.3655,0.288322,35.0108
5.96895,-0.0780863,0.0280376,-0.0300047,-0.215278,0.26352,0.940326,-0.0335482,0.285702,0.957731,-0.0457034,0.998625,0.0256635,-0.000016,0.000366,0.00043,-107.081,2.593,88.578,0.0565784,7.21175,0.32141,34.0789
5.99702,0.00118631,0.00432244,-1,-0.215278,0.26352,0.940326,-0.0335482,0.285702,0.957731,-0.0430245,0.998658,0.0288192,0.001089,0.001156,0.000354,-107.083,2.593,88.578,1.02263,5.48712,0.977635,33.7205
6.05378,0.00638233,-0.000873581,-0.000294084,-0.215278,0.26352,0.940326,-0.0335482,0.285702,0.957731,-0.0492387,0.998435,0.0265053,0.001626,0.003397,0.000571,-107.081,2.593,88.578,0.0906231,5.61641,0.371809,32.7671
6.08892,0.00651074,-0.00096654,-0.000154419,-0.215278,0.26352,0.940326,-0.0335482,0.285702,0.957731,-0.049437,0.998302,0.0308218,0.00013,0.001921,0.000049,-107.081,2.593,88.577,0.0860859,5.86477,0.396366,32.1002
6.14354,-1,-1,0.00823915,-0.215278,0.26352,0.940326,-0.0335482,0.285702,0.957731,-0.0472033,0.998625,0.0227843,0.001024,0.000432,0.002654,-107.084,2.593,88.576,1.38469,9.28644,1.11533,32.7281
6.17274,0.0416838,0.532625,1,-0.215278,0.26352,0.940326,-0.0335482,0.285702,0.957731,-0.0469498,0.9985,0.0281699,-0.000046,-0.000251,-0.002103,-107.084,2.594,88.577,1.13835,10.7912,1.51631,31.7307
6.22732,-0.000950208,0.00662764,0.00237697,-0.215278,0.26352,0.940326,-0.0335482,0.285702,0.957731,-0.0504028,0.998465,0.0229567,0.000827,0.002308,0.002962,-107.084,2.594,88.577,0.104219,10.4477,0.507095,30.3341
6.25491,-0.0010401,0.00610673,0.0027935,-0.215278,0.26352,0.940326,-0.0335482,0.285702,0.957731,-0.0458121,0.998581,0.0271404,-0.002246,0.000001,-0.00162,-107.084,2.593,88.577,0.111031,10.1675,0.530569,29.6311
6.31093,-0.0100998,0.028756,-0.0129278,-0.215278,0.26352,0.940326,-0.0335482,0.285702,0.957731,-0.0515555,0.998339,0.0257267,0.002394,0.003261,0.001113,-107.079,2.592,88.578,0.107183,9.42753,0.578348,28.063
6.33825,1,1,0.0899267,-0.215278,0.26352,0.940326,-0.0335482,0.285702,0.957731,-0.0462491,0.998491,0.0296076,-0.001326,0.000058,-0.002365,-107.081,2.592,88.578,1.48824,7.84093,1.90395,26.2111
6.39375,0.00175775,0.00584027,-0.000537277,-0.215278,0.26352,0.940326,-0.0335482,0.285702,0.957731,-0.051562,0.998188,0.0310186,0.001587,0.003411,-0.002141,-107.081,2.592,88.578,0.093082,7.43455,0.607103,24.385
6.42146,0.00155954,0.00560666,-0.000899492,-0.215278,0.26352,0.940326,-0.0335482,0.285702,0.957731,-0.0394944,0.999025,0.0197472,-0.002784,-0.002087,-0.000726,-107.082,2.592,88.578,0.0892566,7.46081,0.62565,23.5667
6.47663,0.00342478,-0.000388747,-0.00183211,-0.215278,0.26352,0.940326,-0.0335482,0.285702,0.957731,-0.0450444,0.99862,0.0270063,-0.001121,-0.001337,-0.004264,-107.084,2.592,88.579,0.0727945,7.47921,0.645689,21.8957
6.5053,0.00315989,0.000010509,-0.00124722,-0.215278,0.26352,0.940326,-0.0335482,0.285702,0.957731,-0.0413642,0.998987,0.0177129,0.001489,-0.002101,0.00342,-107.081,2.592,88.58,0.0655282,7.51229,0.657052,21.0103
6.56155,-0.00144308,0.00845162,0.00417455,-0.215278,0.26352,0.940326,-0.0335482,0.285702,0.957731,-0.0457534,0.998608,0.0262469,-0.001779,-0.001817,-0.002269,-107.08,2.593,88.58,0.0442878,7.53935,0.691417,19.208
6.59911,-0.00100165,0.00785775,0.00375177,-0.215278,0.26352,0.940326,-0.0335482,0.285702,0.957731,-0.0503407,0.998255,0.030877,-0.000264,0.002023,-0.002206,-107.081,2.593,88.58,0.0348909,7.51647,0.700893,17.9718
6.65563,-0.0826724,0.025844,-0.0303554,-0.215278,0.26352,0.940326,-0.0335482,0.285702,0.957731,-0.0433155,0.998817,0.0221186,0.001755,0.00119,0.003608,-107.084,2.593,88.58,0.0823687,7.414,0.733215,16.0203
6.68217,0.00246236,0.00372758,-0.576337,-0.215278,0.26352,0.940326,-0.0335482,0.285702,0.957731,-0.0505436,0.99821,0.0319599,-0.000741,0.001263,-0.003128,-107.083,2.594,88.58,0.589572,6.30018,0.752697,14.8811
6.7514,0.00113005,0.0101227,0.00148684,-0.215278,0.26352,0.940326,-0.0335482,0.285702,0.957731,-0.0460009,0.998556,0.0277433,0.000453,-0.00292,-0.001679,-107.081,2.594,88.58,0.0130845,6.43976,0.750572,12.5098
6.78068,0.000701141,0.00971777,0.00129946,-0.215278,0.26352,0.940326,-0.0335482,0.285702,0.957731,-0.0421158,0.998819,0.0242268,-0.000075,-0.001772,-0.00051,-107.081,2.594,88.578,0.0158949,6.63412,0.754672,11.5576
6.83794,3.49851E-05,-0.000407802,0.0944281,-0.215278,0.26352,0.940326,-0.0335482,0.285702,0.957731,-0.0488269,0.998351,0.0301728,0.00015,0.001683,-0.000838,-107.079,2.594,88.579,0.105719,7.33533,0.790895,9.96943
6.86805,-1,-0.810454,0.0107589,-0.215278,0.26352,0.940326,-0.0335482,0.285702,0.957731,-0.0467781,0.998579,0.0255339,0.000739,0.00193,0.001132,-107.078,2.594,88.579,1.30927,8.97163,1.1103,10.5441
6.92515,0.00056791,-0.00507089,0.000366842,-0.215278,0.26352,0.940326,-0.0335482,0.285702,0.957731,-0.0422474,0.998834,0.0233687,-0.002009,-0.001236,-0.00091,-107.08,2.595,88.578,0.0346654,9.16669,0.757142,9.29169
6.95511,0.000545193,-0.00512386,0.000352169,-0.215278,0.26352,0.940326,-0.0335482,0.285702,0.957731,-0.0423258,0.998848,0.0225942,0.001026,-0.00129,0.001548,-107.079,2.596,88.578,0.0358355,9.11271,0.757616,8.60174
7.01074,1,1,1,-0.215278,0.26352,0.940326,-0.0335482,0.285702,0.957731,-0.0425212,0.998788,0.0247785,-0.001102,-0.000895,-0.001828,-107.078,2.595,88.578,1.73054,10.859,2.34028,9.83659
7.0395,-1,1,-1,-0.215278,0.26352,0.940326,-0.0335482,0.285702,0.957731,-0.0443797,0.9988,0.0207037,0.003052,0.001249,0.003435,-107.073,2.595,88.579,1.72192,6.89513,2.12864,6.72407
7.09406,-0.00132004,0.00313647,0.00594788,-0.215278,0.26352,0.940326,-0.0335482,0.285702,0.957731,-0.0386014,0.999118,0.0165288,-0.000963,-0.003653,0.00205,-107.077,2.595,88.577,0.0236182,6.60527,0.753382,7.24389
7.12383,-0.00139514,0.00288311,0.00558206,-0.215278,0.26352,0.940326,-0.0335482,0.285702,0.957731,-0.0477644,0.998644,0.0207047,0.002498,0.000318,0.003333,-107.075,2.595,88.578,0.0275088,6.75626,0.742095,7.93041
7.17882,-0.000955633,0.00161667,0.000114799,-0.215278,0.26352,0.940326,-0.0335482,0.285702,0.957731,-0.0361956,0.999162,0.0191203,-0.003321,-0.003174,-0.001339,-107.079,2.594,88.576,0.0319145,7.17012,0.729176,9.37425
7.21115,-0.000917408,0.00180781,0.00023811,-0.215278,0.26352,0.940326,-0.0335482,0.285702,0.957731,-0.042908,0.998967,0.0149512,0.002462,-0.001298,0.003182,-107.074,2.595,88.578,0.0326631,7.33429,0.716305,10.2304
7.27939,0.00180523,0.00403773,-0.000283023,-0.215278,0.26352,0.940326,-0.0335482,0.285702,0.957731,-0.0447494,0.998822,0.0187394,0.002465,0.00091,0.00279,-107.073,2.595,88.578,0.0351472,7.58443,0.692385,12.04
7.30904,0.00160512,0.00349252,0.000623612,-0.215278,0.26352,0.940326,-0.0335482,0.285702,0.957731,-0.0563622,0.997805,0.034755,0.001538,0.003226,-0.000352,-107.076,2.596,88.577,0.03682,7.59491,0.679581,12.792
7.37674,0.000901404,-0.00176326,0.00149398,-0.215278,0.26352,0.940326,-0.0335482,0.285702,0.957731,-0.0535708,0.997985,0.0340164,0.000562,0.004998,-0.001603,-107.08,2.596,88.575,0.0426618,7.65522,0.644876,14.4593
7.41353,0.00112115,-0.00194854,0.00181793,-0.215278,0.26352,0.940326,-0.0335482,0.285702,0.957731,-0.0496825,0.998241,0.0323396,0.003683,0.004648,0.002412,-107.078,2.596,88.574,0.043442,7.71882,0.626718,15.3318
7.46947,-1,1,0.00861272,-0.215278,0.26352,0.940326,-0.0335482,0.285702,0.957731,-0.0416487,0.998955,0.0188289,0.000433,-0.000918,0.002262,-107.08,2.595,88.574,1.37872,5.72975,1.87007,18.2605
7.54545,0.00125438,0.000716088,-0.00391101,-0.215278,0.26352,0.940326,-0.0335482,0.285702,0.957731,-0.0446902,0.998693,0.0247939,-0.001524,-0.002427,-0.001054,-107.081,2.595,88.574,0.0709887,6.20007,0.564095,20.0649
7.58893,0.00107631,0.00043164,-0.00362667,-0.215278,0.26352,0.940326,-0.0335482,0.285702,0.957731,-0.0474659,0.99862,0.022457,0.000138,0.001869,0.002575,-107.08,2.596,88.573,0.0874793,6.56352,0.534256,20.8838
7.64452,-0.0801947,0.0258788,-0.0306726,-0.215278,0.26352,0.940326,-0.0335482,0.285702,0.957731,-0.0429369,0.998897,0.0190149,0.000451,-0.001731,0.000722,-107.081,2.596,88.574,0.0284713,6.88745,0.512045,21.8627
7.67227,0.000276919,0.0049615,-1,-0.215278,0.26352,0.940326,-0.0335482,0.285702,0.957731,-0.0486771,0.998339,0.0308186,-0.000384,0.003472,-0.00053,-107.081,2.597,88.574,0.978124,5.10414,0.885691,21.4105
7.73147,-0.0764643,0.0212157,-0.0134858,-0.215278,0.26352,0.940326,-0.0335482,0.285702,0.957731,-0.0416766,0.998906,0.0211967,-0.000228,-0.002653,0.000305,-107.086,2.597,88.574,0.0580064,5.56505,0.462781,22.2043
7.76057,0.00587263,0.00336273,0.087237,-0.215278,0.26352,0.940326,-0.0335482,0.285702,0.957731,-0.0505544,0.998423,0.0244091,0.001356,0.002805,0.001784,-107.084,2.598,88.573,0.187918,6.10914,0.498022,22.6888
7.81568,-0.50387,1,0.00529982,-0.215278,0.26352,0.940326,-0.0335482,0.285702,0.957731,-0.0444181,0.998793,0.0209809,0.000624,-0.001411,0.002993,-107.083,2.598,88.572,1.00912,4.56488,1.38902,25.179
7.88933,-0.00398648,0.00229688,0.00969645,-0.215278,0.26352,0.940326,-0.0335482,0.285702,0.957731,-0.0386931,0.99906,0.0195513,-0.002771,-0.005384,-0.000775,-107.085,2.596,88.572,0.179408,5.89971,0.396136,26.1828
7.92198,-1,1,-0.985941,-0.215278,0.26352,0.940326,-0.0335482,0.285702,0.957731,-0.0385695,0.999114,0.0168229,0.000173,-0.005598,0.000692,-107.091,2.596,88.571,1.53996,3.30957,1.65718,26.8566
7.97798,0.0333183,-0.969891,1,-0.215278,0.26352,0.940326,-0.0335482,0.285702,0.957731,-0.0529292,0.998122,0.0308414,0.002334,0.006456,0.001717,-107.091,2.596,88.572,1.54329,10.8215,1.49273,27.4712
8.03514,-0.00172155,0.0070932,0.0022355,-0.215278,0.26352,0.940326,-0.0335482,0.285702,0.957731,-0.0543364,0.997935,0.0342534,0.003273,0.005356,-0.000954,-107.089,2.596,88.572,0.197802,11.38,0.319091,27.9076
8.06765,-0.00152479,0.00616996,0.00214608,-0.215278,0.26352,0.940326,-0.0335482,0.285702,0.957731,-0.0533885,0.99801,0.0335585,-0.000785,0.002248,-0.003932,-107.09,2.597,88.571,0.195222,11.1835,0.302754,28.0084
8.13254,-0.10358,0.0220245,0.00294547,-0.215278,0.26352,0.940326,-0.0335482,0.285702,0.957731,-0.0428014,0.998699,0.027719,-0.003786,-0.003188,-0.004499,-107.099,2.596,88.569,0.0977997,10.9555,0.213595,28.1755
8.16106,0.00513678,0.0016401,0.11486,-0.215278,0.26352,0.940326,-0.0335482,0.285702,0.957731,-0.0355954,0.999227,0.0166725,0.000084,-0.001744,0.002581,-107.097,2.595,88.571,0.239907,11.1923,0.324547,28.3267
8.21663,0.00447062,0.00190656,-0.00131793,-0.215278,0.26352,0.940326,-0.0335482,0.285702,0.957731,-0.0408932,0.998919,0.0220823,-0.003505,-0.000549,-0.001913,-107.094,2.595,88.571,0.182666,10.9324,0.221607,28.1889
8.25031,0.00390809,0.00221401,-0.00100941,-0.215278,0.26352,0.940326,-0.0335482,0.285702,0.957731,-0.0463623,0.998573,0.0264928,-0.0019,-0.003032,-0.003097,-107.092,2.595,88.571,0.171373,10.6736,0.201407,28.005
8.3083,-0.00174802,0.00800894,5.41834E-05,-0.215278,0.26352,0.940326,-0.0335482,0.285702,0.957731,-0.0505094,0.998352,0.0272445,0.002224,0.000422,0.001303,-107.096,2.595,88.57,0.144483,10.1477,0.161031,27.5701
8.33773,-0.001806,0.00781648,0.000563624,-0.215278,0.26352,0.940326,-0.0335482,0.285702,0.957731,-0.0424295,0.998725,0.0273344,-0.002333,-0.001016,-0.003259,-107.099,2.595,88.569,0.139895,9.96324,0.155021,27.3149
8.3937,0.0022312,0.000597116,0.00488975,-0.215278,0.26352,0.940326,-0.0335482,0.285702,0.957731,-0.0474029,0.998424,0.0300355,0.001026,0.003633,0.000186,-107.095,2.596,88.571,0.127016,9.60644,0.148693,26.7184
8.42187,0.00188615,0.000445329,0.00507786,-0.215278,0.26352,0.940326,-0.0335482,0.285702,0.957731,-0.0417156,0.99883,0.0244786,0.000534,0.000298,-0.000284,-107.093,2.596,88.571,0.118214,9.47601,0.14906,26.3831
8.4774,-1,-1,0.0117394,-0.215278,0.26352,0.940326,-0.0335482,0.285702,0.957731,-0.0447175,0.998692,0.024809,-0.000065,-0.001189,-0.000926,-107.093,2.595,88.57,1.37157,12.3636,1.43291,25.0717
8.50934,1,1,1,-0.215278,0.26352,0.940326,-0.0335482,0.285702,0.957731,-0.043738,0.998805,0.0218178,-0.000644,-0.002809,-0.000181,-107.095,2.596,88.569,1.75961,12.8978,1.67708,26.5935
8.56682,-1,1,-1,-0.215278,0.26352,0.940326,-0.0335482,0.285702,0.957731,-0.046563,0.998495,0.0289612,0.00055,0.001049,-0.001614,-107.093,2.596,88.57,1.67574,4.97641,1.6558,24.4378
8.62619,0.00215261,0.00564135,0.00627694,-0.215278,0.26352,0.940326,-0.0335482,0.285702,0.957731,-0.0461242,0.998712,0.0211233,0.000956,0.001601,0.001676,-107.084,2.596,88.57,0.14323,4.95678,0.268642,23.4389
8.65759,0.0018107,0.00541569,0.00653747,-0.215278,0.26352,0.940326,-0.0335482,0.285702,0.957731,-0.0518475,0.998269,0.0277609,-0.000184,0.002518,-0.000937,-107.084,2.596,88.568,0.150178,5.23262,0.290554,22.9061
8.71703,-0.00191977,0.00528246,0.000275606,-0.215278,0.26352,0.940326,-0.0335482,0.285702,0.957731,-0.0387992,0.999132,0.0151912,-0.001592,-0.005333,0.000277,-107.089,2.596,88.566,0.157784,5.84799,0.326698,21.8485
8.7523,-0.00158718,0.00494326,-0.000247026,-0.215278,0.26352,0.940326,-0.0335482,0.285702,0.957731,-0.03897,0.999068,0.018562,-0.002283,-0.001649,0.00053,-107.086,2.596,88.566,0.162739,6.21184,0.352812,21.1774
8.80687,0.00116225,0.00193169,1.86588E-05,-0.215278,0.26352,0.940326,-0.0335482,0.285702,0.957731,-0.0470923,0.99852,0.0272157,-0.001013,0.002187,-0.002971,-107.078,2.597,88.569,0.163119,6.66367,0.389052,20.0615
8.83834,0.000859958,0.00211022,-0.000365793,-0.215278,0.26352,0.940326,-0.0335482,0.285702,0.957731,-0.0409014,0.998914,0.0222913,-0.00355,-0.004622,-0.002454,-107.078,2.598,88.569,0.160169,6.93913,0.401357,19.399
8.89465,0.00274409,-0.00270656,-0.00661836,-0.215278,0.26352,0.940326,-0.0335482,0.285702,0.957731,-0.0508069,0.998115,0.0344143,-0.000761,0.00171,-0.003903,-107.086,2.599,88.565,0.150271,7.26289,0.440235,18.1294
8.92478,0.00289013,-0.00195879,-0.00609782,-0.215278,0.26352,0.940326,-0.0335482,0.285702,0.957731,-0.0419071,0.99882,0.024531,-0.002495,-0.002418,-0.001309,-107.093,2.599,88.565,0.144397,7.4673,0.451783,17.4402
8.9799,-0.00337174,0.00137199,0.00922377,-0.215278,0.26352,0.940326,-0.0335482,0.285702,0.957731,-0.0507626,0.99823,0.0309876,0.000097,0.004097,-0.00347,-107.082,2.599,88.568,0.127764,7.76134,0.472223,16.1426
9.00968,-0.00336477,0.00118921,0.00808741,-0.215278,0.26352,0.940326,-0.0335482,0.285702,0.957731,-0.0396217,0.999018,0.0198109,-0.002846,-0.002204,-0.002654,-107.076,2.599,88.568,0.122116,7.96665,0.481344,15.4418
9.06414,0.00183125,0.00758431,0.00262493,-0.215278,0.26352,0.940326,-0.0335482,0.285702,0.957731,-0.0479959,0.998335,0.0319973,-0.002057,-0.002665,-0.004141,-107.08,2.6,88.567,0.106872,8.16985,0.499521,14.1321
9.0935,0.0016301,0.00715304,0.00213622,-0.215278,0.26352,0.940326,-0.0335482,0.285702,0.957731,-0.042291,0.998883,0.0210945,-0.002074,-0.007082,-0.00243,-107.081,2.6,88.566,0.0985749,8.28676,0.508181,13.4258
9.14755,3.00682E-05,0.00123923,-0.00523964,-0.215278,0.26352,0.940326,-0.0335482,0.285702,0.957731,-0.0410198,0.998898,0.0228115,-0.000449,0.000699,-0.001905,-107.082,2.6,88.567,0.091689,8.48391,0.543187,12.1163
9.17305,0.000540473,0.00170127,-0.00515795,-0.215278,0.26352,0.940326,-0.0335482,0.285702,0.957731,-0.0442575,0.998809,0.0205445,0.001456,0.002655,0.002895,-107.077,2.599,88.568,0.0865602,8.53852,0.554921,11.4949
9.22747,-0.000760166,9.83924E-05,-0.00188199,-0.215278,0.26352,0.940326,-0.0335482,0.285702,0.957731,-0.0422292,0.998879,0.0213702,-0.001523,-0.001759,0.002316,-107.072,2.598,88.567,0.0772101,8.67505,0.569063,10.2356
9.25641,-0.000729759,-0.00028925,-0.00180671,-0.215278,0.26352,0.940326,-0.0335482,0.285702,0.957731,-0.048749,0.998437,0.0273321,0.001668,-0.000089,0.000533,-107.074,2.599,88.567,0.0713807,8.69006,0.578807,9.59115
9.32099,0.00262488,0.00407099,0.00018409,-0.215278,0.26352,0.940326,-0.0335482,0.285702,0.957731,-0.0456517,0.998618,0.0260429,-0.000211,0.000137,-0.00049,-107.08,2.597,88.567,0.0609091,8.7286,0.591488,8.31816
9.34918,0.00239199,0.00390815,0.00043253,-0.215278,0.26352,0.940326,-0.0335482,0.285702,0.957731,-0.0441051,0.998761,0.0230247,0.000966,0.003688,-0.000413,-107.075,2.597,88.567,0.0601312,8.7476,0.601453,7.84876
9.40423,-0.674956,0.118087,0.00442947,-0.215278,0.26352,0.940326,-0.0335482,0.285702,0.957731,-0.0452377,0.998708,0.0231306,-0.000383,-0.001177,0.000614,-107.07,2.596,88.567,0.653392,8.7418,0.820896,7.48665
9.43386,-1,0.0165651,-0.0202183,-0.215278,0.26352,0.940326,-0.0335482,0.285702,0.957731,-0.045156,0.998733,0.0222212,0.000762,-0.00301,-0.001095,-107.076,2.598,88.566,0.965554,8.89172,1.14196,7.53486
9.48849,0.000526749,0.00324199,0.00522885,-0.215278,0.26352,0.940326,-0.0335482,0.285702,0.957731,-0.0427019,0.998938,0.0173061,-0.000083,-0.00307,0.001643,-107.085,2.598,88.564,0.0797429,8.89733,0.620674,7.52483
9.52046,0.000633581,0.00362392,0.0050197,-0.215278,0.26352,0.940326,-0.0335482,0.285702,0.957731,-0.0473265,0.998549,0.0257032,-0.001608,0.003822,-0.001446,-107.079,2.597,88.565,0.094046,8.84393,0.630499,7.61377
9.577,9.66294E-05,0.00475798,0.0043073,-0.215278,0.26352,0.940326,-0.0335482,0.285702,0.957731,-0.0399526,0.99902,0.0190543,0.000068,-0.000587,0.001701,-107.075,2.596,88.567,0.104638,8.83606,0.632028,8.06752
9.60734,-3.51379E-05,0.00456766,0.00413501,-0.215278,0.26352,0.940326,-0.0335482,0.285702,0.957731,-0.049972,0.99852,0.0214604,0.001138,-0.000266,0.002854,-107.078,2.597,88.568,0.108921,8.74736,0.634715,8.37315
9.66199,-0.00123422,-0.00182744,0.00133716,-0.215278,0.26352,0.940326,-0.0335482,0.285702,0.957731,-0.0531657,0.998107,0.0309198,0.00052,0.003678,-0.000565,-107.086,2.598,88.566,0.1144,8.54891,0.644914,9.05075
9.70526,-0.00105695,-0.00149853,-0.00434402,-0.215278,0.26352,0.940326,-0.0335482,0.285702,0.957731,-0.0513738,0.998077,0.0346901,0.000559,0.00399,-0.004079,-107.084,2.598,88.566,0.112531,8.40529,0.644004,9.70132
9.7598,0.00179917,-0.00514775,0.00414337,-0.215278,0.26352,0.940326,-0.0335482,0.285702,0.957731,-0.0523184,0.998224,0.0285003,0.002267,0.005946,0.00183,-107.074,2.597,88.568,0.112871,8.26051,0.64435,10.6642
9.79117,0.00211091,-0.00430233,0.00346603,-0.215278,0.26352,0.940326,-0.0335482,0.285702,0.957731,-0.0528032,0.998164,0.0296636,0.001613,0.003604,-0.001428,-107.076,2.598,88.568,0.109144,8.17688,0.637016,11.2517
9.84651,-1.99554E-05,0.00124165,0.00294368,-0.215278,0.26352,0.940326,-0.0335482,0.285702,0.957731,-0.0483912,0.998581,0.0222476,0.001599,-0.000438,0.004892,-107.088,2.598,88.566,0.100701,8.07031,0.621914,12.3313
9.86534,0.000108745,0.00119198,0.00269803,-0.215278,0.26352,0.940326,-0.0335482,0.285702,0.957731,-0.0394527,0.999127,0.0137316,-0.000448,-0.00387,0.002722,-107.09,2.597,88.565,0.100445,8.07701,0.615108,12.7218
9.92061,0.000104395,-0.00269276,0.00297382,-0.215278,0.26352,0.940326,-0.0335482,0.285702,0.957731,-0.0393047,0.998994,0.0215971,-0.000894,-0.001992,-0.002984,-107.088,2.597,88.565,0.0958331,8.14592,0.605954,13.901
9.94462,-2.76826E-05,-0.00271295,0.00298277,-0.215278,0.26352,0.940326,-0.0335482,0.285702,0.957731,-0.0536922,0.998103,0.0301125,0.003506,0.005883,0.000607,-107.083,2.599,88.565,0.09132,8.0945,0.607611,14.3918
9.9983,-0.00295877,0.00634678,0.000451374,-0.215278,0.26352,0.940326,-0.0335482,0.285702,0.957731,-0.0498388,0.998206,0.0331918,0.001052,0.000285,0.000367,-107.081,2.598,88.566,0.0734558,7.99133,0.579702,15.4585
10.025,-0.00309622,0.0060929,0.000433319,-0.215278,0.26352,0.940326,-0.0335482,0.285702,0.957731,-0.0400129,0.998997,0.0201085,-0.001669,-0.006495,-0.001639,-107.085,2.599,88.564,0.0692814,8.00399,0.565072,15.9945
