test for writing sensor data,,,,,,,,,,,,,,,,,,,,
Time, omega_x, omega_y, omega_z,cam1_x, cam1_y, cam1_z, cam2_x, cam2_y, cam2_z,g_x, g_y, g_z,true_omega_x, true_omega_y, true_omega_z,true_attitude_x, true_attitude_y, true_attitude_z,bias_err, attitude_err
0.000000224,-0.00769875,0.00337458,0.0105654,-0.0222249,0.100644,0.994674,0.149969,0.0271635,0.988318,0.349673,0.936354,0.0311367,0.000971,-0.008393,0.002707,-54.939,-22.534,87.383,0.016597,38.2203
0.0572667,-0.00687998,0.00426125,0.0101427,-0.0222249,0.100644,0.994674,0.150338,0.0275144,0.988252,0.371961,0.927303,0.0418953,0.000315,-0.004234,-0.005326,-54.931,-22.534,87.381,0.522182,31.0964
0.0895673,-16.5284,0.10962,-0.0675457,-0.0222249,0.100644,0.994674,0.150338,0.0275144,0.988252,0.370463,0.928001,0.0396267,-0.003039,-0.014278,-0.003118,-54.931,-22.534,87.383,17.1423,38.2871
0.142572,17.0516,10.0202,0.0739962,-0.0222249,0.100644,0.994674,0.150338,0.0275144,0.988252,0.392685,0.918679,0.0427364,-0.003018,-0.000031,-0.00074,-54.928,-22.537,87.383,19.3438,15.8985
0.165997,-11.0094,16.6982,-15.9335,-0.0218,0.100264,0.994722,0.150699,0.0271772,0.988206,0.385721,0.921508,0.045193,0.000152,0.000527,0.000363,-54.927,-22.538,87.383,26.355,10.5304
0.220131,0.0457992,-15.8612,12.6723,-0.0215029,0.100224,0.994732,0.150699,0.0271772,0.988206,0.387289,0.920998,0.0420678,0.001053,0.004424,0.000771,-54.931,-22.537,87.383,19.7836,28.8059
0.247306,15.9618,13.6982,-17.4293,-0.0217769,0.100576,0.994691,0.150699,0.0271772,0.988206,0.380266,0.92403,0.0395706,-0.000183,-0.001929,-0.000289,-54.934,-22.536,87.383,27.0722,7.65477
0.301737,-0.0334856,0.00958238,14.035,-0.0207816,0.100233,0.994747,0.150328,0.0268255,0.988272,0.385074,0.921526,0.0500851,0.001478,-0.000618,-0.000918,-54.944,-22.535,87.387,13.9994,33.6513
0.332411,0.0889003,0.81254,0.0654824,-0.021173,0.10028,0.994734,0.150328,0.0268255,0.988272,0.386974,0.921198,0.0405674,-0.001773,-0.001789,-0.001419,-54.947,-22.536,87.388,2.15198,28.5278
0.396163,-0.030825,0.137289,-0.0542429,-0.021173,0.10028,0.994734,0.150699,0.0271772,0.988206,0.38656,0.921277,0.0426669,0.002528,0.001187,0.003543,-54.99,-22.535,87.396,1.81973,14.7469
0.425935,-14.0068,14.5155,0.740201,-0.0207816,0.100233,0.994747,0.150657,0.0268344,0.988222,0.380449,0.92405,0.0372889,0.002514,0.007291,-0.002607,-54.976,-22.534,87.393,21.7189,8.8723
0.480988,-13.3251,-12.0092,0.0548402,-0.0208189,0.100647,0.994704,0.150961,0.0268269,0.988176,0.383808,0.921828,0.054076,0.005378,0.023031,-0.068204,-54.986,-22.432,87.392,18.1457,52.9626
0.509092,0.157543,9.74831,12.6723,-0.0212984,0.0998303,0.994777,0.151638,0.0268238,0.988072,0.374637,0.925903,0.0484788,0.005641,0.012763,-0.126895,-54.973,-22.269,87.391,16.0511,35.2003
0.565214,-9.6477,11.7911,-10.8556,-0.0201202,0.0999571,0.994788,0.151664,0.0264786,0.988077,0.366782,0.929618,0.0357861,0.003154,0.002708,-0.339957,-55.078,-21.46,87.425,19.5069,24.6467
0.592619,-0.0180543,-0.0574638,-1.76658,-0.0208189,0.100647,0.994704,0.151307,0.0268161,0.988123,0.362065,0.931316,0.0394886,0.004179,0.001593,-0.38364,-55.088,-20.939,87.437,2.2221,26.3782
0.648547,0.0585699,-1.69424,9.94788,-0.0222719,0.0994435,0.994794,0.151328,0.0271777,0.98811,0.339776,0.939747,0.0377983,0.003649,-0.008951,-0.550613,-55.161,-19.36,87.476,9.80815,5.58557
0.678526,-0.650204,0.114409,-0.100537,-0.0211736,0.098883,0.994874,0.151648,0.0282005,0.988032,0.312099,0.949038,0.0438284,-0.000529,-0.036796,-0.532269,-55.257,-18.415,87.506,0.632617,9.82991
0.73391,-0.0036873,-0.0164911,-0.00635275,-0.0218805,0.098191,0.994927,0.151642,0.0295961,0.987992,0.292239,0.955369,0.0432076,0.002942,-0.019802,-0.330839,-55.404,-17.062,87.55,0.899558,19.3917
0.75751,-0.00507229,-0.017364,-0.00763113,-0.024385,0.0973371,0.994953,0.151273,0.0309997,0.988006,0.287923,0.95678,0.0408837,0.002169,-0.02855,-0.300086,-55.464,-16.667,87.567,0.972826,23.0068
0.811542,-0.00589106,-0.0176911,-0.00988002,-0.0250922,0.09523,0.995139,0.152949,0.0354815,0.987597,0.271437,0.961404,0.0449845,0.003884,0.032997,-0.336112,-55.502,-15.664,87.584,1.04853,30.3028
0.840567,-0.0071879,-0.0174943,-0.0125498,-0.0239825,0.0947013,0.995217,0.15394,0.0372162,0.987379,0.266515,0.962981,0.0404768,0.007079,0.009964,-0.333277,-55.487,-15.085,87.591,1.08435,33.5964
0.894818,-0.00792204,-0.018327,-0.0156236,-0.0246235,0.0934783,0.995317,0.155273,0.0396324,0.987076,0.244612,0.968834,0.0390642,0.002514,0.008985,-0.340445,-55.541,-14.078,87.614,1.12014,38.9428
0.924931,-0.00862681,-0.0186155,-0.017042,-0.0250582,0.0929592,0.995355,0.154596,0.0417191,0.987097,0.233944,0.971335,0.0421832,0.000196,0.000059,-0.270362,-55.551,-13.551,87.617,1.146,41.4629
0.979876,-0.00879257,-0.0188926,-0.0163603,-0.0254349,0.0923354,0.995403,0.154587,0.0431119,0.987038,0.222422,0.974283,0.0360656,-0.000696,-0.010952,-0.228564,-55.633,-12.86,87.634,1.12869,45.3362
1.00499,-0.00895169,-0.0191585,-0.0146842,-0.0258415,0.0923074,0.995395,0.154901,0.0448487,0.986912,0.218947,0.974596,0.0471579,-0.00161,0.013589,-0.261127,-55.641,-12.502,87.632,1.0906,46.7972
1.06068,-0.00757197,-0.0178814,-0.0125644,-0.0276559,0.0920938,0.995366,0.155212,0.045878,0.986815,0.204501,0.978085,0.0390988,0.001281,-0.00929,-0.189538,-55.655,-11.75,87.635,1.03185,49.55
1.08714,-0.00624743,-0.0171661,-0.0105293,-0.0260488,0.0909078,0.995519,0.155568,0.0469238,0.98671,0.202457,0.978321,0.043581,-0.000392,-0.009283,-0.184275,-55.689,-11.486,87.642,0.98833,50.5704
1.14232,-0.00497588,-0.0169903,-0.0095973,-0.0275444,0.0902364,0.995539,0.154843,0.049699,0.986688,0.193046,0.980266,0.042558,0.001571,0.006417,-0.121824,-55.695,-10.989,87.641,0.903389,52.1941
1.16943,-0.00273353,-0.015289,-0.00972424,-0.0272038,0.0903257,0.995541,0.155183,0.0504051,0.986599,0.189089,0.981239,0.0376337,-0.001365,-0.010357,-0.092758,-55.712,-10.824,87.645,0.860212,52.7711
1.2268,-0.00160253,-0.0141666,-0.00933527,-0.0274496,0.0895053,0.995608,0.155476,0.0510706,0.986519,0.182814,0.982331,0.0400576,-0.000567,0.001995,0.025893,-55.76,-10.72,87.64,0.79293,53.6274
1.2549,-5.94929E-06,-0.0130891,-0.00947269,-0.0285978,0.089197,0.995603,0.155177,0.0517644,0.98653,0.193758,0.980209,0.0405871,0.000384,0.021368,0.067557,-55.734,-10.799,87.635,0.756725,53.688
1.30883,0.000505118,-0.0115439,-0.00909378,-0.0271446,0.088784,0.995681,0.155464,0.0524613,0.986448,0.187051,0.981557,0.0394703,-0.009191,-0.022494,0.124532,-55.763,-11.094,87.621,0.673729,53.6553
1.33566,-9.64457,7.30554,10.2303,-0.0267501,0.088812,0.995689,0.156157,0.0528028,0.98632,0.19265,0.980493,0.0389789,-0.000181,0.021546,0.165081,-55.749,-11.326,87.61,15.1858,30.7754
1.3902,0.00156934,0.0198507,0.00314481,-0.0271446,0.088784,0.995681,0.155464,0.0524613,0.986448,0.212997,0.976306,0.0381961,0.001181,0.014383,0.20839,-55.656,-11.918,87.586,0.809323,30.734
1.42014,0.00150657,0.018035,0.00352984,-0.0267501,0.088812,0.995689,0.156523,0.0517517,0.986318,0.213459,0.976251,0.0369901,-0.004227,-0.002628,0.214577,-55.648,-12.282,87.574,0.852357,32.9474
1.47414,0.00144631,0.0157811,0.00492113,-0.0271903,0.0891984,0.995643,0.156521,0.0510638,0.986354,0.226627,0.973175,0.0396316,-0.000152,0.022981,0.226405,-55.587,-12.953,87.552,0.899494,36.1963
1.49794,0.00138845,0.0125958,0.00472429,-0.0260423,0.0895081,0.995646,0.155859,0.0496786,0.986529,0.233476,0.971556,0.0395948,-0.002159,0.007671,0.215071,-55.557,-13.265,87.541,0.895759,37.3868
1.55552,0.00133292,0.0100486,0.00300283,-0.0261371,0.0902394,0.995577,0.156219,0.0486584,0.986523,0.237604,0.970437,0.0423928,0.000207,0.011531,0.268637,-55.543,-14.034,87.518,0.923992,39.7346
1.58357,0.0012796,0.00811419,0.000839408,-0.025679,0.0905584,0.99556,0.1562,0.0482958,0.986544,0.255696,0.965827,0.0424111,-0.000872,0.013948,0.296058,-55.513,-14.486,87.507,0.930563,40.4947
1.64067,-0.00776631,-0.00199595,-0.000224817,-0.0250359,0.0908827,0.995547,0.155865,0.0462292,0.986696,0.266124,0.963265,0.0360291,-0.001481,0.012896,0.292952,-55.506,-15.443,87.477,0.878341,41.3023
1.66979,-0.00234738,-0.00191611,-0.000215824,-0.0253407,0.0916031,0.995473,0.155545,0.04519,0.986795,0.280535,0.958919,0.0421312,0.000163,0.021586,0.258023,-55.46,-16.073,87.459,0.82551,41.3512
1.73574,-0.00500794,-0.0657696,0.27329,-0.0244345,0.0923104,0.99543,0.155575,0.0434412,0.986868,0.286444,0.957133,0.0429666,-0.000781,0.004215,0.208493,-55.454,-16.802,87.437,0.578207,39.3118
1.76822,-0.00128315,-0.067366,0.272758,-0.0240008,0.0930538,0.995372,0.155241,0.0420614,0.986981,0.298779,0.953334,0.0434123,-0.002201,0.003845,0.185681,-55.434,-17.162,87.426,0.533418,38.1109
1.82383,0.0955613,0.00446924,1.31729,-0.0255379,0.0942063,0.995225,0.154614,0.0406985,0.987136,0.305544,0.951261,0.0417811,-0.003249,0.00299,0.242723,-55.451,-17.847,87.411,0.963113,30.785
1.85263,0.0960934,0.00446924,1.31889,-0.0243769,0.0948058,0.995197,0.154277,0.0393174,0.987245,0.312985,0.948648,0.0459073,0.001468,0.021372,0.221333,-55.414,-18.215,87.399,0.967035,27.1485
1.90767,0.175378,0.0523594,-9.25365,-0.0242544,0.0950502,0.995177,0.153932,0.0386099,0.987327,0.316793,0.94772,0.038334,-0.004654,-0.018466,0.22293,-55.406,-18.912,87.383,9.63079,72.4819
1.93467,2.88809,0.728142,-0.136437,-0.0247411,0.0955974,0.995113,0.154307,0.0375665,0.987309,0.325452,0.944485,0.0450484,0.002779,0.024292,0.214097,-55.38,-19.228,87.374,3.10639,71.0496
1.99035,0.132809,0.0869467,1.31942,-0.0233852,0.0961111,0.995096,0.153631,0.035849,0.987478,0.337294,0.940404,0.043277,-0.000003,-0.001003,0.146838,-55.274,-19.81,87.345,1.32587,55.7045
2.01717,0.132277,0.088543,1.31783,-0.0222241,0.0964704,0.995088,0.153942,0.0344474,0.987479,0.337902,0.940165,0.0437357,-0.001842,-0.006529,0.106626,-55.289,-20.007,87.346,1.41646,48.5471
2.08235,0.102479,-0.0939716,1.35774,-0.024032,0.0977041,0.994925,0.152969,0.0330639,0.987678,0.345496,0.937118,0.0494295,0.001465,0.021528,-0.034389,-55.163,-20.093,87.327,1.70654,32.6622
2.11182,0.103543,-0.0939716,1.35827,-0.024032,0.0977041,0.994925,0.152646,0.0327187,0.987739,0.343519,0.938066,0.0450198,0.004197,-0.001961,-0.070528,-55.163,-20.01,87.33,1.74838,26.4981
2.16632,0.107268,-0.00830146,1.33273,-0.0225911,0.0986332,0.994867,0.152279,0.0323686,0.987807,0.339346,0.939718,0.0421242,-0.001154,-0.030717,-0.189374,-55.215,-19.585,87.351,1.80795,17.1245
2.19126,0.106204,-0.00723723,1.33326,-0.0243821,0.0987354,0.994815,0.151286,0.0320376,0.987971,0.32705,0.944016,0.0432725,-0.001198,-0.031247,-0.233465,-55.289,-19.277,87.373,1.82961,13.7028
2.24589,0.0439464,0.0800292,0.875641,-0.0257887,0.0987342,0.99478,0.14997,0.0330857,0.988137,0.315949,0.947948,0.039634,0.006091,-0.003029,-0.336574,-55.359,-18.382,87.412,1.41444,10.2886
2.27129,0.046607,0.0816256,0.875641,-0.0246866,0.0981873,0.994862,0.150612,0.0341253,0.988004,0.312513,0.948854,0.0448486,0.005888,-0.008854,-0.383035,-55.394,-17.808,87.432,1.42192,9.29681
2.32652,0.0497997,0.083754,0.874577,-0.0244348,0.0978915,0.994897,0.150939,0.0344709,0.987942,0.284681,0.957732,0.0413115,-0.00074,-0.039999,-0.438184,-55.564,-16.588,87.488,1.37355,8.77608
2.39961,0.0359647,-9.17979,-11.5689,-0.0262321,0.097713,0.994869,0.151599,0.0354899,0.987805,0.253801,0.96639,0.0409357,0.001996,-0.021104,-0.451954,-55.729,-14.695,87.539,14.3489,78.0167
2.4295,-0.481249,0.041185,-0.124198,-0.0261087,0.0965385,0.994987,0.151233,0.0386282,0.987743,0.239636,0.969978,0.0414538,-0.001939,-0.035791,-0.387812,-55.856,-13.981,87.561,1.00874,75.0853
2.48491,0.0428822,-0.0253291,0.475493,-0.0260441,0.095093,0.995128,0.152561,0.0396727,0.987497,0.224053,0.973652,0.0424436,-0.000049,-0.006292,-0.282816,-56.002,-12.967,87.587,1.15906,64.7597
2.51321,0.0439464,-0.0221364,0.4723,-0.0267178,0.093993,0.995214,0.152221,0.0424448,0.987435,0.221832,0.974165,0.0423461,-0.001473,-0.006932,-0.245365,-56.045,-12.522,87.591,1.17652,60.0766
2.57683,-0.0165567,0.017572,-0.101351,-0.0267971,0.0919112,0.995407,0.153886,0.0455559,0.987038,0.200969,0.978733,0.0411488,-0.007965,-0.029167,-0.082472,-56.163,-11.916,87.598,0.686138,53.9518
2.60894,-0.0184485,0.0163583,-0.0972971,-0.0278887,0.0913089,0.995432,0.154198,0.047292,0.986907,0.204641,0.977842,0.0441362,-0.00081,-0.003084,0.018989,-56.206,-11.883,87.597,0.643415,51.2654
2.66489,-0.0902837,0.0834045,-0.493189,-0.0274664,0.0906043,0.995508,0.154829,0.0493594,0.986707,0.202585,0.978414,0.0408011,-0.009795,-0.026333,0.15768,-56.244,-12.139,87.581,0.625428,48.8216
2.69179,-0.0897516,0.0844687,-0.497446,-0.0275444,0.0902364,0.995539,0.154843,0.049699,0.986688,0.209883,0.976896,0.0402991,-0.003054,-0.006094,0.247046,-56.267,-12.48,87.574,0.629481,47.6638
2.74628,-0.501075,0.116928,-0.252142,-0.0263736,0.0894516,0.995642,0.155859,0.0496786,0.986529,0.225266,0.973159,0.0470752,-0.008743,-0.005981,0.313704,-56.206,-13.348,87.541,0.930418,43.9094
2.77422,-0.0173843,-0.106028,-3.9317,-0.0260902,0.0898187,0.995616,0.156189,0.0496869,0.986477,0.195956,0.978063,0.0706693,0.005167,-0.019551,0.421096,-56.22,-13.998,87.53,3.79684,51.1673
2.83104,-0.0769809,-0.0772935,-0.910897,-0.0240236,0.0895375,0.995694,0.157927,0.047613,0.986302,0.300437,0.953775,0.00716811,-0.005283,0.013647,0.366209,-56.173,-15.323,87.546,0.703275,49.4778
2.86234,-0.077513,-0.0799541,-0.910897,-0.0241375,0.0899926,0.99565,0.158245,0.0465614,0.986301,0.291633,0.956195,0.0253147,-0.005812,0.025758,0.32557,-56.11,-15.9,87.514,0.606907,47.8788
2.92182,-0.0817699,-0.0400456,-1.03594,-0.0211188,0.0916102,0.995571,0.159599,0.0430697,0.986242,0.303966,0.952108,0.0330841,-0.001685,-0.000924,0.279178,-56.029,-17.063,87.477,0.580327,45.2218
2.9506,-0.0817699,-0.0400456,-1.03807,-0.0204618,0.0926156,0.995492,0.158943,0.0420531,0.986392,0.281527,0.957886,0.0565504,-0.00217,0.011201,0.234247,-56.02,-17.426,87.468,0.500601,44.1889
3.00552,-0.0828342,-0.0405778,-1.03967,-0.0208371,0.0929663,0.995451,0.158629,0.0403173,0.986515,0.309402,0.95016,0.0382923,0.000541,0.004126,0.176729,-55.954,-18.256,87.441,0.372297,41.5298
3.06568,-0.0801736,-0.0592017,-1.16844,-0.0204173,0.0937033,0.995391,0.158317,0.0392887,0.986606,0.3229,0.945344,0.0453823,0.005813,0.032164,0.009612,-55.889,-18.484,87.427,0.261649,39.2423
3.09339,-0.0796415,-0.0586696,-1.16578,-0.0197619,0.0947082,0.995309,0.157322,0.036868,0.986859,0.32191,0.945881,0.0410318,0.004567,0.025023,-0.060826,-55.846,-18.422,87.418,0.168241,38.3008
3.14611,-0.0796415,-0.0576054,-1.16365,-0.0208706,0.0952326,0.995236,0.156973,0.035813,0.986953,0.328731,0.943855,0.0327806,0.002223,0.017201,-0.195992,-55.83,-18.019,87.427,0.0961445,36.5596
3.1671,-0.0796415,-0.0576054,-1.16099,-0.0208175,0.0964727,0.995118,0.156658,0.0354795,0.987015,0.314627,0.947762,0.0525059,-0.005207,0.016508,-0.241326,-55.828,-17.761,87.421,0.136504,36.041
3.22324,-0.0705956,-0.0187611,-0.842787,-0.0236824,0.0966303,0.995039,0.15429,0.0355037,0.987388,0.291441,0.956007,0.0333515,0.001233,-0.055334,-0.321124,-56.017,-16.831,87.458,0.535574,34.0263
3.25043,-0.0700635,-0.0192932,-0.842255,-0.0236307,0.0964679,0.995056,0.153279,0.0368946,0.987494,0.280582,0.959165,0.0357364,0.00495,0.007672,-0.360713,-56.084,-16.289,87.474,0.577733,33.1212
3.30541,-0.0769809,-0.000669308,-0.96198,-0.0246101,0.0960864,0.995069,0.152611,0.0375876,0.987571,0.263498,0.963804,0.0406405,-0.002533,-0.045318,-0.401163,-56.154,-15.071,87.503,0.495479,32.2669
3.32964,-0.0791094,-0.00386199,-0.961448,-0.0250922,0.09523,0.995139,0.153939,0.0379124,0.987353,0.248387,0.967931,0.0376065,-0.001363,-0.03938,-0.402219,-56.275,-14.501,87.525,0.490689,32.1497
3.38758,-0.0769809,0.095111,-0.870457,-0.0247383,0.0941411,0.995251,0.153939,0.0407028,0.987242,0.233861,0.971471,0.0394033,0.006088,0.007761,-0.458358,-56.379,-13.144,87.556,0.622083,32.7474
3.41945,-0.0769809,0.0945788,-0.872053,-0.0268582,0.0934877,0.995258,0.153886,0.0427861,0.987162,0.21141,0.976485,0.0422209,0.003448,-0.016456,-0.461621,-56.454,-12.28,87.574,0.612355,33.8884
3.47532,-0.0769809,0.0940467,-0.873649,-0.0258415,0.0923074,0.995395,0.154579,0.0438089,0.987009,0.201312,0.978939,0.0339428,-0.002852,-0.012595,-0.362319,-56.606,-10.913,87.603,0.486473,35.7275
3.5358,4.38531,-11.4964,-16.0559,-0.0276559,0.0920938,0.995366,0.154531,0.0465803,0.986889,0.172172,0.984105,0.0435273,-0.001971,-0.014935,-0.156206,-56.727,-10.035,87.606,19.2254,98.2191
3.56331,11.6071,-15.5836,-4.79425,-0.0274974,0.0898159,0.995579,0.154512,0.0496908,0.986741,0.173116,0.984113,0.0394093,-0.008314,-0.012838,-0.042872,-56.758,-9.889,87.601,19.6651,96.4836
3.62791,0.0187993,-0.102303,0.119273,-0.0285978,0.089197,0.995603,0.155177,0.0517644,0.98653,0.176026,0.983544,0.040692,-0.00562,0.015857,0.136426,-56.794,-10.146,87.573,1.54583,77.0907
3.65339,0.0177351,-0.098578,0.120337,-0.0271649,0.0880693,0.995744,0.155816,0.0535054,0.986336,0.182221,0.982314,0.0430741,-0.006016,0.010372,0.194158,-56.755,-10.414,87.558,1.58737,69.7679
3.72628,0.0161388,-0.0943211,0.121933,-0.0275497,0.0874642,0.995787,0.156828,0.0541792,0.986139,0.202904,0.978249,0.0431145,0.002344,0.03078,0.261413,-56.702,-11.477,87.525,1.71898,50.6633
3.78706,0.0214599,0.146194,0.725881,-0.0269593,0.0871726,0.995828,0.157154,0.0531225,0.986144,0.212259,0.97639,0.040099,-0.001587,-0.007849,0.296316,-56.661,-12.369,87.511,2.34976,34.639
3.81671,0.0214599,0.148322,0.729606,-0.0253437,0.0874127,0.99585,0.157854,0.0514002,0.986124,0.228498,0.97273,0.0398056,0.000829,0.025656,0.250788,-56.631,-12.841,87.506,2.39093,27.5899
3.87094,0.132671,0.0456245,1.35377,-0.0253437,0.0874127,0.99585,0.15788,0.0503488,0.986174,0.232602,0.971761,0.03972,-0.008998,-0.049189,0.284766,-56.62,-13.663,87.487,2.87498,14.3857
3.8996,0.134268,0.0456245,1.35165,-0.0243079,0.0890934,0.995727,0.157546,0.0482839,0.98633,0.232898,0.971667,0.0402779,-0.004265,-0.035063,0.331838,-56.666,-14.07,87.489,2.7718,9.27998
3.95607,0.135864,0.128634,1.80234,-0.0239345,0.0902048,0.995636,0.157579,0.0465359,0.986409,0.273897,0.960884,0.0410233,0.005409,0.023373,0.343469,-56.592,-15.589,87.464,3.06912,8.62139
3.98782,0.1348,0.13023,1.80128,-0.0234362,0.0906967,0.995603,0.158237,0.0451678,0.986368,0.277341,0.959941,0.0399421,0.000964,0.018131,0.307471,-56.562,-15.911,87.456,3.00579,12.6941
4.04569,0.0640289,0.0498814,1.12869,-0.0208137,0.0908899,0.995643,0.159599,0.0430697,0.986242,0.292343,0.955204,0.0460463,-0.00073,0.004734,0.28507,-56.464,-16.849,87.43,2.17727,16.4625
4.07941,0.0656252,0.0493493,1.12709,-0.0204622,0.0912151,0.995621,0.159965,0.0413393,0.986257,0.29342,0.954865,0.0462328,-0.005735,-0.024172,0.311072,-56.462,-17.408,87.421,2.03539,17.7637
4.1337,-8.00865,11.2524,11.5996,-0.0204404,0.0929231,0.995463,0.158317,0.0392887,0.986606,0.319105,0.946783,0.0421247,-0.000113,0.028613,0.267857,-56.389,-18.34,87.397,18.742,44.1899
4.16296,-0.0147238,0.0871293,8.05573,-0.0204173,0.0937033,0.995391,0.158303,0.0382296,0.98665,0.322776,0.945354,0.0460526,-0.001623,0.01292,0.240568,-56.327,-18.768,87.377,8.58589,51.3948
4.2184,-0.0908158,0.102561,-0.617171,-0.0205219,0.0942002,0.995342,0.157989,0.0365148,0.986766,0.332695,0.942088,0.0422534,0.010284,0.038886,0.065953,-56.241,-19.298,87.365,0.419684,40.5534
4.24968,-0.0934764,0.102561,-0.617171,-0.0191607,0.0948002,0.995312,0.158338,0.0354476,0.986748,0.332565,0.942522,0.0324478,0.015408,0.066061,-0.05345,-56.141,-19.27,87.355,0.515489,33.8905
4.31083,-0.140834,0.014762,-1.22165,-0.0197153,0.0957945,0.995206,0.156676,0.0330215,0.987098,0.330274,0.94265,0.0482756,-0.009771,-0.010863,-0.234849,-55.994,-18.741,87.342,1.01151,21.3971
4.33945,-0.140302,0.014762,-1.22272,-0.0202159,0.0965017,0.995127,0.155666,0.0330482,0.987257,0.31388,0.94873,0.0372957,-0.006219,-0.065218,-0.263341,-56.095,-18.301,87.365,1.09716,17.4043
4.39975,-0.179147,-0.0485594,-1.42492,-0.0218459,0.0971024,0.995035,0.153967,0.0337433,0.9875,0.304296,0.951578,0.0436174,0.008184,0.017968,-0.360191,-56.212,-17.304,87.412,1.31643,16.6338
4.42692,-0.186064,-0.0458989,-1.42385,-0.0246866,0.0981873,0.994862,0.151252,0.0347824,0.987883,0.292601,0.955264,0.0430685,0.003825,-0.023049,-0.422112,-56.242,-16.497,87.435,1.31146,19.3888
4.48497,-0.0998618,0.0270005,-1.14556,-0.0264961,0.0966279,0.994968,0.151248,0.0361999,0.987833,0.257389,0.965666,0.0352098,0.001808,-0.034548,-0.435348,-56.465,-15.21,87.487,1.24686,26.8973
4.51532,-0.100926,0.0270005,-1.14237,-0.0250371,0.0964651,0.995021,0.152265,0.0368799,0.987651,0.252636,0.966546,0.044306,0.011363,0.026653,-0.454176,-56.497,-14.445,87.505,1.24258,30.8078
4.57007,-0.101458,0.0264684,-17.0089,-0.0274349,0.0948763,0.995111,0.151892,0.040366,0.987572,0.220414,0.974676,0.0377386,-0.000296,-0.03032,-0.410773,-56.647,-12.938,87.547,16.4682,92.5795
4.63281,0.017203,-0.135294,-0.049407,-0.026465,0.0929564,0.995318,0.153557,0.0420943,0.987243,0.205999,0.977603,0.0430995,-0.000381,-0.009803,-0.331924,-56.802,-11.708,87.573,1.43807,84.0745
4.66444,0.0166709,-0.132633,-0.0462143,-0.0267465,0.0930006,0.995307,0.153217,0.0434799,0.987236,0.192329,0.98036,0.0436326,-0.001761,-0.037134,-0.239677,-56.889,-11.23,87.583,1.43462,77.6787
4.72313,0.0161388,-0.128908,-0.0424895,-0.0278486,0.0922775,0.995344,0.15317,0.0462517,0.987117,0.18489,0.982033,0.0377744,-0.002455,0.005287,-0.138462,-56.989,-10.617,87.596,1.45612,66.6231
4.78192,0.0996804,0.237717,1.27076,-0.0275444,0.0902364,0.995539,0.154829,0.0493594,0.986707,0.179797,0.982732,0.0437041,-0.007424,-0.029147,0.161158,-57.049,-10.692,87.586,2.22059,51.9694
4.81021,0.102341,0.238249,1.26757,-0.0267501,0.088812,0.995689,0.156188,0.0517761,0.986369,0.186881,0.981481,0.0420838,-0.009174,-0.01174,0.235328,-57.081,-11.064,87.576,2.14942,45.3486
4.86489,0.108726,0.199405,1.5911,-0.0278923,0.0884952,0.995686,0.156501,0.0520837,0.986304,0.202953,0.978394,0.0394292,-0.002404,0.029575,0.299021,-57.003,-11.841,87.546,2.35261,31.6659
4.89093,0.106598,0.200469,1.59535,-0.0264941,0.0885167,0.995722,0.156479,0.0524408,0.986288,0.202053,0.978079,0.050361,-0.007143,0.000294,0.376967,-56.963,-12.438,87.527,2.23834,25.5537
4.94967,0.156616,0.0168904,1.82097,-0.0242671,0.0873591,0.995881,0.15889,0.0503604,0.986011,0.272762,0.962079,0.00226444,-0.012494,0.00842,0.420813,-56.897,-13.724,87.515,2.35393,10.7638
4.98343,0.156616,0.0168904,1.82097,-0.0235511,0.088774,0.995773,0.158549,0.0496542,0.986102,0.236924,0.969918,0.055908,-0.007966,0.017187,0.468694,-56.804,-14.619,87.482,2.21305,4.97324
5.03796,0.155552,0.0163583,1.8215,-0.022616,0.08954,0.995726,0.15926,0.046542,0.986139,0.27907,0.959445,0.0398233,-0.00515,0.006856,0.397612,-56.72,-16.078,87.45,2.11461,5.28278
5.09691,0.0150745,0.0844687,0.641275,-0.0222212,0.0908877,0.995613,0.15827,0.0455096,0.986347,0.296011,0.954176,0.0438913,0.003855,0.014825,0.337183,-56.618,-17.234,87.419,0.809504,5.34552
5.12791,0.0145424,0.0834045,0.642339,-0.0218696,0.091213,0.995591,0.158254,0.0430803,0.986458,0.306939,0.950526,0.0478439,-0.000891,0.018826,0.26694,-56.552,-17.787,87.405,0.78555,5.04342
5.18366,-0.0578249,-0.0325961,-0.508088,-0.0219136,0.0930366,0.995421,0.157963,0.0416943,0.986564,0.315145,0.948097,0.0423742,0.001979,-0.000836,0.214967,-56.488,-18.536,87.383,0.485647,4.88276
5.21156,-0.0588891,-0.0347245,-0.512345,-0.0219293,0.0941996,0.995312,0.156994,0.0382456,0.986859,0.326651,0.944148,0.0433961,0.002653,0.024182,0.15411,-56.45,-18.819,87.377,0.473914,7.4366
5.26761,-0.0594212,-0.0357887,-0.515538,-0.0212115,0.0951302,0.995239,0.156622,0.0368581,0.986971,0.327398,0.943792,0.0454691,0.001635,0.006774,-0.012056,-56.376,-19.027,87.362,0.375464,13.0348
5.3245,-0.0854947,0.0206152,-1.18547,-0.0212115,0.0951302,0.995239,0.155983,0.0354835,0.987122,0.355622,0.934269,0.0259834,0.006007,0.031921,-0.147839,-56.274,-18.781,87.361,0.941557,21.2321
5.35429,-0.0854947,0.0206152,-1.186,-0.0208175,0.0964727,0.995118,0.155309,0.034083,0.987278,0.222249,0.968383,0.113313,-0.022948,0.008384,-0.243123,-56.268,-18.425,87.334,0.882198,26.7649
5.40911,-0.0987975,0.162689,-1.04712,-0.0210888,0.0967834,0.995082,0.154973,0.0341056,0.98733,0.288284,0.955799,0.0578001,0.004902,-0.014701,-0.321319,-56.424,-17.579,87.397,0.732513,34.0259
5.43708,-0.0977333,0.163221,-1.04871,-0.0239585,0.0978058,0.994917,0.152282,0.0358575,0.987686,0.302255,0.952395,0.0398107,0.002835,-0.001995,-0.397503,-56.482,-16.998,87.414,0.654191,36.7263
5.49149,-0.0881553,-0.089,-1.46908,-0.0250786,0.0968951,0.994979,0.151938,0.0355088,0.987752,0.27252,0.960987,0.0472969,0.002092,-0.029443,-0.37238,-56.598,-15.783,87.457,1.01798,42.7414
5.51526,-0.0881553,-0.0900642,-1.46908,-0.0244482,0.0962171,0.99506,0.152585,0.0358501,0.98764,0.26352,0.963811,0.0403127,0.004134,-0.021941,-0.394793,-56.657,-15.288,87.477,0.97902,44.9133
5.5719,-0.0966691,-0.023018,-1.128,-0.0246604,0.094316,0.995237,0.15397,0.0389511,0.987307,0.24487,0.968551,0.0441318,0.006526,-0.003576,-0.420549,-56.749,-13.92,87.511,0.583145,48.126
5.60198,-0.0950727,-0.0224859,-1.1296,-0.0246042,0.0932894,0.995335,0.153939,0.0407028,0.987242,0.233214,0.971504,0.0423191,0.006207,-0.011564,-0.443394,-56.807,-13.181,87.533,0.534657,50.0011
5.6569,-0.0828342,-0.117734,-1.07266,-0.0268582,0.0934877,0.995258,0.154575,0.0420767,0.987085,0.201104,0.97879,0.0390781,0.000549,-0.014876,-0.452762,-56.969,-11.675,87.57,0.427471,53.5469
5.68507,-0.0828342,-0.116138,-1.07213,-0.0265864,0.0922694,0.995379,0.153896,0.0441633,0.9871,0.187885,0.981132,0.0455913,0.002996,-0.006546,-0.420048,-57.022,-10.746,87.587,0.435567,54.7252
5.73944,0.28858,0.0818081,-3.66032,-0.0271189,0.0909708,0.995484,0.154174,0.0483437,0.98686,0.153843,0.987286,0.0399765,-0.007133,-0.04164,-0.373264,-57.133,-9.788,87.605,2.96015,67.8104
5.77253,-0.652195,0.066909,-0.25161,-0.0274974,0.0898159,0.995579,0.154512,0.0496908,0.986741,0.162497,0.986033,0.0365311,0.001184,-0.008456,-0.340197,-57.211,-9.131,87.612,0.879537,64.7763
5.82779,0.0358269,0.0275327,0.931276,-0.0281575,0.0888092,0.995651,0.154842,0.0517888,0.986581,0.139691,0.989319,0.0416534,-0.006606,-0.025067,-0.175628,-57.274,-8.239,87.614,1.56666,54.6433
5.85209,0.0331664,0.0296611,0.933405,-0.0285723,0.0880664,0.995705,0.15512,0.0538441,0.986427,0.129662,0.990644,0.0425755,-0.006613,-0.026403,-0.066971,-57.328,-8.081,87.613,1.46992,50.7899
5.90766,0.148103,-0.0533485,1.43359,-0.0285136,0.087077,0.995794,0.15612,0.05662,0.986114,0.140935,0.989085,0.0429816,-0.004848,0.00896,0.130837,-57.326,-8.217,87.599,1.77294,40.4737
5.93586,0.149167,-0.0544127,1.43625,-0.0285535,0.085948,0.99589,0.15645,0.0579953,0.985982,0.145397,0.988514,0.041235,-0.005803,-0.00718,0.209451,-57.326,-8.526,87.589,1.67612,35.9154
5.99035,0.11458,0.202598,1.72253,-0.02721,0.086131,0.995912,0.157122,0.0579875,0.985875,0.154431,0.986854,0.0476426,-0.000274,0.031958,0.37396,-57.247,-9.425,87.559,1.73163,27.6406
6.02212,0.115112,0.200469,1.72306,-0.0271697,0.0856955,0.995951,0.157122,0.0579875,0.985875,0.161391,0.985342,0.0552557,0.009424,0.012778,0.409175,-57.181,-10.11,87.553,1.64636,23.7774
6.07848,0.087974,0.0658448,1.3261,-0.0261392,0.0860443,0.995948,0.158504,0.0562276,0.985756,0.194819,0.980242,0.0342112,-0.008528,0.001689,0.42866,-57.139,-11.474,87.543,1.12381,19.0429
6.10822,0.0853134,0.0642484,1.3277,-0.0256983,0.0870825,0.99587,0.158526,0.0552101,0.98581,0.222406,0.974574,0.027225,-0.003891,0.003545,0.454858,-57.096,-12.233,87.52,1.0464,16.3123
6.16578,-0.0737882,0.125973,-0.620896,-0.0262572,0.0878776,0.995785,0.15782,0.0531457,0.986037,0.238206,0.970614,0.0341463,-0.004926,-0.005075,0.46816,-57.043,-13.776,87.493,1.02626,21.9294
6.19338,-0.0759167,0.125441,-0.623556,-0.0243297,0.0887894,0.995753,0.158198,0.0517467,0.986051,0.247777,0.967996,0.0398815,-0.00296,0.014586,0.447547,-56.999,-14.499,87.475,1.03344,25.1179
6.24789,-16.7289,-5.50218,3.96804,-0.0228805,0.0898781,0.99569,0.158891,0.0482719,0.986115,0.267991,0.962476,0.0426698,0.001651,0.014051,0.307643,-56.888,-15.674,87.448,17.7228,47.5844
6.27747,-8.55407,4.44034,-17.2478,-0.0218266,0.0909151,0.995619,0.15927,0.0455112,0.986185,0.274917,0.960418,0.0449157,-0.003829,0.005016,0.298158,-56.847,-16.143,87.435,19.9658,52.1714
6.33244,-0.183403,0.0248721,-1.65266,-0.0211188,0.0916102,0.995571,0.159268,0.0430619,0.986296,0.293436,0.954971,0.0438773,-0.002398,-0.003539,0.284404,-56.796,-17.09,87.416,2.23313,49.3816
6.35944,-0.181807,0.0232758,-1.65479,-0.0210473,0.0922829,0.99551,0.158964,0.041697,0.986404,0.303749,0.951678,0.0452305,-0.006244,-0.004528,0.253412,-56.777,-17.503,87.408,2.2554,47.5749
6.41426,-0.0892195,-0.0719724,-1.3318,-0.0204173,0.0937033,0.995391,0.158317,0.0392887,0.986606,0.313305,0.948712,0.0422446,0.006143,0.032898,0.15043,-56.698,-18.189,87.383,1.99815,45.103
6.44236,-0.0892195,-0.0751651,-1.33339,-0.0197335,0.0936166,0.995413,0.158325,0.0378962,0.986659,0.320224,0.946528,0.0392593,0.008099,0.037088,0.046547,-56.63,-18.326,87.375,1.94246,44.8309
6.49674,-0.0546322,0.014762,-0.828952,-0.0193705,0.0946635,0.995321,0.158009,0.0361586,0.986775,0.331846,0.942139,0.047465,0.012998,0.048139,-0.035698,-56.475,-18.259,87.365,1.59922,43.9558
6.53033,-0.0541001,0.0136977,-0.829484,-0.019411,0.0950759,0.995281,0.158009,0.0354387,0.986802,0.315974,0.948026,0.0375111,-0.007885,-0.033081,-0.113665,-56.486,-18.099,87.369,1.5838,44.1823
6.58803,0.0619005,-0.0980459,0.577954,-0.0212215,0.0962387,0.995132,0.155646,0.0354647,0.987176,0.308254,0.950238,0.0450156,0.008892,0.009396,-0.226099,-56.53,-17.488,87.372,1.73604,39.2241
6.61969,0.0619005,-0.0959175,0.580614,-0.0235782,0.0975523,0.994951,0.152941,0.0368758,0.987547,0.296725,0.954125,0.0400067,-0.002098,-0.038186,-0.281733,-56.59,-17.04,87.392,1.76442,36.6557
6.67674,0.11724,0.0924504,1.27768,-0.0250893,0.0966292,0.995004,0.152941,0.0368758,0.987547,0.27667,0.959912,0.0449703,0.006643,-0.00079,-0.3546,-56.682,-15.979,87.432,2.2703,29.394
6.70633,0.116708,0.095111,1.27875,-0.0240244,0.0965239,0.995041,0.153279,0.0368946,0.987494,0.269054,0.962206,0.0420525,0.001334,-0.026525,-0.338309,-56.738,-15.383,87.452,2.22507,25.9304
6.76382,0.112451,0.149386,1.47988,-0.0242544,0.0950502,0.995177,0.153919,0.0382696,0.987342,0.24651,0.968097,0.044959,0.00526,-0.002271,-0.328708,-56.862,-14.318,87.491,2.26939,20.2529
6.79184,0.111387,0.149386,1.47829,-0.0246604,0.094316,0.995237,0.15391,0.0396632,0.987288,0.239932,0.969811,0.043587,0.003836,-0.003025,-0.293033,-56.896,-13.824,87.506,2.17846,18.4416
6.84632,0.155552,0.0323217,1.68209,-0.0256721,0.092947,0.99534,0.154573,0.0427726,0.987055,0.226698,0.973065,0.0418676,0.00275,-0.014831,-0.165944,-56.986,-13.17,87.534,2.11102,15.2272
6.87188,0.155552,0.0344501,1.68262,-0.0254349,0.0923354,0.995403,0.154946,0.0441593,0.986936,0.229939,0.972229,0.0435739,0.000812,-0.004378,-0.15788,-57.013,-12.94,87.541,2.03601,14.1226
6.92924,0.133736,0.138744,1.81937,-0.0260475,0.0923083,0.99539,0.154898,0.045569,0.986879,0.21524,0.975505,0.0454102,0.000584,-0.010082,-0.180731,-57.064,-12.394,87.552,2.02893,12.3775
6.9611,0.132671,0.138212,1.81831,-0.02695,0.0913913,0.99545,0.155553,0.0465843,0.986728,0.217328,0.975419,0.036426,0.001506,-0.001331,-0.223919,-57.12,-12.009,87.56,1.97728,11.9119
7.0155,0.0533867,0.282947,1.48946,-0.02695,0.0913913,0.99545,0.155213,0.0479681,0.986716,0.200587,0.978732,0.0429976,0.001996,-0.002161,-0.24373,-57.175,-11.248,87.574,1.61106,13.5782
7.04763,0.0507261,0.288268,1.49159,-0.0263962,0.0905433,0.995543,0.155548,0.0493453,0.986595,0.195299,0.979975,0.038814,0.000954,-0.011167,-0.2577,-57.208,-10.821,87.583,1.56264,14.7739
7.10247,0.012414,0.133955,0.714175,-0.0275332,0.0902281,0.99554,0.155859,0.0496786,0.986529,0.175433,0.983504,0.0440878,0.00207,0.004421,-0.280989,-57.28,-9.898,87.596,0.874131,20.47
7.13415,0.00975342,0.132359,0.712046,-0.0271926,0.0906128,0.995515,0.155834,0.0507308,0.98648,0.168734,0.984759,0.0421835,0.00314,-0.000002,-0.277271,-57.3,-9.424,87.605,0.843138,23.8065
7.18969,-0.063146,-0.0357887,-0.493721,-0.0290697,0.0892765,0.995583,0.155142,0.0535116,0.986442,0.146838,0.988244,0.0425809,-0.000511,-0.002209,-0.392053,-57.384,-8.385,87.623,1.08753,35.154
7.21782,-0.0610175,-0.0352566,-0.494253,-0.0281575,0.0888092,0.995651,0.155459,0.0545491,0.986335,0.137056,0.989861,0.0372956,0.000001,0.003441,-0.393348,-57.41,-7.698,87.628,1.09709,40.7724
7.27291,-14.5957,0.24091,-0.196802,-0.0297718,0.0885716,0.995625,0.154779,0.0559146,0.986365,0.117213,0.992224,0.0418617,0.001279,-0.011238,-0.323662,-57.458,-6.603,87.642,14.2877,34.9538
7.30304,-12.3682,6.61987,1.02067,-0.0289534,0.087441,0.995749,0.154766,0.0573043,0.986288,0.108297,0.993339,0.0393624,-0.001951,-0.017282,-0.300561,-57.511,-6.067,87.645,13.7862,35.9725
7.36629,-11.1412,-8.69166,0.19909,-0.0299498,0.0860602,0.99584,0.155068,0.0604172,0.986055,0.0899928,0.99522,0.0379132,-0.001812,-0.010772,-0.191421,-57.616,-5.24,87.645,12.8668,38.0846
7.39496,-6.92048,-14.2203,11.8694,-0.0301928,0.0859987,0.995838,0.154694,0.0621466,0.986006,0.0901625,0.994957,0.0439568,-0.002746,-0.00653,-0.184097,-57.646,-4.948,87.645,18.4257,51.0841
7.46042,-0.164779,0.0121014,-1.84795,-0.0299414,0.0853833,0.995898,0.154657,0.0638898,0.9859,0.0781349,0.996169,0.0392715,-0.005359,-0.017216,0.036849,-57.726,-4.586,87.634,3.63061,20.9226
7.49086,-0.163715,0.0115693,-1.84795,-0.0299672,0.0845941,0.995965,0.154996,0.0645624,0.985803,0.0798522,0.99611,0.0372711,-0.005837,-0.00829,0.098022,-57.752,-4.722,87.627,3.79851,8.6574
7.54652,-0.0663387,-0.032064,-1.24134,-0.0308097,0.0835859,0.996024,0.156062,0.0662766,0.985521,0.0861357,0.995402,0.0418956,-0.003661,0.012543,0.217261,-57.707,-5.239,87.603,3.54174,21.7359
7.57436,-0.0663387,-0.0309997,-1.24027,-0.0292231,0.0835852,0.996072,0.156639,0.0669667,0.985383,0.0901979,0.995139,0.0395318,-0.004098,0.003448,0.281689,-57.696,-5.536,87.594,3.60854,31.7754
7.63006,-0.0849626,0.0216794,-1.12693,-0.0278151,0.083588,0.996112,0.158028,0.0662642,0.985209,0.119247,0.991852,0.0448197,-0.001773,0.013573,0.281759,-57.623,-6.431,87.576,3.45392,48.4946
7.66107,-0.0854947,0.0206152,-1.12693,-0.0278151,0.083588,0.996112,0.157694,0.0655616,0.985309,0.116892,0.992209,0.0431085,-0.006846,-0.015154,0.412275,-57.621,-7.268,87.556,3.49938,56.0916
7.71542,-0.0269623,-0.114009,-0.607593,-0.027127,0.0839857,0.996098,0.157711,0.0634878,0.985442,0.144916,0.988323,0.0470824,0.000487,0.017325,0.435422,-57.587,-8.415,87.543,2.9356,65.6076
7.7461,-0.0274945,-0.114541,-0.603336,-0.0283755,0.0843509,0.996032,0.157744,0.061775,0.985546,0.152793,0.987099,0.0478433,-0.004212,-0.001936,0.445474,-57.554,-9.151,87.529,2.82307,70.0474
7.80078,0.0640289,-0.18478,0.143218,-0.0257275,0.0846657,0.996077,0.159432,0.0603798,0.985361,0.210906,0.977151,0.0263378,-0.004834,0.013347,0.521345,-57.551,-10.772,87.525,2.14876,72.745
7.83066,0.0650931,-0.183716,0.139493,-0.0253427,0.086023,0.995971,0.159473,0.0579424,0.9855,0.196803,0.97862,0.0597638,-0.003115,0.025565,0.425372,-57.465,-11.629,87.508,1.94364,73.0919
7.889,0.10713,-0.0554769,0.878065,-0.0231561,0.0873998,0.995904,0.159829,0.0544851,0.98564,0.231953,0.971871,0.0407885,0.000913,0.002813,0.443718,-57.384,-13.024,87.481,1.39657,67.9173
7.91434,0.105002,-0.0538806,0.880726,-0.0229221,0.0887918,0.995786,0.159856,0.0520826,0.985765,0.232394,0.971595,0.0446793,0.000349,0.016,0.373953,-57.342,-13.659,87.473,1.2689,65.2436
7.96886,0.144378,0.033918,1.40858,-0.0232273,0.0895131,0.995715,0.159554,0.050344,0.985905,0.250748,0.967085,0.0432748,-0.000464,-0.000527,0.384624,-57.291,-14.789,87.449,1.20764,57.3028
7.99826,0.144378,0.033918,1.41177,-0.0219146,0.0902472,0.995678,0.159562,0.0482656,0.986007,0.264261,0.963497,0.0428835,0.004157,0.027033,0.309763,-57.236,-15.386,87.438,1.15959,53.1716
8.05887,0.112983,0.033918,1.3112,-0.0214516,0.0915537,0.995569,0.158938,0.0448157,0.986271,0.274794,0.960604,0.0415612,-0.003456,-0.016014,0.334692,-57.161,-16.386,87.41,0.962386,45.7197
8.08835,0.116708,0.0360465,1.30854,-0.0204618,0.0926156,0.995492,0.159599,0.0430697,0.986242,0.290329,0.955983,0.0424972,0.001889,0.005314,0.346465,-57.141,-16.991,87.402,0.896964,42.3091
8.14623,0.121497,0.0376428,1.30642,-0.0208371,0.0929663,0.995451,0.158634,0.0416887,0.986457,0.308246,0.950367,0.0422703,-0.001643,0.001476,0.318079,-57.037,-18.199,87.364,0.856972,35.3516
8.20566,-10.8688,-7.1379,0.605624,-0.0212711,0.0940239,0.995343,0.157979,0.0406732,0.986604,0.330031,0.943004,0.0426967,0.000443,0.016083,0.301524,-56.96,-19.089,87.343,12.5546,34.9086
8.23567,6.83995,-3.82603,-0.00683797,-0.0197619,0.0947082,0.995309,0.158001,0.0375515,0.986725,0.331924,0.942225,0.0451506,-0.002673,-0.004209,0.290423,-56.929,-19.586,87.329,7.98242,31.7472
8.29032,0.054983,0.0653126,0.728009,-0.0208706,0.0952326,0.995236,0.15769,0.0365231,0.986813,0.354602,0.934004,0.0435064,-0.001226,0.008941,0.329194,-56.858,-20.586,87.3,0.703555,25.7857
8.31557,0.054983,0.0658448,0.728009,-0.0194107,0.0964749,0.995146,0.157014,0.0351222,0.986972,0.364784,0.930072,0.04357,-0.003486,-0.000407,0.314337,-56.825,-21.04,87.287,0.738577,23.8793
8.37066,0.0666895,0.0456245,0.963203,-0.0191023,0.0972241,0.995079,0.156362,0.0326869,0.987159,0.371946,0.92705,0.0472734,-0.000216,0.011945,0.294354,-56.799,-21.985,87.262,0.784558,20.2438
8.40146,0.06935,0.0429639,0.963735,-0.01867,0.098151,0.994996,0.156022,0.0313051,0.987257,0.381043,0.923352,0.0471972,0.000442,0.015171,0.278295,-56.745,-22.472,87.242,0.798507,18.6575
8.4581,0.101809,0.0365786,1.12816,-0.0183977,0.0991111,0.994906,0.155388,0.0285345,0.987441,0.396254,0.917098,0.0437443,0.000909,0.009372,0.259539,-56.686,-23.366,87.213,0.888489,15.4713
8.4865,0.100745,0.0365786,1.12816,-0.0175588,0.099185,0.994914,0.155047,0.0271511,0.987534,0.402202,0.914411,0.0456747,-0.000847,0.009774,0.248795,-56.646,-23.76,87.196,0.894181,14.1708
8.54066,0.127882,0.0525419,1.55278,-0.0173076,0.0999611,0.994841,0.154692,0.0264744,0.987608,0.41282,0.909739,0.0441979,-0.003515,-0.006655,0.256791,-56.599,-24.558,87.171,1.15141,10.2793
8.57017,0.126286,0.0520098,1.55491,-0.016932,0.100592,0.994784,0.15436,0.0250597,0.987697,0.422933,0.905142,0.0429701,-0.001216,0.004811,0.237668,-56.575,-24.978,87.156,1.14623,8.77052
8.62911,0.125754,0.0514777,1.55598,-0.0165696,0.101633,0.994684,0.153701,0.0233406,0.987842,0.436787,0.898419,0.0453964,-0.002571,0.001107,0.195232,-56.498,-25.82,87.117,1.15156,7.60189
8.68647,0.125222,0.0504135,1.55651,-0.0163677,0.101694,0.994681,0.153391,0.0219399,0.987922,0.441342,0.896157,0.0460327,-0.003486,-0.003444,0.20661,-56.463,-26.354,87.093,1.11287,8.33892
8.74721,0.0901024,0.0770191,1.28354,-0.0159688,0.102371,0.994618,0.152726,0.0209196,0.988047,0.453814,0.890047,0.043235,-0.004651,0.00142,0.221313,-56.419,-27.112,87.063,0.926297,9.55839
8.77787,0.0885061,0.0770191,1.28354,-0.0158765,0.103038,0.994551,0.152006,0.0202071,0.988173,0.465769,0.883705,0.0460966,-0.00145,0.004551,0.21049,-56.388,-27.487,87.047,0.910083,9.98958
8.83313,0.0874419,0.0770191,1.2846,-0.0159362,0.102951,0.994559,0.151398,0.0184728,0.9883,0.46695,0.882911,0.0492546,-0.006277,-0.00265,0.206057,-56.329,-28.119,87.011,0.888266,10.5998
8.89197,0.0555151,0.115331,0.764193,-0.0145192,0.103345,0.99454,0.15136,0.0174316,0.988325,0.483289,0.874421,0.0426522,-0.001428,0.003965,0.182989,-56.284,-28.793,86.984,0.825707,11.8621
8.92035,0.0533867,0.113735,0.764725,-0.0138961,0.104163,0.994463,0.151053,0.0153514,0.988407,0.492205,0.869157,0.0479627,-0.004039,0.000925,0.175346,-56.256,-29.091,86.966,0.810541,12.5631
8.97591,-16.1819,0.765041,17.3187,-0.0142253,0.104083,0.994467,0.150735,0.0150174,0.98846,0.492612,0.86887,0.0489749,-0.002158,0.005944,0.187233,-56.226,-29.687,86.941,22.6404,76.5123
9.00587,0.0230562,17.3824,-17.1451,-0.0129967,0.105102,0.994377,0.149719,0.0129024,0.988644,0.496535,0.866915,0.0437246,-0.001487,0.001028,0.160674,-56.191,-29.978,86.923,25.6345,14.9513
9.06071,0.163002,10.8438,-9.65351,-0.0124947,0.105557,0.994335,0.149397,0.0115319,0.98871,0.507249,0.860486,0.047561,-0.001798,0.006946,0.122661,-56.137,-30.404,86.894,15.4636,56.3463
9.08781,-10.7331,-10.271,2.06361,-0.0125262,0.106047,0.994282,0.1494,0.010832,0.988718,0.511309,0.858151,0.0462593,-0.003942,-0.000528,0.125512,-56.116,-30.6,86.884,13.9838,30.6618
9.14354,-0.114229,-0.0443025,-1.12055,-0.0124628,0.105846,0.994304,0.149066,0.009787,0.988779,0.51778,0.854235,0.0467639,-0.00114,0.006783,0.107164,-56.093,-30.985,86.868,2.56921,27.515
9.17613,-0.113697,-0.0448347,-1.11842,-0.0120295,0.105463,0.99435,0.148053,0.00910216,0.988937,0.517433,0.854344,0.0485666,0.000103,0.014769,0.080958,-56.047,-31.15,86.848,2.60962,28.6939
9.23074,-0.131789,-0.0618623,-1.73408,-0.0113231,0.106151,0.994286,0.148396,0.00805623,0.988895,0.523456,0.850718,0.0476704,-0.002553,-0.007357,0.060537,-56.021,-31.373,86.837,3.10049,32.3696
9.2618,-0.131256,-0.0618623,-1.73141,-0.0110502,0.10651,0.99425,0.148395,0.00767494,0.988898,0.525151,0.849919,0.0430636,-0.000557,0.002236,0.029475,-56.008,-31.451,86.835,3.05655,34.427
9.31767,-0.194046,-0.041642,-2.06292,-0.0114766,0.106581,0.994238,0.147731,0.00801685,0.988995,0.526387,0.848948,0.0469422,0.001442,0.006712,-0.008292,-55.962,-31.456,86.827,3.15396,38.8722
9.34505,-0.193514,-0.0490915,-2.06399,-0.0114245,0.10687,0.994207,0.147367,0.00703707,0.989057,0.531863,0.845635,0.0449849,0.001719,0.011522,-0.017064,-55.938,-31.437,86.821,3.07891,40.7256
9.39989,-0.141367,-0.0522842,-9.38,-0.0114245,0.10687,0.994207,0.147367,0.00703707,0.989057,0.507072,0.853833,0.117674,-0.003062,0.023693,-0.024303,-55.866,-31.343,86.769,9.69338,68.9129
9.42664,0.122561,-9.31636,8.46386,-0.0114704,0.106566,0.99424,0.147057,0.0070025,0.989103,0.530627,0.846652,0.0401805,0.009666,-0.012101,-0.019973,-55.891,-31.31,86.788,13.1339,46.754
9.48069,-0.12966,-0.00226565,-1.5207,-0.0121311,0.107327,0.99415,0.146707,0.00701259,0.989155,0.523917,0.850726,0.0421425,0.000941,0.011947,-0.047772,-55.863,-31.218,86.79,2.14546,40.9077
9.50939,-0.130724,-0.00226565,-1.52176,-0.0123713,0.106509,0.994235,0.146378,0.0070034,0.989204,0.522229,0.851653,0.0443122,0.000443,-0.000106,-0.088029,-55.854,-31.105,86.799,1.99463,40.0535
9.56377,-0.125935,0.0557346,-1.31264,-0.0118825,0.105879,0.994308,0.146691,0.00628941,0.989162,0.51238,0.857408,0.0481506,0.00792,0.002431,-0.114206,-55.821,-30.77,86.816,1.60615,37.8576
9.59243,-0.125403,0.0567988,-1.31264,-0.0124979,0.105553,0.994335,0.146691,0.00628941,0.989162,0.506264,0.860813,0.051935,0.005693,0.000162,-0.137819,-55.805,-30.552,86.831,1.46677,36.7806
9.65039,-0.0854947,-0.0767614,-1.19292,-0.0124979,0.105553,0.994335,0.146364,0.00666019,0.989208,0.498531,0.865719,0.0446994,0.002994,-0.006464,-0.17112,-55.791,-30.034,86.867,1.22015,34.0787
9.68022,-0.0849626,-0.0719724,-1.19505,-0.0124979,0.105553,0.994335,0.147043,0.0066593,0.989108,0.495967,0.867074,0.0468992,0.007506,0.008253,-0.194193,-55.774,-29.693,86.884,1.08663,32.6702
9.74035,0.134268,-7.13736,-1.34404,-0.013534,0.105936,0.994281,0.146698,0.00840566,0.989146,0.487085,0.872218,0.0445405,0.002945,-0.025318,-0.226277,-55.786,-28.985,86.937,7.36178,33.4612
9.77102,-0.624525,0.213772,-0.0893154,-0.0137724,0.105117,0.994364,0.14735,0.00911228,0.989042,0.478454,0.876876,0.0465914,0.004621,-0.012173,-0.230287,-55.818,-28.595,86.973,1.01996,29.0196
9.82551,-0.111568,-0.0480273,-1.14556,-0.0137667,0.104399,0.99444,0.147719,0.00942682,0.988984,0.469135,0.881893,0.0466577,0.004563,-0.00759,-0.230681,-55.812,-27.854,87.016,0.391319,25.057
9.85344,-0.110504,-0.0474952,-1.14503,-0.0155702,0.104724,0.994379,0.147661,0.0101402,0.988986,0.463753,0.884873,0.0439625,0.002949,-0.015268,-0.226817,-55.832,-27.495,87.043,0.308183,23.6759
9.90854,-0.0663387,-0.0474952,-1.03914,-0.0151753,0.103363,0.994528,0.149016,0.0118744,0.988764,0.451807,0.891024,0.0441162,0.006003,0.005065,-0.236905,-55.849,-26.755,87.087,0.311994,21.2567
9.93234,-0.0684671,-0.046431,-1.03914,-0.0159729,0.103374,0.994514,0.149384,0.0129254,0.988695,0.448866,0.892221,0.0496019,0.006001,0.00052,-0.236471,-55.836,-26.451,87.1,0.311455,20.4367
9.98637,-0.0764488,0.0424318,-1.01892,-0.0148587,0.102368,0.994636,0.150052,0.0139472,0.98858,0.435182,0.899028,0.0486266,0.004455,-0.003943,-0.284891,-55.862,-25.624,87.145,0.460413,19.1587
10.0131,-0.0748525,0.0403034,-1.02104,-0.0158199,0.102209,0.994637,0.150356,0.0149921,0.988518,0.426328,0.903586,0.0421531,0.006258,0.000203,-0.271738,-55.874,-25.184,87.165,0.472023,18.767
